5 64
3 0.31313822 0.098973416 -0.111220166 -0.17914115 0.046037048 -0.080771826 -0.086914375 0.16770294 0.092544235 0.017007204 -0.21559702 0.1893432 0.06956279 -0.012599138 -0.2331058 -0.2210884 -0.3428289 -0.18173935 0.04628079 0.22010708 0.12190018 -0.2154334 0.024746146 -0.18695562 0.05813934 -0.17736508 0.07667301 -0.0005291409 -0.034442578 0.13807146 0.0899892 -0.19759306 -0.13298246 -0.004112081 -0.051040724 -0.04645615 -0.2711551 -0.16634399 -0.29685667 -0.1270913 0.051314335 0.09060229 0.09315594 -0.24539155 -0.19913962 0.19873811 0.16717316 -0.13880603 0.0581975 -0.02251973 -0.029480215 0.18595798 0.03112345 0.01758208 0.034722682 -0.11754079 -0.12401466 -0.29209712 -0.074010424 -0.047664393 0.21623527 0.06632171 0.20936806 -0.1770007
2 0.30855626 0.10634347 -0.11842793 -0.18359263 0.042871665 -0.06639529 -0.09764878 0.16774894 0.09787418 0.030204592 -0.20636895 0.18741325 0.059318118 -0.0027794736 -0.23322882 -0.22204448 -0.33919036 -0.18694924 0.059529617 0.21014008 0.13053074 -0.21810974 0.01698239 -0.18321045 0.05290891 -0.17879744 0.083964586 -0.005206331 -0.033778287 0.14193723 0.07668575 -0.19391131 -0.12552837 0.008199902 -0.05186453 -0.040690638 -0.26253065 -0.16858506 -0.29258338 -0.1327923 0.043907862 0.097284235 0.09109224 -0.24336383 -0.1834014 0.19300015 0.15706855 -0.118918724 0.06950101 -0.0067842477 -0.01920882 0.18795371 0.022251753 0.030806867 0.032446038 -0.12096907 -0.13174489 -0.29330444 -0.07593152 -0.0585682 0.21515122 0.07151824 0.21196152 -0.16665035
4 0.30984023 0.10939559 -0.10814629 -0.18396349 0.039799683 -0.07652708 -0.09808582 0.17097488 0.09800831 0.022249583 -0.2218583 0.19711934 0.07375865 0.00026242502 -0.22469954 -0.2183418 -0.3418791 -0.18832882 0.06008925 0.21979119 0.12637347 -0.22135323 0.018826703 -0.18062122 0.05653427 -0.17350541 0.07417113 0.010113428 -0.03903775 0.14606553 0.0845233 -0.2009156 -0.12627494 -0.007397214 -0.05211352 -0.051819485 -0.271216 -0.17815423 -0.29173568 -0.12335883 0.061399724 0.09953314 0.08493675 -0.24586357 -0.19306105 0.20178251 0.17348059 -0.1421731 0.050093994 -0.024370521 -0.032930147 0.19045481 0.03696839 0.028854359 0.026141651 -0.12180929 -0.12502077 -0.29192722 -0.0780197 -0.048979945 0.22049515 0.053539895 0.2153759 -0.17314965
0 0.3128978 0.087426096 -0.11249776 -0.17825153 0.035931803 -0.07341646 -0.09084852 0.15961727 0.095610715 0.019001106 -0.20810224 0.17278005 0.057243768 -0.016609874 -0.23631701 -0.22838803 -0.33783358 -0.19222042 0.04357822 0.21839984 0.13648067 -0.21471198 0.020738728 -0.1884398 0.067089155 -0.18152796 0.0907763 -0.013028928 -0.024836175 0.12949018 0.090945825 -0.18431865 -0.14057934 0.015653182 -0.04154775 -0.03857644 -0.2689373 -0.15766142 -0.30130902 -0.13827668 0.04467692 0.09381781 0.0986548 -0.23504937 -0.19976594 0.20355463 0.14703195 -0.11803956 0.07590916 -0.010598222 -0.017662443 0.18105447 0.02813166 0.020303754 0.04289645 -0.113811135 -0.13468747 -0.29826924 -0.064192675 -0.05205145 0.20524554 0.07473421 0.2173656 -0.16960403
1 0.32057324 0.100573815 -0.0984003 -0.1801642 0.043371767 -0.08022464 -0.0896391 0.17089589 0.09726099 0.0077116503 -0.227765 0.19698092 0.0682363 -0.0120730875 -0.23113953 -0.22823595 -0.3516385 -0.18594642 0.05485101 0.21637712 0.13040611 -0.21969062 0.020136714 -0.18658598 0.060513064 -0.16767377 0.08352074 0.009113979 -0.028792873 0.15065996 0.094281346 -0.20430599 -0.13860537 0.0013222329 -0.055779055 -0.045939017 -0.26875252 -0.18044259 -0.30521157 -0.1357949 0.062206555 0.08942025 0.089313 -0.24823514 -0.19749658 0.20553708 0.1654729 -0.14795734 0.060142122 -0.027240966 -0.03428794 0.18496796 0.04372531 0.017611312 0.04224506 -0.117907174 -0.13092302 -0.29210246 -0.06914062 -0.059079655 0.21068485 0.059298158 0.2162966 -0.17631973
