100 64
16 0.16627945 0.2273765 0.02496369 -0.0493692 -0.0688351 -0.39276433 0.23731345 -0.0920085 0.242903 -0.3194267 -0.040485647 0.27089307 -0.52841896 -0.19446865 -0.1574109 0.1887459 -0.090768464 -0.4305932 -0.2395911 -0.19015023 0.20114118 0.108977355 0.3002146 0.5335711 -0.0130344145 -0.28547427 -0.015389395 -0.2584006 -0.053137153 -0.077208586 -0.062015112 0.45245937 0.3117258 -0.14906093 0.1952998 -0.13627106 0.07464881 0.39175192 0.027773304 0.6738661 0.17944233 0.07614518 0.25296053 0.43372855 0.09892371 -0.40931305 -0.1465767 0.24377021 0.18712775 0.11323965 -0.029732058 -0.13777381 -0.0026259753 -0.14933774 0.18147075 -0.26980117 -0.47229102 0.214966 0.11519335 -0.091513485 0.07122791 0.24137048 0.24298438 0.13407683
53 -0.16041964 -0.034764204 -0.28405377 0.08866769 -0.35824713 -0.144997 0.22023536 0.046151835 0.1568626 0.20512159 0.14434661 0.54166657 -0.11002833 -0.57139283 0.021714259 0.02839458 0.17120038 -0.28777224 -0.3808631 0.043012932 -0.4948882 0.4283725 -0.36782882 -0.43768322 -0.16603659 -0.20416392 0.5119958 -0.19286922 -0.6496347 0.3421378 -0.27999014 0.28020915 -0.07959713 0.47665128 -0.11596641 -0.0822576 0.048240546 -0.19635297 0.31691906 -0.11391449 0.32278228 0.13646686 0.14484808 0.23328358 -0.04697782 0.14932661 -0.123505674 -0.3577694 -0.08331154 0.064543165 -0.1697903 -0.48131493 -0.120989904 0.006593755 -0.2043324 0.52307814 0.2602995 0.49659207 0.006596125 -0.23787217 0.2804914 -0.3703623 -0.08035282 0.35287452
63 0.14973284 0.014049282 -0.26800013 -0.37099475 -0.066279076 0.32426733 -0.112708494 -0.38156137 -0.42705005 0.30383152 0.0812789 0.061412167 -0.3058695 0.009519999 -0.0605818 0.43365183 -0.14094679 -0.049248006 0.34377056 0.27753836 -0.3107356 -0.29973996 -0.115217514 -0.4331051 -0.33432907 -0.15975598 0.14110965 -0.24958198 0.03172197 -0.078004256 0.04671878 0.0552351 -0.20960477 0.6302238 -0.053155936 0.18012874 0.34649143 0.3666375 -0.21894024 -0.32223454 0.11740321 0.43157887 -0.18871808 0.09440207 -0.23955667 0.37535447 -0.038050074 0.21802238 -0.17197122 0.53656435 -0.055736825 0.12853144 -0.23882966 0.10401653 -0.83621514 0.31784663 0.38946244 0.20408134 0.18743806 0.27701178 0.1917223 -0.072997816 0.13460426 0.14361951
56 -0.007094862 0.19032145 -0.3703274 -0.001462244 0.3463965 -0.13647111 -0.13309382 -0.3092916 -0.14111324 -0.04047624 -0.33543736 0.19193412 -0.38097924 -0.47658843 0.0122175915 -0.012872146 -0.15629086 -0.7413974 0.3128446 0.16652563 0.39644343 0.29595864 0.33346573 0.11395581 -0.20113713 -0.28290388 0.06439176 -0.44808355 -0.26497987 0.14726076 0.038684223 0.1303951 0.5541435 -0.33350366 -0.13331117 0.043602962 -0.12244414 0.32273713 0.034631982 0.3594429 0.28448898 -0.30947787 0.32594386 -0.05503514 -0.19232306 0.16799851 -0.24284619 0.45780233 -0.4918916 0.13867958 -0.22132769 -0.11543948 -0.35628366 0.6044588 0.2913186 0.2653483 -0.17032073 0.40160614 0.16541545 -0.07939251 -0.3773229 -0.33986783 0.7143591 0.029971577
15 -0.051016156 -0.18951555 0.10047652 -0.07367387 -0.05873176 -0.10074528 -0.24781325 0.006197753 0.58073467 -0.13369913 0.2830982 0.26716283 -0.48045522 -0.4784911 -0.17873637 0.12298585 0.21721211 -0.045544073 0.11755779 -0.30328122 0.44513908 0.24216795 0.34695944 -0.21629779 -0.011042629 0.25189736 0.30230784 0.081252135 -0.4281593 -0.06725003 -0.38277367 0.39833206 0.012809379 -0.085006915 -0.46325505 -0.33039594 0.10766494 0.36330825 0.16330846 0.31554413 -0.06496972 0.7001105 0.08358338 0.16005509 0.17032364 -0.3105279 -0.26663604 0.5550195 0.14107186 0.13017492 -0.053479165 -0.15946212 0.07104643 0.16811903 -0.74723595 0.09057156 -0.6487903 0.2615167 0.09829249 -0.48073366 0.12570488 -0.16395797 0.23660475 -0.32873082
75 0.76437134 0.07860266 -0.45342255 -0.001058146 -0.10594492 -0.0568169 0.2558555 0.082744546 0.34914273 0.04718442 -0.067600556 0.4366079 0.121532775 -0.12507954 0.028458612 0.08949262 -0.51855594 -0.032044362 -0.4296164 -0.23332608 0.49842042 -0.19030319 -0.5967622 -0.04997949 0.4034692 0.16824132 -0.10912676 -0.33403328 0.39309615 -0.63067114 0.41709682 0.10540493 -0.016316658 0.22429189 -0.006889723 -0.010084553 0.15658663 -0.2815184 0.056057263 -0.046875328 0.4698225 0.120648526 -0.45293874 0.15159969 -0.57686085 0.06899081 0.8111429 -0.34681734 0.3604697 -0.105213575 -0.9552215 0.17115934 0.030786099 -0.21308725 -0.71373314 -0.18877783 0.42714587 -0.17247133 -0.24021374 0.41059685 0.1245246 -0.30766213 -0.0030375053 0.02708356
32 0.24630666 0.45152754 -0.52674603 -0.14938632 -0.016567767 0.093634315 -0.016924225 -0.5432693 0.11776934 -0.038671695 -0.14339606 0.25303006 -0.3372671 0.08909833 -0.37904945 0.18557069 0.186684 -0.35285327 0.22455074 0.15855113 0.14054978 -0.10360726 -0.31844166 0.26727018 -0.33614668 -0.25435537 -0.02048097 -0.059448224 0.36960602 0.664796 0.042922355 0.09456546 -0.040667575 -0.32138163 -0.30302173 0.19021595 0.66477245 0.316678 -0.34042343 0.42120874 0.18064769 0.20216754 0.21126275 0.17501847 -0.4253271 0.03568281 -0.18249074 -0.13277718 -0.25204536 0.52835083 -0.33948183 -0.042769972 -0.83066046 0.33815145 0.18165855 0.36498252 -0.4048572 0.25538167 0.10384837 -0.5165588 -0.22374977 -0.5595162 -0.48376808 0.20328785
1 0.7975707 0.020257125 -0.7638943 0.039379794 -0.42391548 -0.4119644 0.2643559 -0.1549253 -0.33554444 0.3290845 -0.46412268 -0.0104268575 0.25345993 -0.20025223 -0.031430293 -0.22939442 0.1998123 0.123485304 0.024518613 -0.396557 -0.09909906 -0.17382136 -0.37825513 -0.23598146 0.15506685 -0.07729065 0.016971825 0.2174591 -0.4188969 0.15483753 0.014324327 0.24711859 0.43443778 0.2750552 0.086202845 0.14855316 -0.04929968 0.193632 0.57166404 -0.26238468 0.14095011 0.16579114 -0.1565758 0.39644498 -0.38169158 -0.066090144 0.48904648 -0.15449162 -0.28182107 -0.09420919 -0.62169147 0.0028834122 0.612196 0.3863931 -0.23021524 0.04314852 -0.3527131 0.25298744 -0.11263744 -0.63724965 0.18745922 -0.21956111 -0.32478103 -0.18819752
38 0.49622467 0.5563083 -0.39216375 0.41604164 0.5862021 0.09531066 -0.058022656 -0.024408128 -0.027630603 -0.033765566 -0.29641044 -0.039675664 -0.38509074 -0.47439298 0.40901464 -0.16128047 -0.47807354 -0.22139457 -0.11248909 0.05861349 -0.26446614 0.1923967 -0.42105758 -0.11601278 -0.5524366 -0.34611812 0.35722247 -0.032561157 -0.2823253 0.13042343 0.16118598 0.05119428 -0.27368212 -0.32498553 -0.3913574 -0.04284536 -0.089595534 0.26160252 -0.29874185 0.21297084 0.54267436 -0.8283006 0.47614717 -0.26510593 -0.26545152 -0.4035759 -0.025890494 -0.19322649 -0.5959796 -0.4521501 -0.36964732 -0.008642092 -0.067888364 0.4232743 0.552244 0.33072945 0.12822984 -0.12081627 0.017103588 0.21511275 -0.0767419 -0.32149598 0.11150446 -0.078275114
86 -0.074594125 -0.06542337 -0.015861973 -0.2721553 -0.30524883 -0.07095949 0.28618315 0.07473893 0.20774552 0.25383168 -0.040629037 -0.11031811 -0.4767387 -0.10891687 -0.051400196 0.52889436 -0.08532147 -0.26271534 0.30175275 -0.18557137 -0.09181928 -0.24449423 -0.29725143 -0.012979391 0.1773326 -0.13222814 0.049507342 -0.025399415 -0.6440825 0.37287432 0.046617735 0.10746644 -0.12749632 0.5564329 -0.50730884 -0.2149971 -0.093013085 0.10735399 0.5409418 -0.20365857 -0.014382304 -0.6927374 0.6765965 0.29211086 -0.30532596 -0.31071416 0.26069298 0.44599882 0.07623074 -0.03729632 0.44814664 0.014663744 0.16959995 0.19757164 0.09083783 0.026591899 -0.64511895 -0.58107215 0.075920634 -0.3068103 0.12779246 0.5223487 -0.18114264 -0.38127407
14 0.4076101 0.45954973 -0.52516663 0.07100649 -0.3970525 -0.06424595 -0.031648647 0.100269504 -0.045359313 0.12997025 0.49279317 -0.17616713 -0.055728756 -0.21042472 -0.043950748 -0.41061878 0.29289618 -0.24708794 0.1313985 -0.5950526 0.008414575 0.44807684 0.7010823 0.5470629 -0.28705162 -0.14573802 0.20703782 -0.22306454 -0.96225345 0.044858858 0.35219845 0.18682557 0.136068 -0.0018842135 0.044227634 0.21577527 0.3229504 -0.25682038 0.07980127 0.36857706 0.17110245 0.6086967 0.061503213 -0.15366602 -0.33515188 -0.17505118 -0.26526716 0.14025353 -0.0003910932 0.60264456 -0.2718584 -0.08906116 -0.47092235 0.47118455 -0.46856755 -0.17645584 0.13332722 0.10505127 0.21127976 -0.4049152 0.2310722 0.25168437 -0.15433457 0.35326123
66 0.2844569 0.22281359 0.020562973 0.16659975 0.020931078 0.16170731 0.20127141 0.44995138 0.29339373 -0.39225885 0.13595873 -0.16874164 0.3455557 -0.42728487 -0.13586617 -0.14865826 -0.057637844 -0.46503723 -0.41280353 -0.87474066 -0.12333001 -0.20761529 -0.18161812 0.028229015 0.4876111 -0.68000466 0.5749001 0.03188175 0.21790883 0.29828843 -0.19369291 -0.5030958 -0.03330964 -0.08755633 0.06968287 0.5251846 -0.372354 0.18503982 -0.44539204 0.06396747 0.48920956 -0.6215594 -0.48231176 0.15337439 -0.25460333 -0.019866241 0.6151426 -0.07176244 -0.15992491 -0.21368925 -0.41237113 0.46572986 -0.08605462 -0.04929502 0.30349192 0.21192457 -0.27489397 0.018435454 -0.3717092 0.049090147 0.24069718 -0.015859878 0.42315423 -0.065046184
81 0.42694795 -0.047025543 -0.40569127 -0.6045652 0.06678493 0.014272344 -0.04074402 -0.3174969 0.5202228 -0.16717708 -0.26413703 0.34654573 0.2079352 -0.0262973 0.010504796 0.12656136 0.002493828 -0.0153569905 -0.114185296 -0.28226134 0.587129 -0.19775131 -0.10391829 -0.41929224 0.44074017 -0.1074317 0.3522015 0.57532597 0.1658352 -0.31899372 0.16389517 0.18823521 -0.07567041 -0.119840786 0.08197777 0.4136197 -0.12273224 0.21963443 -0.23617469 -0.29081666 0.31502166 0.058787372 -0.09349266 0.5362722 -0.3096931 0.113974385 0.5929837 -0.13894388 0.034613762 -0.30772337 -0.25608173 0.6265069 0.020546535 0.3178772 0.2023476 0.8105025 -0.30008197 0.05886788 0.10945826 -0.2130902 -0.054395072 0.051866647 0.1294005 -0.1976023
71 0.67088974 0.205872 -0.28553948 0.06316361 -0.28232563 0.07138267 0.4827006 -0.23674147 -0.08619505 -0.221861 -0.27320042 -0.052095007 -0.415221 -0.17803429 -0.38826576 0.18648475 -0.027113773 -0.33303684 -0.03120043 -0.06530545 0.053118646 -0.1390706 0.040336944 0.5201976 0.08050433 0.2138763 0.33545694 -0.20601843 -0.062147938 0.33071747 0.074443474 0.0033425058 0.19925715 -0.34255105 -0.4993821 -0.020676257 -0.227387 0.10839741 -0.14588028 0.33989853 0.086810835 0.31229568 0.17934786 0.43831924 0.29206225 -0.36968035 -0.34989747 -0.38817763 -0.33407852 -0.2490578 0.13953511 -0.014207373 -0.18007886 -0.051236685 0.0734013 0.47580165 0.14001234 -0.044704583 -0.18369488 -0.21726595 0.26375735 -0.47060016 -0.24549192 -0.03941806
76 -0.12867682 0.093957186 0.041611046 0.32400954 -0.572519 0.03778015 0.66383666 -0.45658314 0.14821178 -0.0080406265 -0.2906199 -0.029815866 0.12697801 0.06828364 -0.11194368 0.09231448 -0.008254573 -0.23967102 -0.5246323 -0.101111375 -0.54466695 0.110811055 0.15338147 -0.020780949 0.4377239 0.012637493 -0.3965157 0.7773814 -0.3903384 0.46108267 -0.009904105 0.44605428 -0.62712675 -0.039974708 0.04051366 0.20211591 -0.14165783 -0.14342794 -0.048549682 0.20692733 0.0020591856 0.11011308 -0.22544068 0.73499125 -0.26872194 0.47760063 -0.15607701 -0.34309897 0.11120604 0.16484685 0.029238725 0.27354637 0.18248522 -0.038918123 -0.4676011 0.48985553 0.035475764 0.03465919 -0.3209069 -0.048836187 -0.13271736 -0.67270756 0.37613398 -0.17852598
92 0.627326 0.10268694 -0.08040068 -0.23136114 -0.7848756 0.054966867 -0.0014346569 0.13928272 -0.3225408 0.029368373 -0.34191096 0.11311639 -0.12878673 -0.14772528 -0.4633851 0.04905738 -0.56330746 0.11570995 0.033282135 0.40482023 0.053867795 -0.5887198 -0.6206794 0.21002391 -0.18722022 -0.29163653 -0.13231048 -0.090117216 -0.0373612 0.03377129 -0.106352046 -0.05958492 0.53793913 0.65189916 -0.3750486 -0.081365936 -0.45321319 -0.0138574485 0.7420696 0.27174312 0.32831302 0.13189991 0.7604405 -0.06960916 0.6673253 -0.2747553 -0.14572512 -0.14877039 -0.49128783 -0.24823657 -0.3242713 0.0999937 0.153592 0.24353294 -0.1530289 0.38654473 -0.28262675 0.2817712 -0.48553532 -0.21458094 -0.27817836 -0.21842764 -0.14129844 -0.27512136
87 0.15478934 0.34429836 -0.10285328 0.39559308 -0.55174553 -0.14469117 0.48868927 0.39457956 -0.012400971 -0.13001296 0.028751275 0.1220911 -0.013939005 -0.4606783 -0.14449286 0.32406226 -0.11052525 -0.39819953 -0.39437726 0.009730955 -0.21200632 0.08982204 -0.2434238 -0.22077464 0.27032945 0.029339267 -0.25361338 -0.11720806 -0.0061808517 0.042666122 -0.009742195 0.39786795 -0.50640917 0.31924617 -0.19451545 -0.12837821 -0.49872184 -0.10113887 0.07668425 -0.5243678 -0.15299669 -0.018713709 0.39925212 0.17589155 -0.4254367 -0.3731419 0.23024312 0.22437267 0.25133905 0.09841327 0.013856337 0.043855947 -0.12016071 -0.13171071 -0.32748598 -0.34360787 -0.18740097 -0.009048626 0.17462614 -0.33835956 -0.086261235 0.32869282 -0.24078251 0.07847757
34 0.5202743 0.43036 -0.095662385 0.11694591 -0.4571091 -0.103805564 0.054173276 -0.278624 1.779887e-05 -0.13181533 -0.032275047 0.2781169 -0.060602285 0.37177572 -0.61283547 0.11603309 0.0032237833 -0.13514152 -0.23149616 -0.020482033 -0.098217174 0.13614759 -0.26116186 0.07458903 -0.38931367 0.07773879 -0.01950519 -0.13296327 0.05346001 0.65265435 0.28181207 -0.021446109 0.25815293 0.8978401 -0.06720204 -0.20329005 0.6162266 0.10565023 0.1568522 0.8577707 0.11455928 0.06600056 0.40523934 0.18695523 -0.008669774 0.10155396 0.18674271 -0.13849351 -0.23529017 0.015055443 -0.27112234 0.018980576 -0.4059818 0.06902639 0.4164425 0.23932694 -0.18420169 -0.21188687 -0.42396164 0.16089681 0.23567776 -0.35721257 -0.85869485 0.17326412
47 0.22978772 0.026621873 0.38675994 -0.06261994 0.24025525 -0.059466302 -0.37323645 -0.16822828 0.026067263 -0.18774043 0.56246674 0.48563227 -0.3057443 0.09548588 -0.122265756 0.008246261 0.07622669 -0.47059917 -0.70372385 0.18975987 0.50349885 -0.09917698 -0.28901502 0.0018880437 -0.5448975 -0.2590599 0.21425174 -0.2762106 -0.3234332 0.03356532 -0.16813159 0.33709714 -0.04536815 -0.18281011 -0.4101121 0.0054976265 0.9214752 0.27898815 -0.4633668 0.42300668 0.23451146 0.49011755 -0.25292182 -0.19186269 0.4916276 -0.07964073 0.006208243 0.3244363 -0.27677205 0.54997444 -0.51261145 -0.1719928 -0.18397488 0.07679291 -0.39718857 -0.05913096 0.46241486 0.023796344 0.10386116 0.27190003 -0.03804335 -0.38267717 -0.15082708 -0.05144688
2 0.47370237 0.11746529 -0.030244278 0.09690452 -0.015039954 -0.42272246 -0.31597823 -0.36485532 -0.018080875 -0.1739692 -0.5762632 0.5185294 -0.36903757 0.12675343 -0.39537302 -0.004689087 0.06150376 -0.32875946 -0.27288836 0.26451033 0.1205225 -0.0552228 -0.16867843 -0.5116414 -0.021288712 -0.07285201 -0.12937911 0.48742327 0.07325057 -0.21173371 -0.07227597 0.20305926 0.21276198 0.5806166 0.25710824 -0.05131599 0.19172657 0.8021445 -0.40587893 0.22289796 -0.5274954 0.218536 -0.06391551 0.1707471 0.1745234 0.5361245 0.15945564 0.73461175 -0.24402735 0.26486704 -0.66055983 0.08618986 -0.046460792 0.30443394 0.21801725 -0.008771453 -0.59165996 0.28938013 0.091593 -0.21817203 -0.5908458 -0.26194978 -0.15670578 0.32949278
48 0.6479684 0.46352622 -0.46928108 -0.3506793 -0.17389815 -0.28813347 0.29589352 -0.21163973 0.037077382 -0.07769364 -0.6893689 0.31337085 -0.5928524 0.37807003 -0.04025636 0.25684333 0.07333007 -0.12016631 -0.05071188 0.38066196 0.31841627 -0.029875426 0.5610338 0.060758602 0.09101162 0.09791153 -0.31380838 -0.05584889 -0.4997285 -0.15024756 0.03812306 -0.18592605 0.3960004 0.24776873 0.14373809 -0.34993428 -0.08374991 0.02566103 0.21545114 0.104668885 -0.3469668 -0.27449238 1.064432 0.27278408 -0.3950387 -0.7963401 0.07219382 0.35469222 0.16933718 -0.25639138 -0.25981012 -0.041284315 0.26090965 -0.13908233 -0.03824547 0.40728864 -0.22785187 0.040867362 0.4661341 0.55620134 -0.18773611 0.35491225 -0.7845986 0.5418933
25 0.20992632 0.547916 -0.27526888 -0.18399273 0.017162038 0.37550858 0.29453608 0.48204646 0.29928488 0.3307446 -0.39655292 0.34335154 0.027130518 0.033685233 0.22138269 -0.10271971 0.16373368 -0.16863278 0.17351475 0.33942357 0.042496435 0.20446312 0.11941074 0.15416269 -0.031899415 0.16261333 0.14669843 0.16497438 -0.100131825 0.014855298 -0.2809148 0.13712162 -0.09284313 0.2674501 0.031947047 -0.08292108 0.00928768 -0.37702072 0.26312873 0.0757144 0.28852487 0.6355415 0.5445474 0.117769174 -0.25378752 0.08123506 0.18570226 0.18970893 -0.097797364 -0.30284303 -0.43852726 0.3859177 -0.46351364 0.45848292 0.06480244 0.3257474 -0.18130289 0.49467903 0.13231015 0.12643416 -0.14452195 -0.56050164 0.21243025 0.3231936
83 0.56176317 0.56090564 -0.56022555 0.21651125 -0.25460017 0.47342148 0.0008652903 0.400505 -0.5660997 0.035902884 0.1424524 -0.055010222 -0.045584094 -0.28235283 0.048591837 -0.18249115 -0.36875615 -0.5804441 0.25599298 0.24514362 0.005971489 -0.2658777 0.18474926 0.11440895 -0.15771195 0.07448353 0.33072898 -0.25877142 -0.18051565 -0.05039251 0.30759734 0.21372506 0.29358503 0.19011843 -0.2768306 -0.1140552 -0.5137701 -0.12219251 -0.033939745 -0.14986397 0.2974121 0.42587787 0.51597553 -0.2591149 0.3351022 -0.21227637 -0.24017005 -0.10557606 -0.04005441 0.015379043 -0.25664738 0.11911146 -0.3558313 0.8116336 -0.22271685 0.14858375 0.38766322 0.22839579 -0.019948157 -0.19974115 -0.088967115 0.0036925205 -0.089085385 0.583845
45 0.14178221 0.22585185 -0.55458754 -0.28879878 -0.16568753 -0.3407325 -0.34883103 -0.24455139 0.45536673 0.20165417 0.46049267 -0.14462101 -0.1294806 -0.19320843 -0.12508953 0.20920056 0.0013287688 0.28857675 -0.11987995 0.112407096 0.090862 0.51167285 -0.10731585 0.3604035 -0.4035553 0.31368375 -0.04829756 0.04620868 -0.5284004 0.21540156 -0.20493898 0.33140182 -0.12294581 0.28319985 -0.44889444 -0.022945816 0.34424356 0.21169826 0.35659587 -0.03283728 0.3566771 0.6802452 -0.2414488 -0.14756846 -0.57640606 -0.29592222 -0.15321343 -0.24336596 -0.20608732 0.035347592 0.23271458 -0.23832916 0.025739135 0.0035691948 -0.6312829 0.9483515 0.2437976 0.38354757 -0.05896794 -0.26397276 -0.038308818 -0.61183053 0.36599767 -0.3372329
18 0.4253087 0.089733504 0.012928173 -0.4397929 -0.31791672 -0.22425348 -0.030551804 0.72149706 0.3644647 -0.022661652 -0.044892862 0.19471985 0.19389346 -0.35970953 0.056357764 -0.50981355 0.30950424 -0.16833994 -0.25207838 -0.36010617 0.0033996867 0.12636648 0.49626407 -0.15498473 0.059218366 -0.16495426 0.20523083 0.9080524 -0.72659004 -0.17751247 -0.68192834 0.32604042 -0.22212906 0.07677827 -0.19801313 0.5125492 0.236277 -0.2819206 0.04343293 -0.17040536 -0.12409508 0.65428895 -0.25521007 -0.35455078 -0.24991955 -0.113319054 0.33969843 0.3641642 -0.28409168 0.44861045 -0.22840348 0.3292045 -0.30238843 0.42118326 -0.12674436 -0.043900788 -0.52933115 0.25716153 0.05860693 -0.38457283 -0.32192463 -0.008204057 0.15252337 -0.6257232
42 -0.1608608 0.08567363 -0.027930941 -0.32135007 -0.3074178 -0.008727331 -0.046211954 0.30461216 0.1366036 0.32396454 0.29553974 -0.3553399 0.028633097 -0.38804427 0.22654139 0.17192517 -0.15115392 -0.33890176 0.105126366 0.2694132 -0.339146 -0.26870787 0.72978 0.3872125 0.087469295 -0.17501058 -0.018171586 -0.2544241 -0.8023423 -0.36846048 -0.3054809 0.58269054 0.3101297 0.40408474 0.0834064 -0.139377 -0.17149702 -0.10826479 0.4688382 -0.08686971 0.44476786 0.18873103 0.38222444 -0.19743828 0.08751692 -0.23149133 0.26333997 0.3932132 0.36908036 -0.09109573 0.223179 -0.19728366 -0.014962311 -0.071873315 -0.32483664 0.3253286 -0.0774508 0.3393148 0.4052763 0.42302102 0.15845588 0.49756324 0.53154695 0.1566859
95 0.13151975 0.35553864 -0.60334945 -0.13778417 0.18546727 -0.066149585 0.101918146 -0.45742628 -0.34204242 -0.058918107 0.5444883 -0.26788822 0.0060257646 -0.16419977 -0.032598346 -0.030952329 -0.51008356 -0.071761794 -0.02126439 0.12786044 0.2686385 0.08925523 -0.051985353 -0.071659535 -0.38172773 -0.71760684 -0.33197802 -0.14435935 -0.220033 -0.113627724 0.02075497 -0.14633954 0.07090829 0.6170584 -0.15341388 -0.18539777 -0.15948391 0.3987844 0.25723365 -0.012853061 -0.18181649 0.22847368 0.34447804 -0.09863742 -0.45705017 -0.5407812 0.32027885 -0.111632556 -0.14276235 0.18235147 -0.24877793 0.1843048 0.3349419 0.121328115 -0.5845924 0.21529517 0.44670033 -0.038771827 -0.50340396 0.116962805 0.12271531 -0.42945 0.12376725 -0.48407447
85 0.38022617 0.4186011 -0.007547149 0.18063766 0.0012444895 -0.07879356 0.06251283 0.15546592 0.32724372 0.05071666 0.23717238 -0.19089547 -0.24403062 0.105784126 -0.24571392 -0.0014323032 0.3778419 -0.39091423 -0.32634443 -0.43019274 0.06158665 -0.07688267 -0.123963475 0.3629458 0.23535809 0.5250971 -0.021496894 0.26104715 -0.11681816 0.14892915 0.005779191 0.036688164 -0.26549026 0.05585213 -0.2713361 0.23050377 0.06878621 -0.19648004 -0.30338347 -0.035509083 0.21284986 0.33423457 -0.96569866 -0.054492168 -0.23974636 0.15740189 0.46276313 0.35941172 -0.25161672 0.09733057 -0.16196187 0.62137556 -0.1385983 -0.24234955 -0.4195756 -0.08112838 -0.02599016 -0.41986704 0.034638762 0.038331874 -0.40728647 -0.49219605 0.35395274 0.03067913
10 0.010550302 -0.12415483 -0.07140202 -0.37089244 -0.15070361 0.51561266 -0.02760208 -0.24533398 0.3403031 -0.11066797 -0.35595098 0.4669417 -0.19922124 -0.06906698 -0.050824244 0.14461724 -0.09235415 -0.5202435 0.18425246 -0.12270715 0.17013712 -0.25126052 0.27421883 -0.2549488 0.40168482 -0.11115559 -0.04208005 0.24540423 -0.012669744 -0.44071344 0.11696514 -0.09773367 -0.13522068 0.1612238 0.00263456 0.29868388 -0.10338892 0.23141897 -0.36711726 0.09537629 -0.24571401 0.33873856 0.04332585 0.10934595 0.13857146 0.6446089 -0.009636279 0.35669202 -0.6029349 0.27940825 -0.54897773 0.43944773 0.078074686 0.7742375 -0.6002929 0.26208502 -0.118240125 -0.026728865 -0.11276678 0.11160013 0.01068182 -0.29989567 0.04882165 -0.28708234
3 0.49452564 0.044712745 -0.15170306 -0.07909 -0.056017492 -0.25961122 0.33995366 0.080826476 0.28125525 0.4564521 -0.5325647 0.37663072 -0.23256344 0.1869064 0.017560462 0.11818 0.5203296 -0.27883616 0.28982294 -0.2927638 0.09346389 -0.13635138 0.10363419 0.16991067 0.070260435 0.37200195 0.38020715 0.48387498 -1.1026229 0.060099646 0.0058645285 -0.15228565 0.11883833 0.15594825 0.18322837 0.48773864 0.06436095 -0.1625689 0.35044417 -0.23820192 0.167358 0.013459502 0.24220695 0.45528415 -0.10788143 0.24750993 -0.15824057 0.2744862 -0.5435411 0.00083593105 0.050117984 0.29466566 0.100424476 0.7639133 0.52312315 0.27461678 -0.35737753 0.014021036 0.55153185 -0.106817044 0.0367498 -0.23311117 0.12543067 -0.08876021
73 -0.07905909 0.40736485 -0.3832175 -0.08626126 -0.050845295 -0.37672627 0.20876582 0.30260694 -0.47863492 0.25730982 0.5754906 -0.6780199 0.20677619 -0.33118448 -0.29594696 0.07461862 -0.014108049 0.035692625 -0.22849557 -0.13693234 -0.53809965 -0.06756507 -0.22761284 0.45788798 -0.0903974 -0.5394712 0.43379208 -0.27624285 -0.18289174 0.6519148 -0.29148534 -0.064220175 0.0100954585 0.5448995 0.17701124 0.066788696 -0.017167486 0.54265314 -0.014109245 -0.1314355 0.47992212 -0.13039704 0.3416446 0.30167028 -0.328399 -0.84512204 0.23204967 0.040393412 -0.047621958 -0.018290926 0.46784654 0.36231944 0.3644302 -0.40960377 -0.07028552 -0.10622236 -0.050257463 0.67214626 -0.0028682963 0.058045663 0.6005093 0.14927757 0.5884621 0.2841475
55 0.13412347 -0.30430403 -0.17389901 -0.17068155 -0.33739746 -0.5466069 0.75186867 -0.6191624 -0.18418781 0.038222138 -0.25574386 0.63332194 -0.081948526 -0.28978428 -0.4202273 -0.031858787 0.4326502 -0.24874142 -0.1311808 0.03640327 0.47593603 -0.30425677 -0.2566577 -0.9542364 0.5527648 -0.53301823 0.24183784 0.3592598 -0.22405826 0.22562492 -0.32937416 -0.010701073 -0.37897977 -0.05773007 -0.3376985 -0.23807353 0.1478595 0.21142715 0.064960465 -0.031903792 -0.8637805 0.5459171 0.1911432 0.4136685 0.28170165 -0.11832731 0.48042494 0.6185855 0.22773618 0.45273435 -0.3789266 0.37077218 -0.021083685 -0.05825361 -0.18520883 -0.499396 -0.34536403 -0.0064573437 -0.1493325 -0.4518005 -0.22583832 -0.41340962 -0.34012324 -0.25925663
4 -0.054692384 -0.10998812 -0.08276423 -0.08488074 -0.040902384 0.047695357 0.10651863 0.24955164 0.1836579 -0.32007673 0.2852098 0.11267117 -0.14711346 -0.47361013 0.45341834 0.14561237 -0.26514193 -0.10821551 -0.06499632 -0.3986976 -0.002454279 0.18446505 -0.16166684 -0.3806191 -0.20153289 -0.5953485 0.1495299 -0.43617073 -0.35408884 0.34421957 -0.33667606 -0.4012378 -0.32701173 0.5435447 -0.12214607 0.05152541 -0.46639442 0.27210638 0.36994657 -0.33359817 0.17975722 -1.1690878 0.13547882 0.12906174 -0.4503377 -0.16020037 0.11937437 0.017676199 -0.22885819 -0.09577303 -0.40831238 -0.14043137 -0.033220854 -0.15036844 -0.4359896 0.2903997 -0.3282498 0.07979197 0.12024228 0.2650597 -0.60946435 0.3135746 0.7186248 -0.24835561
35 0.044364613 -0.25441635 0.24139842 0.19459401 -0.13606049 0.36155754 -0.10511915 0.40217134 0.10967168 0.21209799 -0.21461819 0.03934042 -0.20512913 -0.45283902 -0.0056400797 -0.07402195 -0.0798586 -0.2518113 -0.20504268 0.15891273 -0.7377013 -0.48358014 0.005676042 -0.46226534 -0.09372171 -0.42386478 0.7099276 0.16591251 -0.879341 0.16807498 -0.4494207 -0.013058422 -0.2738355 0.31687778 -0.20218582 0.09516145 -0.20710365 -0.02922904 -0.057315264 -0.21190575 0.17649038 -0.48829892 0.17132081 0.043367773 0.28247032 0.30704027 0.33507037 -0.04114075 0.16773708 -0.04650246 -0.1001114 -0.38625032 -0.2143252 0.34002507 0.3378015 0.79598254 -0.11446115 -0.085673586 -0.013422615 0.009061698 0.021374859 -0.40301502 0.109461635 -0.4410835
8 0.9232929 -0.21873514 0.17658868 0.18080503 -0.2405157 -0.1353872 -0.0402804 0.03629774 -0.24664122 -0.1266173 -0.5032339 0.08981518 -0.67898023 0.04792931 -0.16138719 0.45000935 -0.042391215 -0.12757616 0.08931616 -0.08041073 0.120299496 -1.0157366 0.04861693 0.3746284 0.354581 0.5760078 -0.0236284 -0.14657138 -0.44316298 -0.18400845 -0.036501594 -0.38003713 0.63851416 0.053333674 -0.17937705 0.30410558 -0.15795176 0.41970837 -0.0047367406 -0.0019927695 0.06967567 -0.09169482 -0.15639174 0.30995986 0.4161118 -0.13732137 -0.2869025 0.37918136 -0.42170763 -0.38830325 -0.051900636 -0.031755235 0.72002316 0.1203462 -0.5471859 0.20542544 -0.34024844 -0.022543319 0.40193897 0.5239436 -0.091014795 0.20399052 -0.14898135 0.081147015
22 0.53062314 0.484704 0.0017872901 -0.39852232 0.15514204 -0.41093495 0.5277307 -0.3360995 -0.17872271 -0.049113117 0.19017184 0.39411312 0.01993191 0.34122667 0.024070611 0.05546914 0.022626124 -0.32323155 -0.29434526 -0.17420709 0.1559901 -0.2759426 -0.03096799 0.14825982 -0.21674861 -0.050059285 -0.23643672 -0.14438292 -0.9071516 -0.45721743 0.035954136 0.0010562135 0.0077949944 0.20881909 0.4946664 0.65536404 0.7476032 -0.17349237 0.34678826 0.19889897 -0.06833629 0.004564156 0.41092375 0.2609971 -0.7220755 -0.2264158 -0.12216892 -0.21916625 -0.32001665 0.15416124 -0.1806362 0.02129833 -0.30324274 -0.08701186 -0.18505229 -0.48695415 0.25096363 -0.4085431 0.56827825 0.46781474 0.45182222 0.38266182 -0.3909584 -0.09170635
99 0.1345819 -0.22501278 0.020764953 0.28922316 -0.7532516 -0.24304959 -0.038756706 0.008136891 -0.09892521 -0.11106277 -0.39477316 -0.023251185 -0.51261306 -0.36077443 -0.20590845 0.16773026 -0.056644402 -0.0027441974 -0.32223246 0.092733614 -0.24302877 0.3032798 0.23596872 0.052333143 0.12231442 -0.4406069 -0.083114795 0.29051986 -0.1138078 0.29895365 -0.01097602 0.44244915 -0.38605243 0.10270802 -0.093715355 -0.24771006 0.15381604 0.3483451 -0.4432521 0.5944955 0.003835219 0.04564508 0.331706 0.45181546 0.10343648 -0.31824952 -0.24068673 0.1123545 0.5657666 0.0527288 -0.09234072 -0.4128446 0.14026904 -0.065034 -0.48963755 0.48224694 -0.1412476 0.92018676 -0.19508746 0.034208547 0.17513047 -0.06323933 -0.23473838 0.12348694
21 0.4587738 -0.0012569067 0.4123581 0.16289723 0.28608197 -0.55995136 -0.049074404 -0.585912 -0.37571347 -0.20740582 0.21637154 -0.3144964 0.31065473 -0.3232799 -0.19425826 -0.14743297 0.27415675 0.18197261 0.28941876 -0.76985294 0.033706527 -0.60626465 0.22671266 -0.20212781 -0.12537692 0.067644335 0.7038187 0.14344355 -0.76375705 0.19603662 0.07425929 0.41204745 0.05529109 -0.3111795 -0.018763969 0.4708636 0.25221148 0.2858189 -0.22467446 0.6693006 0.25304222 -0.3154089 -0.29925436 0.71375203 0.56087655 0.26616445 0.26262128 -0.016230779 0.21864931 -0.21343489 -0.5831081 0.15068376 0.17044424 0.34377334 0.060860723 -0.12396476 -0.35693145 -0.29535982 -0.01962084 -0.11830535 0.1150161 -0.10425055 0.6078764 -0.52234805
67 0.43565 -0.10143895 0.3452499 -0.4986925 -0.20668969 0.10351926 0.23025045 -0.21153124 0.40903607 -0.18503506 -0.27649492 0.19460566 -0.49766123 0.34812155 0.17256248 0.4362757 -0.13316302 -0.4131943 -0.71595794 0.18087889 -0.04130391 0.121327184 0.49048433 0.2797788 0.13517489 0.21338773 0.009609697 0.146475 -0.6473009 -0.08387117 0.1323015 0.22269623 -0.31242543 -0.10365897 0.080351785 -0.34654364 0.2662483 0.12542982 -0.3562435 0.7289937 0.27793714 -0.3870932 0.223085 0.7313505 0.17661576 -0.14947687 0.17215642 0.033757396 0.2466398 -0.21941599 0.245214 -0.17006817 -0.0061574234 -0.565034 0.31712368 0.6015695 0.16102898 -0.35580796 0.40320158 0.60400105 0.6032387 0.28595415 -0.31556907 0.00085340696
27 0.1030035 0.098124616 -0.26530382 0.23161252 0.19874763 -0.3671927 -0.24998395 -0.24425468 -0.21028565 0.2673222 0.018480187 0.008225691 -0.03436296 -0.4656286 -0.261384 -0.22863083 0.044302963 0.16541688 0.44331983 -0.025553687 0.08814102 -0.15840988 0.401781 -0.28447673 -0.23227853 -0.72136647 0.9681067 -0.4664993 -0.805095 -0.06650977 0.29387617 0.005177996 0.55356854 -0.20098084 0.19705686 0.10210408 0.101101056 0.3100755 -0.08877969 0.09887343 0.34658536 -0.030172233 0.92670166 0.22509745 -0.31931162 -0.6341994 -0.29351392 -0.29019305 0.625602 0.2237042 -0.107952036 -0.30098176 -0.5055906 0.3569866 -0.10192673 0.61951625 -0.07770176 0.64105916 0.59181136 0.4058008 0.18376598 0.003622229 0.2431856 0.45095858
60 0.80659693 0.2593035 0.10913335 0.32327148 -0.5242914 0.15405309 -0.16756232 0.7180479 -0.22069402 -0.100699656 -0.12467872 -0.043262545 0.39969376 0.4000574 -0.18630132 -0.13368617 0.6177051 -0.22683625 -0.4463252 -0.7522776 0.27109677 0.041849148 -0.116132 0.041028105 0.28634468 -0.22472446 0.37442896 0.084147945 -0.19236432 0.5556399 0.251059 -0.20470065 0.19256774 0.39864662 0.041108888 0.07924509 0.12012611 0.5096956 -0.4022273 -0.11532173 -0.06117557 0.1667585 -0.089837514 0.34481207 -0.29645205 -0.6565878 0.34711206 0.46470428 -0.25666362 0.005113575 -0.32499456 0.3876431 0.26647183 0.51973325 -0.060073707 0.059289545 -0.20359454 0.42410797 -0.09688795 0.0042260876 0.64407295 -0.16126378 -0.75009865 0.28507802
26 0.7260932 -0.057079308 0.013326693 -0.0551059 -0.23507315 -0.1975349 0.26067114 -0.18339121 -0.510276 -0.12073102 -0.41110355 0.05603266 -0.63737065 0.097612284 -0.45106575 0.3171108 0.20292372 -0.00868283 -0.003341846 -0.3099183 0.007122241 -0.069413066 0.11105085 -0.34924093 -0.22946373 -0.19630417 0.44245568 -0.16845234 -0.28386635 0.02104003 -0.1361594 -0.4043803 -0.37035605 0.46794564 -0.039044693 -0.13530496 0.33016175 0.16121544 -0.4350165 0.7185857 0.0019657451 -0.113413304 -0.31067625 0.5394519 0.5937214 -0.006097977 0.23650734 0.37566358 0.17506844 0.18162164 -0.5518365 -0.014514049 0.20011991 -0.157413 0.14051783 -0.019446338 0.48981884 -0.33699977 -0.03281583 0.2853423 0.07941682 0.016434241 -0.07766364 -0.19893074
94 0.8486353 0.29991052 -0.12614909 0.07364611 0.1434243 0.0104942415 0.0650096 -0.033276003 -0.7373816 0.047273304 -0.020850161 -0.4438961 -0.2164619 0.003840053 0.018399632 -0.3684529 -0.18843853 -0.13639066 0.17374967 0.3071792 -0.14295001 -0.6764504 0.40864444 -0.050177902 -0.61449844 -0.022362348 -0.12526892 0.33528653 -0.94262606 -0.07136726 -0.45639747 -0.14599966 -0.12870231 0.10968309 -0.46910346 0.04657959 0.03152699 -0.10852438 -0.045184765 0.44885844 -0.2456013 -0.27945378 -0.063278146 -0.37542105 0.440628 0.24988598 0.40061596 0.5082859 -0.15263985 0.06970905 -0.507773 0.09008097 -0.01613982 0.34584334 0.115087524 0.12024394 0.19431624 -0.2917723 -0.19221124 0.22799318 -0.43605235 -0.30661118 0.23078796 -0.5644905
72 0.68541396 0.42083693 -0.012230184 -0.20034124 -0.24791582 -0.17256336 0.4663087 0.1512271 0.18230425 -0.23228687 -0.7085257 0.25375488 0.13523018 0.049713932 0.044418823 0.21285719 -0.13337195 -0.12816323 -0.15346332 -0.024566965 -0.47022808 0.20642088 0.36331975 -0.39796495 -0.18915759 0.35750136 -0.55655074 0.5927845 -0.561979 -0.292299 -0.50332963 -0.06785189 -0.20809992 0.6203699 0.23862088 0.16741532 -0.17762436 -0.17844196 0.3237643 0.18472967 -0.05496481 -0.20879784 0.018622564 0.4071116 -0.40577438 0.6272778 0.2828689 0.21863861 -0.02373012 -0.3585103 -0.27644888 -0.16814743 -0.14253987 -0.11123112 0.72164416 0.77718234 -0.28291792 0.14118275 -0.06027931 0.06766801 0.17248154 0.15071738 0.06333784 -0.32604194
30 0.2448837 0.013266429 0.08149395 0.373769 -0.2927989 -0.01366439 0.010628407 -0.06477206 0.27150092 0.08890259 0.70291847 0.18856926 -0.012372016 0.13299435 0.14330158 0.30100417 -0.47851813 0.008000276 -0.3853429 0.07504643 0.2127048 -0.53800774 -0.67034346 -0.08821219 0.14103062 -0.69344705 -0.15048613 -0.35626572 -0.36131465 -0.8267733 0.49104995 0.27403036 0.033394832 0.45585638 0.33463687 0.46863815 -0.2216571 0.1366639 0.30357143 -0.08775653 0.4044414 -0.21212247 -0.023151297 0.1180698 -0.16768433 -0.04938654 0.08272911 0.039729405 0.3845623 -0.034358006 -0.048043627 0.12942322 -0.17080845 -0.45719808 -0.5253406 -0.12205057 0.09734522 -0.5224847 0.5460524 0.29194552 -0.34245068 0.20708004 0.3864944 0.39767757
7 0.9772183 0.59002286 -0.3549378 0.30347392 -0.25256407 -0.1417636 -0.15719123 0.38151574 -0.10066947 -0.46626568 -0.84017146 0.2707228 -0.42751944 -0.1733113 -0.49250904 0.022760177 -0.1041334 -0.035552274 -0.05305518 0.060796645 0.33247602 0.1410218 0.31304204 -0.123701766 -0.2054102 0.27707317 -0.36497927 0.37149277 -0.13170062 -0.61165416 -0.37272325 0.21667999 0.01769601 -0.36313283 -0.08922309 0.3456566 0.04765024 0.08757188 -0.3110511 -0.08770694 -0.39356792 0.5948747 0.06542194 0.22915618 -0.28170165 0.2896921 -0.3016964 0.7741836 0.21706629 0.3095845 -0.6732989 0.026332458 -0.13198091 0.47591513 -0.010662248 -0.18417743 0.016495256 0.45869157 0.32770234 -0.75026053 -0.38361502 -0.2888738 -0.033626296 0.4425895
52 0.2737744 0.17533895 -0.021462755 0.14575888 -0.06884814 0.2243728 0.27179578 0.16930406 0.58626264 -0.339196 0.067828745 0.41530973 -0.51960653 -0.79913574 0.20517664 0.26593214 -0.27985737 -0.5986413 -0.76395255 0.043353382 -0.65028864 0.025280045 -0.348218 -0.15819103 0.26354387 0.4206089 0.060825672 -0.28953132 -0.27964392 0.050697852 -0.07189331 0.005344716 0.2177993 0.11116296 -0.7691701 -0.1049861 -0.18193537 -0.13105406 -0.14414702 -0.19324386 -0.17061241 -0.14313033 0.07110586 -0.5660625 -0.38326183 -0.008321367 -0.09904347 -0.040640492 -1.0143509 -0.23715632 0.0042241635 -0.40169603 0.04761932 0.1350033 -0.39088064 -0.051364142 -0.25177157 -0.3731417 -0.06291171 -0.20833755 0.2993653 -0.08260601 -0.8121354 0.3273058
20 0.35548288 -0.16728391 -0.028221793 -0.15186563 -0.021942785 0.049605742 -0.1672014 -0.9387372 0.0758801 -0.09919299 0.109585196 -0.30420038 -0.29056197 0.39884576 0.18929622 -0.020173443 -0.22543645 -0.33216006 -0.8046616 -0.06472301 -0.1534725 -0.3875087 0.22788158 0.18077134 -0.011022553 -0.19707292 -0.24296819 0.57252103 -0.47917047 0.29898837 0.25260058 0.33802068 -0.17156936 -0.49319044 0.12666292 0.11638403 0.059864286 0.92110795 -0.73135316 0.3383957 0.2547193 -0.72467047 -0.44689134 0.42444882 -0.25504687 -0.41086695 -0.045762546 -0.24012025 -0.30021036 0.22336915 0.48065937 0.13522801 0.31233802 -0.6045209 -0.51668775 0.6594835 -0.3680148 -0.16857505 0.2417513 0.33325973 0.03361448 0.19229938 0.15167356 -0.3818092
9 0.43254757 0.16326246 0.39846843 0.06570628 -0.5479386 0.036272537 0.3990411 0.45537934 -0.07758518 -0.09160247 -0.22620024 0.16690646 0.22057377 -0.2103982 -0.5658592 0.3448646 -0.28044507 -0.1447486 -0.18540828 -0.00757065 0.15947743 -0.2742537 -0.39925873 -0.040711667 0.11929459 0.22689994 0.33115804 -0.4381921 -0.21579602 -0.121831425 -0.13396402 0.15374617 -0.20253745 0.17148423 -0.18791334 0.038007632 -0.25749475 0.00678351 0.08125017 0.07906155 0.4446056 0.055332918 0.61848396 0.607689 0.083652295 -0.3599477 -0.22432868 -0.13504314 0.21284477 -0.270512 0.06968774 -0.15054029 -0.32733828 -0.016019234 0.2914638 0.14090814 0.0318362 0.2986055 0.11938052 -0.14078087 0.4094573 0.30804965 0.13156874 -0.5296568
49 0.06627978 0.23786244 0.23493308 0.4083677 0.17038183 0.18974675 -0.18885176 -0.026909305 0.19207686 -0.4500297 -0.010573933 0.17149702 -0.7479644 -0.35121685 -0.2807924 0.43280995 -0.035977457 -0.42116806 -0.5017952 -0.24731433 -0.2054843 0.52477914 0.35571423 -0.29855806 -0.29321748 0.25707388 0.4247572 -0.49274877 -0.17999654 0.30684763 0.18718207 0.23151661 -0.25772628 -0.15623559 -0.38032347 -0.48408356 0.39164734 0.31978947 -0.81125456 0.6046113 0.0815523 -0.30393893 0.04113264 0.20724943 -0.16101265 0.1938994 -0.27796292 0.6892851 0.44674993 0.11872662 0.23159097 -0.33721933 -0.38396117 0.09547978 0.16801529 0.092346266 0.16560958 0.17068239 -0.011222816 -0.07363801 0.7403662 0.06255787 0.09758976 0.7635861
5 0.26095402 0.4974781 0.008855269 0.6706058 0.40815148 -0.286788 -0.0009808904 -0.2595519 -0.11632143 -0.6410512 0.8198713 -0.033043575 0.36293685 -0.3880156 0.4019343 -0.51723933 -0.3573939 0.0848563 -0.22684918 -0.5920595 0.19517647 0.37739676 0.2107075 -0.13414213 -0.46352708 -0.5564556 0.19730403 -0.07044507 -0.43509132 0.23222278 0.15211256 -0.15161197 -0.26726127 0.1149039 -0.012715107 -0.1745918 -0.243069 0.5281951 -0.14374714 0.65904105 0.04678922 -0.63121045 0.15090747 0.1492895 -0.1964457 -0.7122483 0.15178542 -0.07126022 0.25985178 -0.38590544 -0.7517287 0.020313242 0.13977815 -0.13361041 -0.33844563 -0.1078876 -0.053841494 0.009858985 -0.4401245 0.5728705 -0.1592861 -0.14433432 0.6780506 -0.060850065
46 0.55995816 0.44642112 0.2067034 0.6559658 -0.44888046 0.08173374 -0.46179062 0.64469683 -0.16645294 0.3393122 0.0038241418 -0.3289093 -0.10873408 -0.014834129 -0.4269493 -0.18338493 -0.0926671 0.16703364 -0.05817597 0.35217524 -0.22154294 -0.5291337 -0.41523066 0.2618871 -0.2260701 0.05734539 0.35963142 -0.20486711 -0.4359811 0.022030305 0.040862057 0.22921917 0.13400461 0.0068239006 -0.39434662 -0.12898445 -0.22551706 0.16913067 -0.16317411 0.0937033 0.5207339 0.2611101 0.30785435 -0.040702242 0.031515934 -0.7181523 -0.37560192 -0.052901357 0.49989605 -0.20248462 0.1448715 -0.07813135 -0.6414547 -0.197732 -0.22342707 0.66995317 -0.16304076 0.4060425 0.22841099 0.11552907 -0.14250053 -0.2960764 0.14850147 0.112221174
33 0.2841875 0.18873335 -0.22729059 0.17675531 -0.13121575 -0.15525477 0.724173 0.12358462 -0.107687645 0.15512295 0.21199942 -0.12922648 -0.1549902 0.09465009 -0.29836863 0.6137554 -0.4040072 -0.6097354 -0.54499614 0.5594802 -0.08112317 -0.5766435 -0.36843425 0.010404522 0.31303325 0.014878433 0.03237117 -0.16365884 -0.16435188 -0.4124721 -0.16092736 0.1848441 0.36055613 0.22184497 -0.27109078 0.37965393 -0.29172605 -0.26521623 -0.12279838 -0.37029338 0.24244006 0.14543639 -0.05489836 0.043022975 0.2447066 0.38403082 -0.0688063 -0.0340958 -0.08312383 0.08643788 0.61774284 0.4750686 -0.3022614 0.32712337 0.56677186 0.263422 0.39008966 -0.11906875 0.2531217 -0.25581276 -0.1502671 0.108892314 0.64572066 0.34317097
41 0.02999199 -0.049735043 0.1356769 0.16579221 0.03695088 0.5943943 -0.10391696 0.14968833 0.35808697 -0.35116923 0.2635047 0.053592067 0.09232994 -0.19551276 0.237333 -0.024446644 0.011542803 0.024875734 0.15846804 -0.44705793 0.056827687 0.028353803 0.4121204 -0.043254334 0.2656557 -0.38419515 0.48945817 0.05811527 0.21917641 0.38347474 0.061757773 -0.18070519 0.15706378 0.44561958 0.022834709 0.18709485 -0.3012077 0.24672496 0.16167708 0.25500187 0.5272837 0.2875812 0.077487834 0.07085437 0.3524087 -0.00794508 0.18991166 0.12996368 -0.3694943 -0.66185457 -0.35944873 0.415107 0.39562282 0.30600664 -0.53099763 0.5646242 -0.40740344 0.29245135 -0.3085948 0.7600501 -0.013002496 -0.6567777 0.56878763 0.17149542
50 -0.09043941 -0.07029828 -0.17521268 0.21739922 0.060742304 0.21205725 0.20531884 -0.18919645 0.58541864 0.0289059 0.047977567 0.47604048 -0.10370472 -0.049543887 0.6082337 -0.05527141 -0.35428137 -0.67247087 -0.5373035 0.17463836 0.2663476 0.03291662 0.6782849 -0.15171744 0.6217429 0.033299554 -0.1800213 -0.25882748 -0.61903876 -0.43401363 0.37651345 -0.14976649 0.2789583 0.28973362 0.10196695 -0.44201207 -0.43089032 -0.25103447 -0.04174383 0.18246727 -0.24752533 -0.4615352 0.5190206 -0.17282455 -0.18139787 -0.22265124 0.51042193 0.48104078 -0.09146166 -0.42535508 -0.6650525 0.10415249 0.5485016 -0.006216608 -0.81025153 0.30262244 0.005112618 -0.41344497 -0.116586946 1.0949372 -0.21952061 -0.05725868 -0.20199612 0.16427788
93 0.7449169 0.2783466 0.335476 0.5006328 -0.509262 -0.21024357 -0.24399978 0.5551883 0.0059982273 -0.32036898 -0.54954624 0.4894539 0.25183484 -0.2648925 -0.494021 -0.0937709 0.023851769 0.50880146 -0.3124996 -0.29289302 0.05440558 0.12375547 -0.79130644 -0.30747885 -0.058536116 -0.2581757 0.19912517 0.20392454 0.22179048 0.23501575 -0.13722183 -0.21587801 -0.42383906 0.50373864 -0.06198578 0.042552147 0.061399844 0.28080496 -0.025083845 0.5229695 0.18620312 -0.12665617 0.0896838 0.37944832 -0.06732577 -0.4592358 0.32901818 0.48835924 0.20689261 -0.42805073 -0.67024994 0.18209055 0.010665391 -0.53498614 -0.002015895 -0.14673948 -0.24296324 0.60232234 -0.26787645 0.4138252 0.045443356 -0.58432996 -0.04930829 0.33594617
24 0.24941745 0.07996526 -0.39564276 -0.39267242 -0.3585583 0.124296956 -0.09308681 -0.7680482 -0.15250911 -0.04247201 0.2907273 -0.42632428 -0.38280338 0.17852068 -0.040112592 0.16901906 -0.34357524 -0.45509326 0.20280002 0.23158683 0.20756195 -0.66551125 0.15459926 0.5254154 0.040780872 -0.45601547 -0.49495605 0.038825065 0.26964244 -0.15090477 0.43041128 0.59429795 0.21207297 0.17362331 -0.24243586 -0.36351442 -0.2611425 0.29129395 -0.13177986 0.025425728 0.10172577 0.19669951 -0.23121737 0.13265342 0.33231783 0.08995408 0.59083587 -0.26810515 0.61007607 0.28155687 -0.5177929 0.053673558 -0.10051339 0.10108811 -0.549489 0.6483876 0.12144724 -0.16906473 -0.40215555 -0.028061286 -0.47604156 0.04759273 -0.020820117 -0.064339735
28 0.31604892 0.7514693 0.17911288 -0.029860107 0.058497243 0.14625533 0.23351462 -0.20974411 -0.33224535 -0.6658213 0.5017255 -0.41375262 -0.40520725 0.041805923 -0.81370753 -0.3339293 -0.0831902 -0.2508863 -0.10938004 -0.5959188 0.41728652 -0.55627805 0.80047363 0.16686045 0.069555365 0.0033209207 0.27908057 -0.02456337 0.09341857 0.28021628 -0.013947584 -0.6412151 0.06985413 0.21927653 0.12229545 -0.116523914 -0.41622323 0.14249943 -0.3577444 0.21530813 -0.14228226 -0.012965809 0.013855457 0.056519683 -0.28264135 -0.27725124 -0.027605036 0.29265738 0.5857268 0.29719144 0.22409487 0.9393068 -0.7939487 -0.23101467 -0.27620658 -0.5438371 -0.54371506 -0.08958541 -0.16187611 -0.1997373 -0.5116948 0.609775 0.8010564 0.45130447
36 0.56779945 0.411478 -0.10616496 0.44104707 -0.32525995 0.06514718 0.47356778 0.5853229 0.15112582 -0.5546407 0.50375617 0.6211164 -0.20911318 -0.39519393 -0.09004537 0.023350187 -0.3433087 0.4684056 -0.65158117 -0.011226773 -0.016155884 -0.037444804 -0.9843333 0.053628206 -0.24711867 -0.61483014 0.47098216 -0.21726185 0.4649626 0.083552375 -0.3114807 -0.042785723 -0.80427486 0.3380462 -0.17509231 0.38276595 -0.13493791 0.001384694 0.20386247 -0.14537066 0.15690768 0.22711566 0.25088185 -0.026833368 -0.12689877 -0.93586713 -0.035794746 -0.336956 -0.12869291 -0.31267256 -0.12507172 0.31020203 -0.025085965 -0.5895364 -0.4303544 -0.6499607 0.09143733 0.13969614 -0.072277576 0.12046872 -0.41718125 -0.5186461 0.103946105 0.3207352
79 0.09748198 0.04966762 -0.18937297 -0.6394532 0.54537624 0.4596124 0.5468785 0.15217 0.1025955 -0.30264974 0.081024274 0.19177863 -0.18960378 -0.6152098 0.3906323 0.44587874 -0.11249995 -0.95132196 0.2730184 -0.3042631 0.13579102 -0.08103472 0.35318062 0.06886113 -0.008137103 -0.091681145 0.36721247 0.19863842 0.16355315 -0.2445099 -0.23470035 0.5444939 -0.630126 -0.24390845 -0.2821787 0.10095923 0.09057458 0.059623066 -0.3287747 -0.07231641 0.36888227 0.4974595 0.007970832 0.29049653 0.30560923 -0.18642527 0.43800986 -0.15809321 -0.3610659 -0.009406061 -0.20525157 -0.0508993 0.2998062 0.744434 0.23409158 -0.07605749 0.3892349 -0.11263683 -0.13000041 -0.02070791 0.9443708 -0.14399223 0.030289374 -0.99299115
96 -0.15154529 -0.121900514 0.009467829 -0.090157 -0.5849002 -0.0995808 0.9953197 0.30194107 0.566092 -0.10563102 0.1562094 -0.025609009 -0.27211526 -0.4293109 -0.5389907 0.5500001 0.30530697 0.12469779 -0.39709154 -0.32878384 -0.53051287 0.07868513 0.16363837 0.2264348 0.21483463 0.124226585 -0.15243514 0.3988037 -0.23538367 0.28354216 -0.7947489 0.52187556 -0.7781593 0.34816068 -0.170833 0.3472397 0.5011493 -0.42650542 0.42443615 0.35197514 -0.0772664 0.57778096 0.1419983 0.6400694 -0.05562708 0.27533937 0.24248892 0.17560805 0.34034896 0.15235162 0.54844797 0.099075645 0.18093142 -0.65196526 -0.19591299 -0.50402427 -0.24690904 0.043099087 0.06458523 -0.37520546 0.5331997 -0.3262784 0.21136847 -0.07743503
88 0.4589067 0.37750664 0.12459824 0.11823667 -0.27669904 -0.07926442 0.2935133 -0.9535448 -0.08593523 -0.28526586 0.3796466 -0.4669092 0.09698622 -0.009396461 -0.39074108 0.2508488 -0.2341817 -0.061285228 -0.6494711 0.16600461 -0.5318501 -0.3946029 0.27796593 -0.41101822 0.09570278 0.3959436 -0.25119692 0.30962998 0.033806473 0.4238672 0.18980566 0.25456643 0.18184464 0.5365738 -0.47478426 -0.4675027 0.24404909 0.14923626 -0.55834395 0.29155937 -0.31890246 0.23564383 0.027284034 -0.09246053 -0.005525366 0.3316876 0.40180174 -0.09324012 0.10997633 -0.008724758 0.19679815 0.31279048 -0.53834397 -0.11213107 -0.117470436 0.29109755 -0.23285611 -0.21791112 -0.28729546 0.09936343 0.21217813 0.49086714 -0.7113396 0.63088053
97 0.6202416 0.13456933 -0.6440359 -0.08951966 -0.6927642 -0.28247714 0.053756982 -0.18856958 -0.44233656 0.04868385 0.030678935 -0.18560028 0.38340423 -0.23280871 -0.6198506 0.073605016 0.17904548 -0.31004342 -0.37264997 0.14958519 -0.21956854 -0.30411944 0.055269983 -0.13826136 -0.08756427 -0.050912317 -0.2820909 0.31060445 -0.51635075 0.22657965 -0.16439041 -0.3147778 0.3806004 0.88644004 -0.09253345 0.35484105 0.021982823 0.044848964 0.0646895 -0.6412491 -0.31045142 0.42055267 0.08299761 -0.26420665 -0.14550765 0.1849894 0.2791652 -0.2653226 -0.6102059 0.31144547 -0.10385192 -0.16697504 0.031529773 0.15607393 -0.24223775 0.8795083 0.39951977 0.64615405 -0.09578326 -0.18965553 0.17497493 -0.24020097 -0.83200604 0.1886405
44 0.3114435 0.22551931 -0.13247362 -0.08019842 0.17276056 -0.17032185 0.3276168 -0.052036334 -0.22978455 0.24276339 -0.006463144 -0.16695069 -0.120522924 0.0922845 -0.06109661 0.19460893 0.18724242 -0.7311439 -0.24608514 0.27283904 0.002594914 -0.49673188 0.31217033 0.48905557 0.015156925 -0.046326384 0.10981231 0.031986676 -1.2299105 0.011030159 0.005470481 -0.2110329 0.47839576 -0.07627393 -0.4383404 0.42323995 0.29551414 -0.27561623 -0.13983572 -0.15415423 0.06231507 0.021756455 0.2211174 -0.22006683 0.36639854 -0.06760247 0.14627807 0.74319935 -0.9105789 0.28209007 0.28376478 0.40440872 0.51438254 0.62983567 0.51414984 -0.12757576 0.37468195 -0.57655746 0.36636138 0.1742104 -0.02530777 -0.22881407 0.026843585 0.020164086
12 0.52930033 -0.10555017 0.13962759 -0.50505364 0.23994611 0.10393943 -0.049452435 0.018199747 -0.42431182 -0.201041 0.28542128 -0.08239387 -0.40216908 -0.36366206 -0.25768414 0.4308032 0.116174884 0.08925687 0.8256121 -0.34683815 0.08395789 -0.6425171 0.108992875 -0.3557196 -0.47105405 -0.31842196 0.44424605 -0.59363574 -0.15598515 -0.4048675 -0.42762318 -0.2682107 0.07614084 0.80714905 -0.40422678 0.2758367 0.6072426 0.49895513 0.16920346 0.06938721 -0.04504526 0.48849127 -0.20325936 -0.18361962 0.42767718 0.48691142 0.34193975 0.47473788 -0.3455868 0.24029644 -0.5278279 -0.26537332 -0.13077137 0.7212281 -0.08131377 -0.2930229 -0.064227216 -0.23828408 0.18334016 -0.0064911307 0.21336697 0.31977808 0.07491747 -0.6291107
74 -0.14963454 0.10585456 0.19161266 0.3773274 0.2328708 0.025759952 0.22669962 -0.44907248 -0.37743375 0.0944226 0.50878644 -0.009850859 0.21055053 -0.45488307 0.035829745 -0.104048274 0.039178133 -0.5168843 -0.1693687 0.3828989 -0.24848486 -0.41905785 -0.14359792 -0.85515684 0.24326986 0.20575014 0.46724543 -0.22924267 0.36561587 0.7963898 -0.29925877 -0.16353326 -0.0749666 0.39126292 -0.7949255 -0.75673157 -0.21154931 0.57056385 -0.44179606 -0.43568563 -0.21477263 0.25732505 -0.3535884 -0.3888668 -0.47082052 -0.49623615 0.49361515 -0.16022427 0.0042706286 -0.2375463 0.060108732 -0.04337856 -0.8695253 -0.07478768 -0.70212734 0.52068245 -0.4614342 0.5006066 -0.38815358 0.27877098 -0.17797141 -0.39525512 0.18915184 -0.26894757
31 -0.62129754 -0.12363074 -0.35190457 0.053137917 -0.04255369 0.03521226 -0.32051107 -0.94580585 0.0030123675 0.022633549 0.13519974 0.04881606 -0.12559527 -0.375176 0.2296234 0.23301525 -0.28181875 -0.317995 -0.13469853 0.640034 0.07791017 0.21033229 0.18532994 0.41047883 -0.14889571 -0.8816727 -0.728768 0.1889956 -0.6228085 -0.17231107 0.3042558 0.51856637 -0.18469146 -0.13482572 0.11001502 0.05108513 -0.11800238 0.82073426 -0.19363658 0.23421986 -0.13650706 0.2666336 0.72996354 0.22124466 0.2517626 -0.18091966 -0.5747075 0.6164122 -0.5999096 0.3664165 -0.12006193 -0.07452771 0.9260674 0.231898 -0.96017224 0.23726225 0.23008761 0.6049755 0.14657868 0.20964064 -0.16729976 -0.8848264 0.5419514 0.13411836
84 -0.12572141 0.056267075 -0.9504463 -0.47854877 0.13442588 0.033673864 0.37195683 -0.56159496 1.1134989 -0.11146308 0.083043516 0.353838 -1.1489915 -0.03422648 -0.19748572 0.78752697 -0.5016853 0.099829845 0.32337433 -0.009164306 0.39597526 0.38729087 0.22039281 -0.2134455 0.09133155 0.18206918 -0.25903013 0.20668837 0.42327148 -0.39333516 -0.052293845 0.3596185 -0.116845734 -0.16214581 -0.08967125 0.37237853 0.23600529 -0.15713975 0.32017586 0.46671727 -0.009415168 0.06594964 0.47596505 0.29196772 -0.88274807 0.49881056 -0.26438403 0.053628493 0.50355875 -0.06559968 0.52247554 0.45875788 -0.45796138 0.023292702 -0.24763282 0.55652636 -0.44179055 -0.19708028 0.16369763 -0.5013813 -0.039227232 0.10002016 0.5706062 0.24949375
58 0.06904312 0.017225096 0.021798212 0.42306852 0.01035627 0.5652061 0.17744808 0.5892466 0.27537253 0.20155701 -0.3756485 0.7861153 -0.036449436 -0.14210792 0.46161652 0.5280351 -0.51022446 -0.5122344 -0.38922796 0.6036125 -0.0893663 -0.067543864 -0.3781423 -0.56591034 0.5502421 -0.0973488 0.28697252 -0.28786623 0.4143795 -0.7464951 0.14096779 0.5157751 -0.03471329 0.3349362 0.48844725 0.40797105 -0.37966934 0.1954901 -0.020359615 -0.31726256 0.54398793 0.6074446 0.2523116 0.20456487 -0.12680155 0.051926818 -0.16812976 0.19563839 -0.19771962 -0.57455593 0.25672105 0.15524974 -0.17799294 -0.087277144 -0.21818893 0.39553556 0.03780937 0.15326832 0.6758752 0.71429205 0.08654922 -0.29120675 0.3145537 0.44743037
61 -0.21203133 0.045485478 0.25349525 -0.26903436 -0.28108674 0.28424335 0.05007831 0.05212952 -0.025908004 -0.1396143 0.94953996 -0.20003344 0.16390243 -0.07250655 -0.30218422 0.31047842 -0.11052184 -0.31550053 0.3246071 -0.1713638 0.25063923 -0.88707507 -0.2951236 0.24132016 0.06508809 -0.12543088 -0.038839284 0.16732019 -0.1650684 0.23574151 -0.44076553 0.50935656 -0.039458137 0.20870322 -0.4741044 0.5998568 -0.15412688 0.2564314 0.5828687 -0.049617816 0.2919393 0.5821494 -0.19098891 0.12688258 0.7392539 0.5522839 -0.108779505 0.556428 -0.23593636 0.19002758 0.24054492 0.37126347 -0.067387745 0.5096399 -0.32074383 -0.16826111 -0.7579254 -0.30096656 -0.056618184 -0.9303511 -0.55694306 0.17749475 0.817534 -0.4917988
59 0.49988976 0.12577884 -0.5889323 0.04047245 -0.1583183 -0.20540419 0.17099914 -0.232142 -0.15686737 0.36977294 0.028920008 -0.46117222 -0.17620945 -0.5782164 -0.08716836 -0.08035021 -0.47814193 -0.14169925 0.12335022 0.1022831 -0.47477266 -0.26744613 0.40034667 -0.37245885 -0.04573752 0.50366163 0.16115724 0.328166 -0.6439864 0.021848109 0.23659009 0.4204647 0.26245368 0.43841815 -0.67187744 -0.7240659 -0.21320306 -0.35499302 0.1287821 0.2503343 0.16951486 -0.11180724 0.22152902 -0.41733143 -0.04794581 0.08385281 0.6076378 0.0961392 0.51657164 -0.08694357 0.25359792 -0.07734897 -0.31489655 0.5145098 0.3606983 0.3584142 -0.3252808 -0.1963931 -0.43640444 -0.47723866 0.22833557 0.4797578 -0.027578408 -0.09184823
39 -0.12550876 0.09880902 -0.12037269 0.38644716 -0.28958598 -0.35505375 0.3764704 0.4155045 0.24251476 -0.08740737 0.45259944 0.088375755 -0.33562478 -0.971104 -0.11337659 0.11589209 0.050239325 -0.2822771 -0.47815028 -0.47634572 -0.8771288 0.1710501 -0.5660844 0.12891118 0.25718027 0.008820376 0.40567958 -0.7302154 -0.17309302 0.06341273 -0.6850361 0.22401007 -0.33694986 0.019133052 -0.006443473 0.74262327 0.025599487 -0.32834843 -0.14701143 0.037020043 0.56964296 -0.114104636 -1.1378022 0.20041496 -0.5403395 0.534081 -0.14141564 -0.42865002 -0.054753393 0.21260348 -0.44482023 -0.40190986 -0.29941097 -0.67867136 -0.7199374 -0.31167993 0.09026804 -0.0892481 0.17257522 -0.40201825 -0.20777605 -0.013452336 0.68217653 -0.08839692
62 0.81728077 0.15951023 -0.300329 0.15341008 0.5529543 -0.16127197 -0.023918742 -1.007381 -0.30973315 -0.14946984 -0.2467945 -0.058936644 -0.37977234 -0.12611999 -0.100053415 0.06885288 -0.5651693 -0.30410206 -0.13787097 0.29650426 0.24216703 -0.25430128 -0.033055056 -0.5951789 -0.5616602 -0.2897292 -0.311993 0.11107007 -0.55401635 -0.80385286 0.24014466 0.25290704 -0.15092793 -0.52069795 -0.15343107 0.08099104 0.11247521 0.8580473 -0.72940415 0.21850702 -0.3162154 0.033087984 -0.15447983 0.17415981 -0.4147224 0.46693352 -0.2464674 -0.013868534 -0.07195134 0.5625182 -0.07736614 -0.23288018 -0.57116413 0.5182767 0.4075963 0.30206227 0.38406795 -0.30441928 0.1992919 -0.5949003 0.2592154 -0.12320809 0.088261634 -0.65725166
11 0.03505343 0.18360162 0.4445192 0.6497068 0.059947934 0.07628393 0.31864393 0.34965032 0.7076548 -0.58557785 0.81241715 0.055971473 0.45193845 -0.8676135 0.11027003 0.3529199 -0.3268403 -0.36413503 -0.627912 -0.6399783 -0.36433858 0.23999889 -0.35556188 0.13521354 0.32480767 -0.43737274 -0.066414505 0.17854448 -0.35073784 -0.45259327 0.5768856 0.58337146 -0.3282134 0.4423896 -0.05553553 0.4847983 -0.19638129 0.4149214 -0.09575931 -0.1487724 -0.034201197 0.48354965 0.44212002 0.09013716 -0.344219 0.06661487 -0.011389365 0.17359756 -0.26977682 -0.22313939 0.5582321 -0.0963126 0.07650906 0.14214745 0.3177038 -0.5437935 -0.30842724 -0.20429848 0.041713797 -0.24482024 1.1329414 0.09179255 -0.10051059 0.21327619
51 -0.19362898 0.24435508 -0.22375903 -0.75719094 0.19845599 0.17494301 -0.42633867 0.3840301 -0.05343657 0.45636943 0.51933557 0.043692514 0.020955455 -0.17701925 0.4842542 0.053834513 0.43275422 -0.59251356 0.31689492 0.17429653 -0.2792419 -0.27062273 0.33152854 0.1278853 -0.52572554 -0.057832886 0.7025892 -0.06833352 -0.27223513 0.39641508 -0.5645732 0.9290243 -0.21667139 0.3617282 -0.080025315 -0.37375817 0.6990561 0.14972918 -0.06617243 -0.18391705 0.7313054 0.14015833 -0.091536894 0.01789332 -0.04246588 -0.59989333 0.9646454 0.18080279 0.59055984 0.18918584 -0.18466961 -0.38049686 -0.31223735 -0.11727144 -0.10790039 0.37364435 -0.108037665 0.37450665 0.4102785 0.25348675 0.3569061 0.38396206 -0.28950116 0.0478435
77 0.17773625 -0.1676885 -0.55467945 0.21263084 0.34100074 -0.3636809 -0.14232413 -0.5355283 -0.081479385 -0.01647462 0.10241284 -0.46996924 -0.62585866 -0.8078104 -0.03733837 0.52159023 -0.13096161 -0.13679306 0.3514258 -0.42249292 -0.33591193 -0.14308468 0.16641659 -0.5721398 0.4103296 -0.20944156 -0.0065753045 -0.13208216 -0.19104934 -0.49302125 0.56270695 0.3142699 0.34492475 0.11848944 -0.120996535 0.3868957 0.048982676 0.7818796 -0.42938116 -0.6312308 -0.5277287 0.20198083 0.035098884 -0.20732537 -0.7504088 0.5647917 -0.086179905 0.62432534 -0.24552302 0.4149949 0.17665482 0.029517883 0.16290748 0.9768136 -0.5723971 -0.29181626 -0.44221786 -0.0106963385 0.559 -0.48034063 0.35915056 0.6274794 0.03416098 0.49227613
70 -0.12693891 0.66845995 -0.19376332 -0.3674691 0.28848606 0.33730915 0.06840969 0.13294914 0.190135 -0.070126 0.3815034 0.30544427 -0.6291423 0.1971468 0.10655041 0.05506358 0.32524723 -0.48073512 0.40761623 0.25693363 0.73467064 0.3704247 0.5371867 0.08597385 -0.48853913 -0.39500365 0.21140775 -0.058181677 0.20800892 0.037689377 0.044222914 0.34052926 -0.6044086 0.4902458 -0.12500823 -0.21210748 0.071621716 0.035874017 0.16038124 -0.42549676 0.07368834 0.5780007 0.7054078 -0.30330452 -0.44772714 -0.7623533 0.4003606 0.5913702 0.22042964 0.24506 0.18215334 0.5546461 -0.6122052 0.074798286 -0.25531054 -0.17731898 0.26840225 0.028531658 0.48114964 0.46507627 -0.65370506 -0.013623171 0.23553318 0.348867
65 0.73904324 0.57667655 -0.19261375 -0.07173375 0.120905764 0.3935289 -0.21808389 0.6107033 -0.29194754 -0.023787817 0.0006166578 -0.29012963 -0.1664012 0.29418883 0.20771399 -0.22903483 0.3910622 -0.4690881 0.29487878 -0.4476175 0.49421397 -0.055444367 0.08641865 0.34754765 -0.3009967 -0.035226543 -0.044464998 -0.44158554 0.33544546 0.12314657 -0.05615687 0.033432327 -0.2901838 0.20838808 -0.21868138 -0.27565742 -0.053391647 0.48541263 -0.3253932 -0.24397129 0.24570295 -0.047335625 -0.649396 -0.058325097 -0.68507904 -0.5232466 0.7996457 0.4852417 -0.032948013 0.39682958 -0.89578027 0.2664538 -0.3771398 0.25161284 -0.27492437 -0.29223508 -0.17818208 0.006886382 0.2722149 -0.020465435 -0.50235295 0.1620117 0.15501463 -0.41151148
69 -0.21010566 0.105452836 0.3655541 -0.064072765 0.2682526 -0.028949605 -0.005404769 -0.23377123 -0.10140946 -0.016139233 -0.46979392 0.3423103 -0.43479335 -0.14733982 -0.16520956 -0.19271158 -0.16974194 -1.1831461 -0.14561 0.57098365 0.6281189 -0.24485485 0.4566255 0.22895652 0.28832045 -0.3215058 0.56437916 0.11985752 -0.21582685 0.15113103 -0.06572723 0.4657004 0.30859417 -0.82743835 -0.16534054 -0.41617057 -0.7245737 0.040154967 -0.2628884 0.4627616 0.47975567 0.066091485 0.20408872 0.37549952 0.94348794 -0.4262264 0.025485951 0.24820341 0.22061683 0.106234364 -0.0049906424 0.33660552 -0.41815764 0.14619583 0.46755895 0.55064917 0.030216 -0.086046174 -0.056985434 0.22808978 -0.809 -0.67868537 0.9422195 -0.27133405
23 -0.081667654 -0.119237825 -0.6268006 0.22215149 -0.23365389 -0.6013425 0.1271208 -0.5218578 0.5312446 0.18393221 -0.12751761 0.24081306 -0.70866007 -0.21937405 0.116392545 0.04457583 -0.012336031 0.22846426 -0.108890064 0.119253404 -0.36334312 0.46966657 -0.20283781 -0.25446954 0.009331123 -0.65689707 -0.0681343 0.56362766 0.063451245 0.41336325 -0.012297961 0.17211494 0.02636777 0.58687675 0.119158104 0.19677223 0.24348314 -0.017645331 0.15784651 0.5940509 -0.2231104 -0.4992483 0.28367242 0.031207424 -0.47804683 0.4362177 0.18084182 -0.04654639 0.028595945 -0.036487706 -0.4105566 0.25816026 -0.24196601 0.008137707 -0.06445082 0.6083481 -0.6861617 0.29744956 -0.17606924 -0.028348058 -0.8404544 -0.46948278 0.0074900268 0.5500072
0 0.21161278 -0.08849091 0.14278595 0.36134988 0.04349993 -0.28401 0.72091633 0.101611316 0.3157925 -0.14035258 0.54956466 0.68022853 0.51063144 -0.020093879 0.22034103 0.056790184 0.51087326 0.2739096 -0.056169666 -0.5022375 0.30539834 0.09892411 0.28055155 -1.2111511 0.0033737468 -0.36027402 0.8392048 -0.2908183 -0.5282026 -0.06659051 -0.3686047 -0.4777838 -0.14637063 0.7889801 -0.13204671 0.3919236 0.44628146 -0.60119987 0.14721246 0.10007567 -0.4125643 -0.32479498 -0.15328798 0.2145259 -0.06066544 0.62418413 1.0099181 0.68685204 0.47250524 -0.29566976 -0.8376524 0.53395015 -0.32072318 0.32645708 0.21993889 -0.24566323 0.04672728 -0.34083602 -0.04082552 0.37403926 -0.2937979 -0.17732899 0.5091229 0.3120882
68 0.029959278 0.6461548 0.047940385 -0.79888475 0.27890146 -0.03636076 -0.04766349 0.41725343 0.2715863 0.060332865 -0.51279616 0.23267423 -0.69141364 0.25390545 -0.16367084 0.23595507 0.37490025 -0.62805074 -0.0975995 0.20364605 0.30837622 0.26791307 0.28070635 0.39809465 0.10233601 0.23670635 -0.029192083 0.57360804 0.064828984 -0.11451412 -0.13609186 0.5859153 -0.3790133 0.32722193 0.3720725 0.16273609 0.1566722 -0.12786703 -0.06273621 0.12176459 0.63527805 0.44850433 0.14415792 0.2392618 -0.22565241 -0.19471994 0.32521802 0.8905969 -0.08242962 0.041712638 0.4369585 0.82429147 -0.05799827 -0.28113216 0.50087184 -0.22297008 -0.05355037 0.033593494 0.64701146 0.3402342 -0.40202236 0.04608158 0.43444937 0.352876
57 0.053079993 0.34117243 0.57627076 -0.05093085 -0.19720103 0.052908167 0.029547825 0.05400869 0.10447128 -0.0496303 0.19253616 0.24525566 0.19076435 0.2645071 0.22789438 0.13658021 0.24502933 -0.800251 -0.16036443 -0.10398104 0.29878855 -0.110320225 -0.2347085 0.51878315 0.35968778 0.18514216 0.0077303983 0.40620467 0.49811032 0.616394 0.20814991 0.98871607 -0.27731895 -0.003994511 -0.2494383 -0.08210878 -0.15103818 0.41666973 0.01015752 -0.3524992 0.56648546 0.70634395 -0.611507 0.44312552 -0.14494897 -0.8455772 0.33015162 -0.054578353 -0.086029775 -0.062587485 0.17415018 0.23378333 -0.15190741 -0.109786816 -0.52030957 0.24698803 -0.37305313 -0.0047213486 -0.14434549 0.34449223 -0.23810224 -0.22535437 -0.005138239 -0.55646694
54 0.6889393 -0.28926253 0.13125241 0.22423661 -0.06048679 -0.24682355 0.51210713 -0.1806478 -0.537644 0.08497725 -0.642708 -0.05155366 0.20331132 -0.015396641 0.32234278 -0.36531883 -0.17234933 -0.54212016 -0.015842907 -0.19839491 0.29663518 -0.3563559 0.75253254 -0.04821234 0.41947928 -0.18606423 -0.43081912 0.53290814 -0.40120435 -0.24215132 0.056798622 -0.08091597 0.12886 -0.15472522 0.35617048 0.041728072 -0.12518011 0.45010352 -0.16424611 0.30744714 -0.4986424 -0.088879205 -0.016612686 0.38727278 -0.29016846 -0.45242843 0.30439624 0.01994833 -0.17754866 0.1344633 -0.59533995 0.19755895 0.18780227 0.109575644 -0.84520555 -0.17799912 -0.41405997 0.27593017 -0.084115714 0.8379089 0.19066428 -0.3425008 0.22326295 -1.0642351
98 0.63494074 0.43237302 -0.19239523 -0.42097026 0.32885885 -0.6029734 -0.34454438 -0.28919658 0.23616847 -0.29412445 0.43107623 0.04426651 0.5069922 -0.33962548 0.11091534 -0.18172973 -0.6966262 -0.17693451 -0.24974406 -0.20395051 0.39148527 0.12937292 -0.267906 -0.26794857 -0.54147667 -0.16425796 -0.23382632 -0.21491392 -0.1132901 -0.36160037 -0.32929137 -0.37894535 0.15753566 0.5812582 0.22105211 -0.35346448 -0.29501465 0.6448093 0.12512058 0.2131885 0.22174717 -0.709695 -0.22796488 -0.03341941 -0.52971643 -0.061938845 0.85182965 -0.37325653 0.07074576 -0.0972601 -1.0048028 -0.21245049 -0.68884754 -0.505392 0.2362028 0.65736526 -0.36298123 0.0380858 -0.24208479 0.13484405 -0.13985717 0.48055708 0.3119051 -0.7366136
29 0.35479146 0.24367456 0.4406835 0.3409514 -0.1675354 0.3243044 -0.014492076 0.1739612 -0.10104434 -0.44602552 -0.26421237 0.20013233 -0.45636934 -0.21881494 0.31406707 0.098861255 0.16531582 -0.47859445 -0.1854296 -0.14157464 -0.4532276 0.016559178 -0.37676042 0.31825396 -0.15653534 0.29551315 -0.029164033 0.13722938 -0.19965138 0.24034457 -0.13222626 0.66062766 -0.9724046 -0.21333791 -0.29169437 0.38499135 -0.10925917 0.07517016 -0.22237238 -0.11269357 0.27457336 -0.049931478 -0.9938703 0.6529808 -0.19875655 0.29450893 -0.104442455 -0.26192364 -0.15725252 -0.120305546 -0.45988643 -0.35290593 -0.17819227 -0.13928178 -0.42300606 0.014682808 0.27210325 -0.43142873 0.15865378 -0.30697852 -0.46166274 -0.84978783 0.3021367 -0.4514098
19 -0.42199135 0.4445303 0.3011308 -0.6067484 -0.57438695 -0.16272742 0.2189993 -0.3720618 0.08269979 0.037574273 -0.0018570778 0.18315817 0.52942485 0.13770452 -0.4280438 0.23983657 0.0866896 -0.47820723 -0.7756049 0.3502115 -0.61841583 0.045918424 -0.1272914 0.063856676 -0.07472856 -0.3746191 -0.70763654 0.051376168 -0.22534175 0.656645 -0.5059 0.12094899 -0.25999254 0.7064687 0.29577917 0.028433513 0.47549906 -0.0025523661 0.056023475 0.38092294 0.17068093 -0.22855791 0.401331 0.30872107 -0.46012846 0.19819887 0.41288754 0.21959217 -0.11701895 0.25895402 -0.03826033 -0.15142548 -0.5304883 -0.6397171 0.198145 0.44690558 -0.38039637 0.56621575 -0.19160014 0.15978676 0.27075896 0.21069731 -0.3331445 -0.08293009
90 0.38998175 0.17921595 -0.19300531 -0.17180572 -0.14504796 -1.105773 0.2654817 -0.6856459 1.0300117 -0.034014888 0.5484694 0.05639534 -0.084069036 -0.3859915 -0.29333404 0.576477 -0.61719656 0.78289473 -0.55426157 0.023055958 0.25001374 -0.08323797 -0.7502173 -0.25106457 0.14689687 0.41074064 -0.51585287 0.08529892 -0.6038884 -0.38510326 -0.2671285 0.20402215 0.04914151 -0.29212263 -0.7786125 0.019937862 0.22818226 -0.16628857 0.55231833 0.26548135 0.15578865 -0.028630007 0.04612797 -0.123044595 -0.599786 -0.23913026 0.10048804 0.20199111 0.24416308 -0.1544779 0.1502868 0.2106455 0.16208276 -0.5813986 -0.29050568 0.06542221 -0.6561542 -0.62537414 -0.004909595 -0.57996196 -0.27629787 0.4587365 0.34034306 -0.52042806
43 -0.48407805 0.2979009 0.1144554 -0.30108196 -0.10522829 0.22394903 0.49538964 -0.69852704 0.18252122 0.15926613 -0.02839294 -0.16218145 -0.7613147 -0.037684027 -0.3026908 0.59939253 -0.22654486 0.13547936 0.2047941 0.42411596 -0.5406737 0.27759272 0.13739942 0.35882378 -0.12545148 -0.0035753192 -0.60994893 -0.1873466 0.16548651 0.39659274 0.3001454 0.49075782 -0.23981726 0.6978966 -0.32823694 -0.6009368 0.57324815 -0.12664466 0.57798016 0.9714188 0.20596063 0.5881689 0.6256486 0.23596591 0.062143087 0.722134 0.017049605 0.7151153 0.16426978 -0.0410403 0.34064952 0.2647467 -0.1636753 -0.07969193 -0.29543027 -0.31973204 -0.21537709 -0.09738478 -0.39798212 0.27323133 0.23841915 -0.47724506 0.55865985 0.532534
13 0.056780037 -0.02326047 0.2866858 0.40043995 0.1357094 0.4972848 -0.31934774 -0.005051492 -0.31416824 0.12433105 0.5144766 0.3051255 0.34615505 -0.26596725 -0.2179134 0.101652324 -0.21093927 -0.15269586 -0.28815967 0.114502944 0.08836203 -0.42377564 -0.43879083 -0.44361532 -0.18651648 -0.8527885 0.74402994 -0.47600055 -0.32888886 -0.2611566 0.59961605 -0.34443414 0.020535909 0.80366004 0.029331284 -0.06443883 0.12823151 0.2255533 -0.22298954 -0.31346226 0.47665292 0.71745956 0.49097648 0.075479776 0.71689564 -0.078302026 0.1634722 0.21845135 0.095579304 0.12376567 -0.38363713 0.052148458 0.07281385 0.24415028 -0.28142565 0.23495035 0.865423 0.056718912 -0.012370264 0.76840585 0.53584594 -0.5732751 0.041592803 0.5776119
40 0.26858154 0.7375695 -0.3272254 -0.30432898 0.29199758 -0.04915517 -0.15017675 -0.5553428 0.011759975 -0.12889117 -0.09667009 -0.4564364 -1.1206386 -0.04700366 -0.36474934 0.15833174 -0.07214826 0.1580363 -0.16616164 0.53274256 -0.4974682 -0.15030567 0.05442924 -0.03847708 -0.30099604 0.011969837 0.33820537 -0.02097452 -0.3193742 0.49812052 -0.10105788 -0.15233302 0.38504356 0.16922003 -0.5756246 -0.17068596 -0.20058508 -0.06549866 -0.045523748 0.30779672 0.2827507 -0.62066984 0.17361146 -0.39045268 -0.2828989 -0.04275307 0.057700425 0.35713232 -0.24232617 -0.31828395 0.5964561 0.39107478 -0.4295913 -0.22800861 0.71590143 0.68908364 -0.4716116 -0.5267127 0.26171383 -0.3073108 -0.9630008 0.09426688 0.17515352 0.8478549
64 0.56193095 0.086258546 -0.9162222 0.08038219 -0.4695302 0.124564104 0.48457465 -0.32461596 -0.11909966 -0.20478028 0.42017332 -0.18085887 -0.06604159 -0.3138275 0.101726025 -0.68587196 -0.020574357 0.21388973 -0.32297775 -0.48719692 -0.6525247 -0.27080864 0.6490228 0.5449316 0.104030095 -0.41238025 0.4066729 -0.023425844 -0.86506367 0.16376527 -0.15586926 -0.80618775 0.34757566 0.24970426 0.49028394 0.8871914 -0.3198941 -0.36214548 0.24397744 0.33105192 0.07937278 -0.1346372 -0.31434128 -0.18134223 -0.06462847 0.202728 -0.2531384 -0.963301 -0.8691186 -0.11138737 -0.44531682 0.29865992 0.3261738 -0.28020048 -1.069948 0.45252204 -0.0077300966 0.07299463 -0.056675185 0.33800054 -0.4442146 -0.3250985 0.34220126 0.49987486
82 0.3692717 0.11485411 0.16863927 -0.11457975 -0.27030462 -0.12552263 -0.16272268 0.025723992 -0.7797533 0.18382643 -0.22636297 -0.41501847 -0.2329028 0.5524639 -0.2461011 -0.010711817 -0.15921366 0.07133445 -0.10795731 0.39859393 0.21857671 -1.1302248 0.49871516 0.12194278 0.43948063 -0.45208853 0.38124356 -0.04612029 -0.2570865 -0.42608082 0.007884608 0.15744835 0.43094245 0.21721432 0.6576434 0.47519255 -0.455599 0.48182598 -0.32612187 -0.5530113 0.039390486 -0.19096893 0.2943299 0.64432925 -0.04862623 -0.5146245 0.00029872177 0.20786458 0.69983584 -0.04303754 0.14456919 0.73145 0.084207214 -0.10173249 -0.6218513 0.28893352 0.038683362 0.41926855 0.7474035 0.63878256 -0.8375012 0.51005685 0.661057 0.56269026
17 0.89759415 0.44010344 0.107900694 0.3529698 -0.28020525 0.48244345 0.15812281 -0.3977167 -0.32390913 -0.17110504 -0.07872045 -0.61449754 -0.10692066 0.20963217 -0.4198559 0.2039092 -0.58682007 0.72873163 0.37296018 -0.036606323 -0.20128436 -0.5240237 -0.19299425 -0.14582953 -0.32969105 0.32738224 -0.4350924 -0.008130632 -0.12928766 0.34467015 0.2400048 -0.24162777 0.34607258 0.60858023 -0.89535964 -0.103795975 -0.085288204 0.299136 0.758992 0.59027433 0.03220634 0.18376358 0.5365781 -0.28080693 0.035721008 0.07405517 -0.23801823 0.3291058 -0.7886137 -0.6479875 0.16832265 0.32664102 0.19812627 0.5331684 -0.2942635 0.14274356 -0.67154247 -0.5468848 -0.5723926 -0.08975352 -0.016263792 -0.22221005 0.023807064 -0.48878855
78 0.37809637 -0.06656136 -0.4447175 0.25375864 -0.31605244 -0.010590578 0.36497155 0.043691512 0.8682059 -0.55092233 0.08318487 0.5025918 -1.0848018 -1.0445173 0.10512189 0.3637765 -0.44781512 -0.27215287 -0.061902247 -0.54044193 0.43335298 0.5218116 0.32663834 0.34250656 0.21628672 0.033099342 0.17973487 -1.0445656 -0.047434155 -0.43559897 0.21828447 0.0837029 0.41577786 -0.31364194 -0.626453 -0.5198532 -0.14485207 -0.48324656 0.46632293 0.792968 0.32957113 -0.022027947 0.6385496 -0.3470652 0.3990528 -0.51435906 -0.18113564 -0.08642934 0.03883509 -0.5577083 -0.68054074 -0.5749512 0.3276064 -0.029581308 -0.7731166 -0.20651971 0.14041887 -0.2564323 -0.14757693 0.2870574 0.33874506 0.41962415 -0.42983112 0.46668953
89 -0.09502682 0.53976285 0.2242224 -0.2536146 -0.17136708 0.18671101 -0.2023759 0.44451806 -0.50634843 0.00455569 -0.40700972 0.22698748 0.48026615 -0.04399262 0.4309049 -0.22356048 0.30478886 -0.49807286 0.15444574 -0.191766 -0.3316346 -0.13911563 -0.37007275 0.23996538 0.18576737 -0.7029237 -0.0901563 -0.031063002 0.46817222 0.45736185 -0.19939035 0.3115114 -0.7805046 0.22749425 0.6886175 0.5242394 -0.0930378 0.69615424 -0.47804335 -0.5071106 0.13125646 -0.52174866 -0.11630791 0.6933666 -1.0659208 -0.424049 0.47278124 0.34000722 -0.16780438 0.22223167 -1.0564746 0.24261987 -0.23900805 -0.101486474 -0.72171366 -0.4004064 -0.63052255 0.75207627 0.300495 0.19777548 -0.33205432 0.18294865 0.0827999 -0.21073288
6 -0.05014929 -0.43765137 0.31807923 -0.029660463 -0.3527106 0.18320075 0.12691393 -0.019451648 0.7185247 0.3229332 -0.27560028 0.24615833 -0.24613243 0.09808987 -0.19230016 0.9336066 0.4218819 -0.1945728 0.31912932 -0.61569273 0.3980187 -0.30693316 -0.5684124 0.06595433 0.7417182 -0.028858153 0.45784461 -0.5445999 -0.38048336 0.28625417 0.45133007 -0.22593291 0.08410899 -0.2514256 -0.6944612 0.4040495 0.005649146 0.07400193 0.1638715 -0.49637768 0.4055025 -0.31045726 -0.11819464 0.48899218 -0.23337655 -0.19617325 -0.12517117 0.77169603 -0.5709047 0.0932324 0.3223214 0.49721017 0.4028579 0.6389749 -0.3321402 0.10445281 -0.19110253 -0.48095047 0.35840088 0.08774403 0.2787536 -0.110288374 0.39073214 -0.25328907
80 0.5266366 0.6959989 0.71923774 0.3154738 -0.07180733 0.3502614 0.64187855 0.2502295 -0.49413946 0.047740027 -0.14866649 -0.33031553 0.62406695 0.5521733 -0.29689503 0.18995734 0.16296075 0.07056648 -0.225291 -0.0076637184 -0.3580106 -0.72447014 -0.23684631 0.56795347 -0.011032167 0.5047438 0.027802717 -0.32002747 -0.24578534 0.63333696 0.02776532 0.42333674 0.112675175 -0.21789554 -0.34230444 0.6902825 0.67411053 -0.44798052 -0.070784576 0.5134255 0.6786204 0.080363475 0.061301805 0.7959038 -0.14740172 0.2294829 -0.07486499 0.08146922 -0.07045627 -0.41128147 0.1260911 0.51221776 -0.3250674 0.17260256 0.20617563 -0.30328792 0.03196539 -0.20100024 -0.033266008 0.33365682 0.4703485 -0.4546672 0.32411253 -0.027983932
37 0.035070825 -0.0022972375 -0.37937388 -0.6078574 0.14530249 -0.5846508 0.26123393 -0.7505723 0.1040615 -0.054194756 0.40482184 0.11751736 -0.24837556 -0.3649485 0.60619426 0.13967599 -0.69587916 -0.08794156 -0.77151954 0.9898353 -0.5316921 -0.22643659 -0.16597559 -0.18699306 -0.25796708 -0.522904 -0.577511 0.9536838 -0.90878826 -0.07333009 -0.5003855 0.33913833 -0.328489 0.11441458 -0.804713 0.37136778 0.35090527 -0.44566697 0.17173481 0.03886521 0.046301577 -0.1401456 0.09763929 -0.8591415 0.36545062 -0.10268975 0.20861523 -0.022364108 -0.9406274 -0.056823798 0.0536199 0.20800923 0.6412505 -0.122863024 -0.17891964 0.624133 0.31097645 -0.5795865 -0.3114611 0.60608745 -0.87616104 -0.3599674 0.084320955 -0.55566335
91 0.30366233 0.40771207 0.21237369 0.43810043 0.05230577 0.9484692 -0.34070525 -0.09843514 -0.261699 0.019800678 -0.44569322 -0.44573197 -0.7554455 0.06623063 -0.083910674 0.03900021 -0.28580117 0.48358533 0.53649443 -0.22965878 -0.17782095 0.18450373 0.093996786 -0.31618372 0.06275536 0.7668607 0.13107118 -0.39677438 0.7228333 0.25319126 0.95144093 0.64449435 -0.18147258 0.3605615 -0.46113068 -0.73365605 -0.083471596 0.2885062 -0.19562641 0.48200148 0.20781283 0.33309454 0.048899688 0.4044193 -0.7386153 0.31609395 -0.10525026 0.22945458 0.56990325 -0.44236487 -0.37498763 0.3393696 -0.4446852 0.48111776 -1.3989569 -0.025575142 -0.3819752 -0.11085545 -0.34228608 0.06131754 0.08243825 -0.3464606 0.41368935 0.31108636
