5 64
1 -0.14868116 -0.2799353 -0.1589101 0.043819904 0.26043653 -0.16723159 -0.110507295 0.0076424195 0.20712392 0.1412511 -0.25484845 -0.120162494 0.16281694 -0.00032001923 0.27705625 -0.02087204 -0.17979017 -0.071990885 0.16558191 0.23019268 -0.21212733 -0.075420044 0.04659343 -0.36815065 0.06057411 -0.0800433 0.30839974 -0.17528413 -0.10904384 -0.008500774 0.23275079 -0.0043692784 -0.0035099068 0.03237244 -0.20060636 -0.08587884 0.064828105 0.02587666 0.23716916 -0.0023480456 0.035001513 -0.25407243 -0.069398575 -0.08234604 0.06286081 -0.0470098 0.041308995 0.063016236 -0.09505814 0.17815089 -0.092649505 -0.058033947 -0.1329239 -0.08808875 0.057814542 -0.20191295 -0.47538328 0.08737894 0.28498542 -0.29325214 -0.18668318 0.030743545 -0.0016010184 0.0714544
0 -0.12651935 -0.2725684 -0.16357076 0.055943813 0.25786233 -0.16808712 -0.08568684 0.037242815 0.22402312 0.12203519 -0.25214353 -0.1079468 0.18218064 0.024281887 0.27342534 -0.03952533 -0.20058332 -0.058273207 0.17657724 0.22570819 -0.18986027 -0.07517627 0.028461335 -0.36338523 0.061219085 -0.08293589 0.31561443 -0.16436642 -0.10922661 -0.023936184 0.23456717 0.014751175 0.003512602 0.051226012 -0.1802781 -0.104306474 0.06641649 -0.007077598 0.2249721 -0.022524016 0.0366012 -0.2576011 -0.06990579 -0.080294006 0.072495624 -0.049177397 0.05718478 0.082103066 -0.07691182 0.1785922 -0.08352258 -0.04270536 -0.12957938 -0.09601327 0.05441338 -0.21442007 -0.47803044 0.07525397 0.28454998 -0.27820373 -0.1965435 0.024052814 -0.0053980756 0.08342836
3 -0.12056124 -0.27827126 -0.15615712 0.061896503 0.26343834 -0.16008168 -0.094017506 0.042999636 0.22869392 0.11648322 -0.23574837 -0.10023236 0.18092074 0.013735992 0.26944098 -0.03931847 -0.20345704 -0.061725557 0.18199661 0.2290602 -0.18939145 -0.06246891 0.03484154 -0.34807757 0.06960142 -0.086375825 0.317258 -0.16714716 -0.10836399 -0.029663758 0.24012604 0.011332043 0.015464283 0.056626104 -0.1844146 -0.112860814 0.06258433 -0.0016899623 0.22945425 -0.01881792 0.0398779 -0.24683845 -0.058083035 -0.080192976 0.07933425 -0.042237997 0.04963377 0.08978123 -0.07741416 0.16855106 -0.08957755 -0.04149086 -0.122029014 -0.09660452 0.04309706 -0.21802993 -0.47749573 0.06671157 0.28728503 -0.27664262 -0.1881023 0.035431635 0.0010283686 0.08251988
2 -0.13373858 -0.27649587 -0.16279994 0.03693743 0.24070737 -0.17220032 -0.08327675 0.02481058 0.21768664 0.13127308 -0.25136054 -0.10695365 0.18182765 0.026986605 0.26424763 -0.027633555 -0.1972287 -0.07500609 0.17260548 0.20651795 -0.20273577 -0.081177056 0.034565505 -0.36576253 0.06633096 -0.068265796 0.31049058 -0.16540001 -0.11435803 -0.010116968 0.22950013 0.011912923 0.0048331684 0.0447658 -0.17567275 -0.08173419 0.060154483 -0.008676869 0.22697458 -0.020790467 0.036235686 -0.2545827 -0.07550963 -0.06629134 0.077846184 -0.059816383 0.053916965 0.062771626 -0.094599664 0.18818466 -0.068251066 -0.05455384 -0.119155645 -0.09737952 0.05825909 -0.20482779 -0.4740384 0.09073729 0.26913223 -0.27852732 -0.19798963 0.029428257 -0.004542155 0.06907059
4 -0.13556321 -0.26756507 -0.15611373 0.058709618 0.2537743 -0.16796754 -0.09814666 0.021386756 0.21895602 0.1259921 -0.24760675 -0.115721874 0.1638367 0.010921462 0.268779 -0.031304542 -0.1830264 -0.061335612 0.16406019 0.22802722 -0.195245 -0.066485025 0.04436741 -0.3589826 0.057616867 -0.08219859 0.31601444 -0.1665956 -0.10202169 -0.026289541 0.22600926 0.010550997 0.0032290737 0.04490775 -0.19206822 -0.09962641 0.05714288 0.015460229 0.230031 -0.014591436 0.04107947 -0.2541484 -0.054067865 -0.08644516 0.06706061 -0.037531078 0.05454058 0.06989114 -0.08269651 0.16652572 -0.09606171 -0.04930007 -0.12922609 -0.09583547 0.04447966 -0.20088612 -0.46113425 0.0794182 0.2801652 -0.27929664 -0.1818951 0.026316684 0.008008876 0.073725566
