5 64
1 0.20857365 0.061156042 0.043519128 -0.32708144 -0.10165305 -0.22328986 -0.17317666 0.113109834 -0.09548777 0.085715555 0.04955635 0.15061855 0.16161178 0.2941153 -0.19865233 -0.19226801 -0.36192575 -0.13289744 0.048101924 -0.03152276 -0.20040478 -0.20188554 0.016758071 -0.16327523 0.12209186 0.0026209492 -0.19348288 -0.2886984 0.18308096 0.1693775 0.35324356 0.35718608 0.13699149 -0.35597134 -0.31118235 -0.20186248 -0.22271547 -0.12616313 0.24603762 0.008161107 -0.0167737 0.22777069 -0.36184293 0.0815049 -0.41069373 0.09055028 -0.07634466 -0.18277198 0.04766231 -0.017522542 0.18159413 0.15674497 -0.17899592 0.071040355 -0.3517619 -0.010245677 -0.28952706 -0.30015063 -0.034137502 -0.23488343 -0.1758508 0.18357135 -0.015780797 0.25221702
4 0.115459576 -0.024915384 0.09436724 -0.19533235 -0.042683322 -0.16397463 -0.07735266 0.020245928 -0.12390182 -0.028086793 0.03982317 0.23219572 0.0888271 0.17687751 -0.17858113 -0.02934677 -0.097220525 -0.10290874 0.16231762 0.014433955 -0.29567063 0.04685497 -0.124796055 0.0265495 -0.032095414 -0.06381287 -0.19094545 -0.25947076 0.19392595 0.034892615 0.28023326 0.35230064 0.15183839 -0.17108841 -0.36535245 -0.23061368 -0.2312211 -0.14099272 0.15962344 0.11565073 -0.120450474 0.12529759 -0.12760097 0.034165625 -0.13434479 0.08209884 0.030228501 -0.03540814 0.08405948 -0.05079359 0.15195322 0.008103118 -0.116157055 0.018505627 -0.13447997 0.10887061 -0.06102682 -0.23886663 0.10042853 -0.24920496 -0.04241339 0.14028789 -0.095291734 0.24588329
2 0.004044951 -0.08423731 0.16715269 -0.062897906 -0.016738947 -0.10765197 0.017574333 -0.07076886 -0.17554341 -0.15282896 -0.0016648499 0.33314887 0.01941858 0.05669473 -0.17995834 0.12862644 0.13803308 -0.05312803 0.27328908 0.045621473 -0.41849834 0.2776483 -0.2619773 0.19441503 -0.21275198 -0.15218277 -0.18156824 -0.27334335 0.22087345 -0.0697435 0.24405304 0.37344792 0.15027615 0.0020358688 -0.42688772 -0.2774439 -0.26106158 -0.18622641 0.10952666 0.24962293 -0.22785969 0.057808638 0.06818382 0.0015709407 0.11087054 0.09921755 0.11368816 0.11682681 0.1220168 -0.09257231 0.15721975 -0.12819295 -0.073046245 -0.023020903 0.058211163 0.21908846 0.15460593 -0.18698698 0.24834947 -0.2861806 0.08231674 0.11287679 -0.16517399 0.24782032
3 0.24013959 0.055479772 0.031281758 -0.35032964 -0.1014245 -0.23229262 -0.19015153 0.12886341 -0.06553414 0.100954756 0.07580266 0.12773928 0.17725836 0.32083163 -0.1989868 -0.2051389 -0.38349244 -0.16402382 0.05129697 -0.023461672 -0.18251726 -0.23606412 0.030020129 -0.18352848 0.15637925 0.035910465 -0.20350268 -0.28566977 0.16777395 0.17154947 0.35475394 0.36419442 0.13730949 -0.37685382 -0.313932 -0.20584624 -0.21416834 -0.104070544 0.24820873 -0.013444841 -0.0034073195 0.24058121 -0.38397428 0.086923234 -0.43674868 0.0815659 -0.06899908 -0.21092819 0.0592214 -0.009799493 0.18043497 0.18044779 -0.16841549 0.07426356 -0.3690411 -0.028117247 -0.32048157 -0.30382967 -0.060432542 -0.22021371 -0.18061289 0.19674876 -0.013225013 0.265644
0 -0.034205556 -0.099373065 0.17446522 -0.030850464 -0.005763749 -0.10571524 0.021647904 -0.09830966 -0.19013157 -0.17578673 -0.0138419345 0.37572768 -0.007068488 0.019981198 -0.17771812 0.16356817 0.19641878 -0.033859078 0.3090643 0.07175275 -0.44275618 0.3471886 -0.2882396 0.24799512 -0.25541583 -0.17226107 -0.19521196 -0.26502872 0.24885023 -0.11127839 0.21472636 0.3759317 0.17968224 0.03154857 -0.45379 -0.27743775 -0.28171387 -0.1730109 0.09171587 0.27527726 -0.25830442 0.03140677 0.118464015 -0.0026215012 0.18455353 0.079736374 0.13009256 0.14652357 0.13986455 -0.10566654 0.14427325 -0.15969178 -0.07380765 -0.040211868 0.09387547 0.25997734 0.2226732 -0.18873626 0.29193085 -0.30390632 0.099127844 0.0834457 -0.19040008 0.2324379
