100 64
29 -0.292547 -0.040765412 -0.16214685 0.143354 0.40887442 -0.1509815 0.04548343 0.25209844 -0.2482514 -0.19240634 0.23109382 0.42242983 -0.50990033 -0.13245411 0.3512528 0.5309906 0.00060502684 -0.1812656 -0.24838859 -0.18891476 0.012739893 -0.13924363 -0.5067243 0.30480903 -0.07774398 0.26570162 -0.30921036 0.06974298 -0.102287844 0.39239073 0.03962789 -0.34615007 -0.0756701 0.12765953 -0.111657254 0.42134163 0.22854762 0.14850587 -0.59293795 -0.06623563 0.113398105 -0.29923338 -0.008202838 -0.046760898 -0.061859358 0.11757279 -0.09635621 -0.11266092 0.035192348 -0.15928036 -0.359046 0.36519122 -0.5851338 -0.21951094 0.12875961 0.26625633 0.08158745 0.19873537 -0.15798542 0.21238661 0.28988835 0.023442477 -0.014504862 -0.04282761
32 -0.02654666 -0.79251367 0.30282053 0.59736806 0.029740153 -0.887583 -0.0603135 0.41014048 0.32027343 0.3292417 0.1530625 0.44237265 -0.0346521 0.13872407 0.30754176 0.72563887 0.21351115 -0.16615462 -0.013867878 0.1112962 -0.74872595 -0.21200784 0.06656784 -0.0824623 0.32081833 0.15157676 -0.29538596 -0.06785759 -0.29684946 -0.113893986 0.162743 0.49270156 0.13713248 0.06443364 0.06648921 0.20587967 -0.059147216 0.19657457 -0.38616416 -0.09716183 -0.37852505 0.15584223 -0.28675252 -0.10421079 0.21313721 -0.224038 -0.2953947 -0.22380246 -0.01754176 0.052530672 0.2932787 0.5412895 -0.0062045855 0.13183928 0.13577008 0.024058545 -0.12487482 -0.7608775 -0.13422757 0.03894983 0.27907398 0.07144324 0.16700053 0.11280443
26 0.35744 -0.23367731 -0.12117646 0.3700053 -0.15616612 -0.19028634 0.028991526 0.28733978 0.075752415 0.21630391 0.50072175 -0.118636794 0.08133493 -0.21497127 -0.14537884 0.61876094 -0.10884172 0.033186823 0.043856177 -0.108297564 -0.47824794 -0.32846484 -0.27222928 0.03547721 0.26243567 -0.5779576 -0.072510436 0.07703763 -0.6274875 -0.13091853 -0.08232541 -0.20936246 -0.1503582 0.122044705 0.7607078 0.18810402 -0.61431736 -0.17536157 -0.26404685 -0.08959796 0.283046 0.2833274 -0.18121585 0.41417056 -0.08151878 0.24261807 -0.11047566 -0.41957134 -0.29637635 -0.37112164 0.2859887 0.42212653 -0.1949635 -0.30406615 0.16634558 0.36853683 0.40008298 0.1958288 -0.058856733 -0.0020432412 0.58874637 0.27592647 0.54180795 0.39716762
65 0.81496626 0.1075231 -0.21895036 0.2122016 -0.22380908 -0.39526662 0.062611766 0.15384826 0.35248664 0.04369581 -0.41296792 0.5098776 0.35884544 -0.22828192 0.01645535 0.4656262 -0.047314525 -0.026047748 -0.4772808 -0.03106569 -0.03625042 -0.34910616 0.1709593 0.03148847 0.11679903 -0.40150118 -0.49351302 0.3129674 -0.2083925 0.043569475 0.14628212 -0.6204334 0.29786813 -0.5440315 0.123241 -0.13151929 -0.55725324 0.4896276 0.07242334 0.09798944 -0.24573527 -0.14266095 0.0058698873 0.5304849 0.48834857 0.31443772 -0.5375614 -0.3333765 0.11979901 -0.35987204 0.47604534 0.025716726 -0.19361156 -0.6156671 -0.11858367 0.049412973 -0.18836132 -0.23815697 0.057248697 0.1295512 0.04608571 -0.07648525 0.57086366 -0.442255
24 -0.3379432 -0.1643237 -0.27060184 -0.3233771 -0.16681862 -0.10649498 -0.36148295 0.32091287 0.15779562 -0.15129142 0.15613316 0.1386619 0.2266259 0.4902459 0.034920055 0.21009944 0.0054560294 0.049460236 -0.036879916 -0.026728455 0.10917238 -0.20180088 -0.1926272 0.1348888 -0.034906536 0.22266124 -0.55590564 -0.13766433 -0.28436023 0.027528847 0.40866396 -0.10234726 0.047387727 0.01840309 0.18411446 -0.046365418 -0.16771853 0.15677446 -0.4310659 -0.007517739 0.52601975 -0.02201211 -0.17463323 0.15393285 0.31529003 -0.06622974 0.22054642 -0.03505961 0.43727827 0.23301992 0.5801609 0.36641732 -0.5063466 0.19426212 -0.012635325 -0.28941894 -0.49264616 -0.34861434 -0.57025254 -0.1901144 -0.49445218 -0.021193268 0.030742664 -0.2517523
14 -0.016279357 -0.23532061 -0.52605087 0.17034644 0.056912187 -0.09274402 -0.14539115 -0.16877869 0.52900594 0.42252383 0.19067305 -0.29883024 0.001776613 -0.08095679 0.11581569 0.43530014 0.361304 0.39212048 -0.3813071 -0.068780236 -0.2786758 0.3108942 -0.15589023 -0.071935795 0.23239972 0.012861795 -0.066520564 -0.3484257 -0.42994174 -0.18278314 0.25856668 -0.04729904 0.20339993 -0.2636802 0.038862783 0.24981628 -0.4661299 -0.6142565 -0.019997558 -0.084312566 0.2104661 0.10389467 -0.10451266 -0.075638495 0.49452627 0.19412602 -0.047684256 0.26309818 0.19126217 -0.09315553 0.23260333 0.6783757 0.07142304 -0.65266216 0.1525328 -0.09257553 0.5635766 0.27213758 -0.13057087 -0.30003893 0.36841702 0.45338562 0.42108634 0.0979679
2 -0.21761094 -0.1623042 -0.5502224 -0.16318995 -0.050358422 -0.0023329936 -0.3546905 -0.35641664 -0.08904442 0.37541848 0.45557976 -0.15327464 0.29543918 0.06958439 -0.22421929 0.4714364 -0.07720736 0.56315696 0.16931695 -0.6140186 0.18133529 0.044840544 0.07543072 -0.35354978 -0.40980527 -0.0041528502 0.28191724 0.33476168 -0.07733073 0.0763549 0.45936757 0.016605541 0.64309645 -0.4125272 0.17065127 -0.0924728 -0.15445939 -0.3013822 -0.10679265 -0.19126311 -0.069518924 0.53364646 -0.48830107 0.2004191 -0.0294947 -0.45913914 -0.0236647 0.17304341 0.4693817 -0.25029668 -0.37113148 -0.1089297 -0.038597584 -0.15030563 -0.015206157 -0.030456059 0.21701053 0.6605194 0.19083282 0.108061 -0.3371543 0.15346456 -0.32521954 0.1875693
25 0.58344823 -0.04536204 0.31198055 0.3467271 0.07413037 0.061478835 0.109507926 0.4626653 0.096024826 0.37496278 0.114701666 0.37640804 -0.13460898 -0.1918783 0.30426368 -0.098494835 -0.25476018 0.081238106 0.07618678 -0.6006564 -0.10017556 -0.44551158 -0.57693505 0.020528752 0.09143253 0.1709902 0.81246936 0.13600758 -0.5929541 -0.1336917 0.13990724 0.015863532 0.37067342 0.5196025 0.31713843 -0.31723127 -0.38437518 -0.4828165 0.26374134 -0.24098732 0.16953772 0.15869783 -0.39560777 0.70679146 0.19106947 -0.05378106 -0.024862798 0.43259835 -0.17348786 -0.1448711 0.032628458 -0.14099184 -0.45616284 -0.48183954 0.42197508 0.14640196 -0.4780232 0.2320155 0.24369524 -0.1814313 0.62861055 0.6842409 -0.11783497 -0.54506755
57 0.07190711 0.1084552 -0.29852024 0.25488973 -0.55380327 -0.15551357 0.058589667 0.180806 0.096256934 0.18097788 0.2210614 0.58576995 0.15211423 -0.019745843 -0.3166896 -0.5040284 0.12694222 0.45322588 -0.38964325 -0.17044686 -0.40823403 0.18023525 -0.29142603 -0.4566257 0.7350609 -0.47545674 0.03194446 0.020319698 -0.34974235 -0.047356706 -0.41630206 -0.23352244 0.06385729 -0.0890006 -0.031164417 -0.3995829 -0.77897954 -0.38870755 0.11521473 -0.219125 0.2005054 0.3120625 -0.38412103 0.6487628 0.071089104 0.21555917 -0.44461936 0.14899635 0.44494152 0.21744306 0.06932692 0.015089522 -0.0093590645 0.08200749 0.2532962 -0.5151924 -0.233213 0.047821403 0.52791375 -0.27863193 0.09222496 0.16417317 0.009527503 -0.120597035
61 -0.16144286 0.2908771 -0.7423647 -0.10765798 -0.10044378 -0.08250506 -0.17726737 -0.12684368 0.3401582 -0.13989349 -0.26906452 0.38968948 -0.3216037 0.28400186 0.24170297 -0.059234038 0.614859 0.30345398 -0.82504916 -0.078402124 0.5373203 0.37829173 -0.38965294 -0.14523895 0.275205 -0.08120787 -0.403576 0.04802476 -0.09226305 -0.28786957 0.42835718 -0.29053834 -0.33886543 -0.085052244 0.18811189 -0.09396987 -0.33167204 -0.1541367 -0.0429898 0.4851092 -0.20579162 -0.43016377 0.11986878 -0.28368616 0.50826484 0.6541136 -0.4991017 0.3515397 -0.16995534 -0.11103558 0.30781037 0.42922232 -0.13270628 -0.57010895 -0.18756114 -0.40398282 -0.2465265 -0.19730392 -0.51929367 0.399124 -0.17638746 0.4780979 0.059704654 -0.10585394
59 -0.013945841 -0.65819675 0.13573183 -0.065425895 -0.017351203 -0.45113266 0.27369204 0.14214201 -0.4936714 -0.36065045 0.43022376 0.15025476 0.31587675 -0.25075817 -0.321188 0.57131714 -0.25564474 -0.031696305 -0.5619808 -0.5302909 0.043159667 -0.11804078 -0.11257686 -0.36907858 -0.22964804 0.20950475 -0.05059709 0.71095604 0.051606297 -0.07150571 -0.17897922 0.37017432 0.42664206 0.4427765 0.121658035 0.39768577 -0.3712747 -0.043607984 -0.07501673 -0.045788355 -0.54635864 -0.023206105 0.1142862 0.28135723 -0.2626311 -0.07992107 -0.18863751 -0.30790308 0.61548036 -0.22561203 -0.15817404 -0.42839846 -0.22636105 0.3954291 0.35130453 0.47751984 -0.009456029 0.26827258 0.34324443 -0.32980588 -0.3290614 -0.18068808 -0.38353324 0.37455317
56 0.44064042 -0.21205215 0.34513822 0.25756606 0.3564912 -0.06542594 -0.34072754 -0.5343557 0.17958494 0.16436681 -0.5087109 0.23223464 0.506194 0.005128818 -0.38146555 0.35583824 -0.42149878 0.124515265 0.19926652 0.1316622 -0.46523246 -0.31088808 0.05992083 0.21937762 0.20088127 -0.026361886 0.10720037 -0.17163022 -0.26261556 -0.35661855 0.035487894 0.86107844 0.04203438 0.7869411 -0.3256407 -0.10979616 0.2583282 0.3010335 0.18434803 0.13710494 -0.018254474 -0.09491142 -0.19056514 -0.021477088 -0.14636894 0.6193714 -0.36466298 -0.37370527 0.097436465 -0.41880852 0.109628536 0.4045777 0.25124815 0.37555826 0.5722846 -0.06730573 -0.26403502 -0.12945186 -0.25770447 0.7021237 0.13405073 0.15103953 0.2150324 0.30291507
70 -0.14257602 -0.42989373 -0.09249576 0.28251487 -0.06442224 -0.38354293 0.035900418 -0.15771623 -0.22959477 -0.034364883 0.52786076 -0.23414746 0.19130813 -0.33544916 -0.38280663 0.074167244 0.19327033 0.6426763 -0.07935247 -0.02459405 -0.5313003 0.10980326 -0.4034264 0.37010437 0.5144746 0.14916484 -0.15816303 -0.13253829 -0.010545076 -0.17348595 -0.91364694 0.061318826 0.1411591 0.073233895 0.019927587 0.33465606 -0.25780958 -0.37939608 0.04316626 0.17569682 0.54493135 0.25631967 0.33612406 0.41936436 -0.20403098 0.4391845 -0.22901428 -0.07404834 0.4973937 -0.12725836 0.32639968 0.2541051 -0.11708186 -0.421002 0.3409463 -0.09673339 0.35699812 0.36571157 0.32063574 -1.0662683 -0.21189542 0.019797139 0.3299343 0.29632288
35 -0.9172281 0.12409926 0.34864205 -0.30328232 0.20257862 0.01345177 -0.5889842 -0.12649864 -0.12381664 0.3374566 -0.16240077 0.17839818 0.15454794 -0.16167632 0.35634872 0.46177027 0.03146443 0.16136658 -0.25841275 0.059720494 -0.123888075 0.35660502 0.112405434 0.07551709 -0.5653363 0.184775 0.21921085 0.23593591 0.38208222 0.06617622 -0.17265475 0.22571568 0.033603486 0.47894835 0.45375997 0.4871805 0.47501257 -0.34162822 -0.1385883 0.23945792 -0.7787354 -0.013258442 -0.5123967 -0.18851392 0.1054421 0.04292349 -0.21613364 -0.41575366 0.15412706 -0.37853664 0.35777926 0.049406316 -0.2228587 0.2426086 0.3253043 -0.3313964 -0.34089097 0.19465382 -0.5207232 0.11550279 -0.1989209 -0.16495454 -0.09936974 0.47363463
23 0.2835432 -0.21949159 0.21571259 0.34133404 0.15855074 -0.9425716 -0.1280617 0.3221734 -0.14605989 0.6864421 0.55165267 0.5774947 -0.04965557 -0.7966379 0.38248017 -0.34617123 -0.080389135 -0.18033691 -0.08397519 -0.054144356 0.043570537 -0.1514763 -0.38753012 0.20831795 0.12483072 -0.044248745 -0.39672595 -0.107845426 -0.1768055 -0.12161425 0.035006903 0.033139482 -0.38110128 -0.07081282 -0.3678571 0.03374292 0.14228196 0.3215797 0.17752764 0.11572134 -0.15603934 0.14978586 -0.3540931 0.42082086 -0.2633833 0.24373288 -0.50601494 -0.30318338 0.06816389 -0.47698498 0.4414548 0.1575173 -0.13557649 -0.4665513 0.24069619 0.565827 0.20848277 0.44122225 -0.12740053 -0.56683266 -0.20596327 -0.7710357 0.099368304 -0.10504377
4 -0.28625152 0.86291045 -0.110978015 0.16946213 -0.12457074 0.8901125 -0.66425985 -0.3923212 -0.1579958 -0.3295664 0.2670949 0.22871602 -0.37752125 0.015399963 -0.4220206 0.30821994 0.09134825 0.42247602 -0.19669701 -0.71619886 0.40283462 0.22242811 -0.5884001 0.1586566 -0.015341169 0.21277528 0.012792114 0.5231076 0.19842201 0.56060684 -0.12406859 0.116619594 -0.22170117 0.14288215 0.01313617 0.28999928 0.3212443 -0.24255665 0.014099351 0.13196434 0.13534246 -0.11159368 0.11147038 0.5623994 -0.0548277 0.058736075 -0.5888846 0.17627884 0.25919157 -0.15165268 -0.16931742 0.14288397 0.4258243 -0.51180017 0.3827926 -0.14680897 0.03614971 0.63761413 -0.3477676 -0.13394232 -0.35026884 -0.32563308 -0.5269904 0.27901888
37 0.2055267 -0.12105577 -0.27716535 0.10504436 0.03714812 0.43613812 0.02864213 -0.27374545 0.08479151 0.14223863 0.06077918 0.07924987 0.5745427 0.6299229 0.0036927778 0.08601113 -0.255872 1.0652136 0.3999593 -0.21451698 0.20261684 -0.004699076 0.13153048 -0.19011378 -0.4912266 -0.10594127 0.13615894 -0.09228342 -0.3298255 0.19947791 0.48117325 0.16669506 0.4972979 -0.052724577 0.096448176 -0.26082855 -0.115579456 -0.36487854 0.11935482 0.07611065 0.5315849 -0.0061924993 -0.44873455 0.06280509 0.54099756 0.12723552 -0.24667503 0.2937809 0.43885595 0.26694444 0.25915956 0.2150253 -0.2324899 0.12830572 -0.20786503 -0.31649694 0.079199255 0.101327166 -0.18778747 0.5885241 -0.091548935 0.8334924 0.16280615 -0.18939658
98 0.0006115283 -0.08924659 -0.07765991 0.28136858 -0.8776324 0.16108538 0.45480266 0.4704845 -0.28951207 0.22962464 0.34101743 0.17811497 -0.55411214 0.39588514 0.1587556 -0.30109608 0.48540357 -0.1635859 0.46480528 -0.2922665 -0.21593595 -0.17212635 -0.72219414 0.0022152306 0.5578611 0.41851187 0.09109691 0.29918998 -0.06327108 0.12830073 0.13629366 0.4606959 0.16101328 0.7024099 0.17192626 -0.45536655 0.5599821 0.0103864055 -0.14852725 0.25715443 -0.23221377 -0.43162152 -0.17984904 -0.24010648 -0.2944586 0.09078131 -0.32388967 0.24307601 0.27158517 0.10267828 -0.38261864 0.16296741 0.2045136 0.5262576 0.48759052 -0.32072833 -0.4192858 -0.14499824 -0.30999985 0.24385723 -0.097390205 0.16722873 -0.5440102 0.053424258
1 0.08021954 -0.111537896 0.17609018 -0.50160724 -0.41311112 -0.07329411 0.32090333 0.17292203 0.480319 0.46128252 -0.1421036 0.10567457 0.10135089 -0.571773 0.016455216 0.19631013 0.14792268 0.027050165 -0.50404644 -0.0023018704 0.14460048 -0.13397779 -0.179932 -0.11891152 0.53115153 0.54523206 0.22538297 0.35018978 0.1746981 0.022938073 0.44648713 0.09464484 0.18240753 0.60530114 -0.15559791 -0.52550465 -0.104607634 0.26247418 0.38432378 -0.07586919 -0.38772938 -0.07151661 0.0034397526 -0.400199 -0.35415182 0.51166785 -0.18915291 0.1638283 0.32013705 -0.058054622 -0.23041795 0.10976283 -0.48155028 -0.2472486 0.6118579 -0.17428115 -0.21543136 0.2714483 0.08812867 -0.2222041 -0.4841945 0.13649678 0.388868 -0.2307728
84 -0.2929819 0.20284952 0.16669999 0.24733719 0.23832452 0.09265143 -0.61665964 0.15867326 0.26874506 -0.1956752 0.18902448 0.063571885 -0.3727499 -0.14633694 -0.10161639 0.600342 -0.007855746 0.2713027 0.13080938 -0.21454974 -0.46258712 -0.0016435423 -0.0606519 0.1515535 -0.2128746 -0.04701254 0.4183872 0.13667046 -0.610843 -0.203421 -0.0713948 -0.19907206 -0.32000333 0.4465276 0.35266256 0.48580843 0.006624928 -0.04830344 -0.6418059 -0.019628126 0.21884939 0.53055906 -0.5172027 0.26690078 -0.036348082 0.4085352 -0.2404389 -0.6550493 -0.35106018 -0.010292164 0.20441197 0.6613081 -0.529494 -0.29104578 0.15980282 -0.5100445 -0.04501278 -0.1583576 -0.04700324 0.47342443 0.21766667 0.25773796 0.078166075 0.35091087
93 -0.35174766 -0.35882825 0.024449931 0.46203804 -0.19144467 0.56604624 0.447799 0.17142053 -0.34310725 0.5744529 -0.21052592 0.022333644 0.08789154 -0.20345773 0.71140283 0.21557625 0.588788 0.10807735 -0.12778616 0.1447316 0.39264685 -0.45731565 -0.19525701 -0.028722342 0.33728307 -0.019660719 -0.2092219 -0.804138 -0.21233404 -0.2054267 0.7116799 0.041214935 0.5689873 -0.087802164 0.21600316 0.018677205 -0.5573682 -0.2542584 -0.37621012 -0.445431 0.35082713 0.113355994 0.43819693 0.5069874 0.48657796 0.017177949 0.146056 -0.35975558 0.6846439 -0.38444316 -0.43817824 -0.18137914 -0.07876609 0.036223363 -0.28699812 -0.020784613 0.1112948 -0.29939637 -0.41064933 -0.33692273 0.049623884 0.14819472 -0.27040517 -0.3113403
80 -0.061120182 -0.2812998 0.36664566 0.49913144 -0.26423597 -0.035576366 0.2047834 0.17643589 -0.4800405 0.17202331 0.54866165 0.16010766 -0.5580376 0.1112197 -0.29059225 -0.24894063 0.17758456 0.20335563 0.75844026 0.040605742 0.19268817 0.07428027 -1.0487812 0.09697924 0.4949077 0.08702755 -0.13154528 -0.057336092 -0.4182401 0.2705882 -0.11179152 -0.36331362 -0.33118445 0.229041 0.16815294 0.047858275 -0.020643473 -0.12111625 -0.70182467 0.33911884 0.24845101 0.26967195 -0.081491515 0.2542709 -0.010743785 0.24896184 -0.41916052 -0.012017574 0.14456862 0.46912286 -0.5039007 0.41174573 -0.017460618 0.33597407 -0.36918423 -0.102151714 0.22698064 0.18178147 -0.5186395 0.52126455 0.19435696 0.0054931613 -0.44790566 0.48046887
67 -0.20179531 -0.07354175 -0.53427476 0.18237017 -0.28831378 0.114993185 -0.25284556 0.3240903 -0.0070443004 0.22728203 1.2185816 0.26669192 -0.14760643 -0.1908507 -0.3105615 0.41840094 0.05117134 0.6097228 0.38738775 0.026579257 0.34926865 -0.35122576 -0.15599331 -0.402851 0.21213143 -0.04344586 -0.03918693 0.26128417 -0.5352793 0.031022722 0.7777298 -0.049527846 -0.10854501 -0.02978088 0.5294537 -0.32121798 -0.4575708 0.08587823 -0.4552119 -0.4850291 -0.074115634 0.2117942 -0.73412406 0.4106533 -0.27635217 -0.7111415 0.22669308 -0.123422384 -0.27039686 0.11348944 -0.43248096 -0.055152796 0.05938031 -0.043697435 0.30184498 0.05436173 0.17906608 0.29754698 0.049077973 0.16591756 -0.040897712 0.42738935 -0.26978052 0.5209857
91 0.7547343 0.27300096 -0.38771936 0.45653257 -0.98626506 0.17072177 -0.045604985 -0.12660706 -0.13675937 0.66941184 0.029145347 -0.19987884 0.093261324 -0.004603635 0.31873554 0.15886942 0.39131802 -0.24597631 0.22331378 -0.49009314 -0.33885336 -0.1336973 -0.27653873 -0.095745735 0.3329191 0.040770013 0.61346215 0.09663085 0.11189967 0.0035811753 0.06708022 0.11654039 0.6586407 0.08703105 0.3027236 -0.26236257 -0.31129667 -0.3207092 0.3039226 0.2809445 -0.44138214 0.04379037 -0.012984676 0.39119178 -0.16573505 -0.10405113 -0.3430008 0.27408838 0.39609176 -0.47542349 -0.013932843 0.022827998 0.2691908 0.2555195 -0.06606726 -0.53555983 -0.5685233 0.20557643 -0.07626816 -0.0724236 0.028271707 0.22051127 -0.5152783 0.1935075
95 -0.22835676 -0.109697565 0.2944215 -0.6637719 -0.5981936 0.14428818 0.012213472 0.29889557 0.32380334 0.8309137 -0.014650774 -0.31881267 0.029825035 -0.67667496 -0.024388757 -0.39153597 0.4406207 -0.036943626 -0.22695042 0.4600382 0.96169394 -0.1891393 -0.5222729 -0.17856552 0.1645058 0.28631788 -0.56307346 0.0361896 -0.36215362 -0.73467267 0.7272637 -0.20773797 -0.111723706 0.31176788 -0.13512287 0.19992314 -0.24422851 0.024009945 -0.43399024 -0.13906346 0.36787233 0.23097603 -0.31614795 0.015936518 -0.24106656 0.30160716 -0.02897702 -0.34234613 0.3571377 -0.49484012 -0.27304536 0.22795841 -0.28477857 -0.30064848 0.17843542 -0.02416487 0.1242253 0.5933415 -0.1677828 -0.51868254 -0.11364805 -0.29156104 0.50876504 -0.007985189
3 0.023157889 -0.42617458 -0.47750697 0.34339595 0.20932728 -0.37855998 0.3420952 -0.055734143 0.006699669 0.055511117 0.37755498 0.5170526 -0.10991911 -0.47582114 0.3270032 0.31854388 0.5268709 0.043153375 -0.606834 0.21079324 -0.52764475 -0.10183636 -0.34646097 0.51180935 0.0503335 0.11101597 -0.25094062 -0.1348736 0.31595933 -0.35552466 -0.116229326 0.25444353 -0.12905005 0.119833484 -0.48090136 -0.08559347 -0.052136544 0.19698407 -0.01121615 -0.02571167 0.21784325 -0.061887987 0.21879119 0.25404394 0.027438466 0.18397811 -0.078932166 0.11241234 0.30947527 -0.23894276 -0.21593049 0.7985805 0.09297657 -0.5732545 -0.055061087 0.18588816 -0.08030894 -0.3500919 0.21231033 -0.31735316 -0.47030964 -0.08299483 0.32949454 -0.47202852
73 0.047285333 0.09427596 0.33807883 0.14795043 -0.2971776 0.2204535 -0.06316157 0.4378964 -0.46795025 0.76778805 0.17093371 0.10398293 -0.33563653 -0.9234693 -0.013772045 0.21271159 -0.094735354 0.12906957 -0.16164488 0.109144494 0.027489025 -0.18960883 -0.635164 0.17427185 0.47612518 -0.05974785 0.35925573 -0.033703472 0.08021479 0.1443154 0.14519174 -0.12460187 -0.111750945 0.00940471 0.359681 -0.18649772 -0.18777385 -0.09042417 0.3594528 -0.33427963 -0.10194702 0.49440378 0.23746529 0.7792884 -0.3880241 0.261209 -0.07785077 -0.117230356 0.3841281 -0.3749999 -0.20200816 0.026192073 -0.48021555 -0.41178313 -0.09901568 0.329895 -0.08096952 0.5198582 0.030784475 -0.33272165 -0.75476366 -0.10130012 -0.43445173 0.036254965
97 -0.39870846 -0.05506941 -0.14678977 0.44669098 -0.0642717 0.057877365 0.15355648 0.30957627 0.28428468 0.50128263 -0.3145026 0.55113864 0.40681952 -0.29366016 0.6394708 0.6343185 0.32003084 -0.058653355 0.43692774 0.5093764 -0.23304667 -0.808666 -0.06781527 0.28357723 -0.59554243 0.110923134 -0.60882753 -0.24839488 0.17604911 0.019020367 0.19496165 0.058992323 0.6361571 -0.5085024 0.22498697 0.04638165 0.17848182 0.24081936 -0.75377256 0.07511254 0.16659856 0.12422161 0.19246116 0.09896348 0.10016092 -0.10397545 -0.18828604 -0.35547084 0.24096462 -0.3611109 0.048583172 -0.29759777 -0.17959516 -0.023157634 0.16530529 -0.091040954 -0.27703008 -0.94492203 -0.17691135 -0.11796886 0.18811865 -0.41405952 0.11137985 -0.3294055
51 0.27598882 -0.45795885 -0.49798784 -0.4960282 0.17901623 -0.39180845 -0.20202431 -0.18669793 0.3626713 -0.21788064 0.09219403 0.26980764 0.17178506 0.3712929 -0.47581092 0.4121862 -0.12256189 0.2007229 0.118417524 -0.005659767 0.5453507 0.23161657 -0.24781227 0.17203513 -0.56693053 0.34571686 -0.69263256 0.21031779 -0.095664255 -0.07442519 0.27580482 -0.24976097 -0.23661934 -0.07216873 -0.34128973 0.24072573 0.090801604 0.4667778 -0.3610582 0.53268087 0.17478108 -0.36664334 -0.34695488 -0.04680294 0.39240912 0.039849274 -0.39620557 0.14971077 -0.061324466 0.117866725 -0.05892287 0.627149 0.08026636 0.2712593 -0.41873607 0.10968089 -0.13014503 0.5057079 -0.72281855 0.62855226 0.067175806 -0.0014163263 0.5835656 0.28072345
94 -0.3784253 -0.75368947 -0.54887414 0.31982565 0.4337262 -0.60462445 0.18194824 -0.77372366 -0.1171117 -0.3400355 0.85081404 0.4604504 0.023992702 0.025845407 -0.14320256 0.4191569 0.1545168 0.6761187 0.15307344 -0.021982595 0.054254573 0.13720813 -0.09297056 0.3080549 -0.045195043 -0.08870246 -0.3462428 0.01084743 0.18471996 0.19875848 -0.02377117 0.53626204 -0.046303403 0.028674597 0.35182017 -0.14579381 0.5033902 0.17368494 -0.25604704 0.15376808 -0.5644646 -0.23645312 0.17024375 0.06418729 0.77086264 -0.1942603 -0.388192 0.16257827 -0.42807367 0.087160446 -0.26149616 0.20061041 0.47819635 -0.065921836 0.3515599 0.27542797 0.51629084 0.29729718 -0.37968725 0.041821856 0.12667781 0.17534764 0.29650044 0.2990282
58 -0.41259083 -0.19419068 -0.08625003 -0.19350126 0.47355035 0.14935948 -0.63308066 -0.21367152 0.10615381 -0.23448382 0.2531674 0.45515445 -0.13740668 -0.26501706 -0.35546803 0.119594075 0.19784777 0.18172699 -0.38297054 0.26706862 0.700348 0.035719518 -0.24016833 -0.15992469 0.19866447 0.1975744 -0.5203095 0.39760444 -0.20665948 0.0774358 0.69520795 0.055422187 -0.2080271 0.39269915 -0.19296746 0.13487619 -0.22066054 0.2656527 -0.46342167 -0.5463323 0.5149136 0.16922389 -0.07404702 0.18407872 -0.03461803 0.1676414 -0.01273897 -0.30944902 -0.063114576 0.1260012 -0.79088235 0.63399935 0.02230779 -0.23524801 0.40404776 0.35798553 -0.05015702 0.46680346 -0.24108198 0.10799357 -0.17608961 0.005941478 -0.3171419 -0.22999829
72 0.55728984 -0.08189194 0.37413797 0.54666287 -0.22294827 -0.63619584 -0.21976964 -0.26281083 0.17131338 0.18440129 -0.15279922 -0.018950108 0.78376883 0.44065663 -0.048377268 0.17578506 -0.16346939 0.5335481 0.32756203 -0.6432424 -0.72542816 -0.22039913 0.21067686 -0.015172386 0.18571264 -0.029070951 0.41247603 0.16019644 -0.329792 -0.27563208 -0.6274682 0.17931855 0.37310988 -0.11123425 -0.19716159 0.17936328 0.12061475 -0.6782231 -0.030234758 0.54316837 0.4772778 0.4870257 -0.3983411 0.22655542 -0.11972153 0.23145345 -0.48650706 -0.15500815 0.07960214 -0.32838053 0.5013033 0.074333616 0.12324207 0.14985308 0.3261472 -0.55568975 -0.19567433 0.12720011 0.4638984 -0.02374922 -0.42323694 0.15149465 0.32051507 0.33220303
11 0.6063791 0.0044401707 0.15692423 -0.021578183 0.13987187 -0.2412577 -0.12120071 0.44395527 0.949461 -0.25896138 0.034504157 0.65703523 -0.38855183 -0.7293523 -0.3579688 0.051907092 -0.21257386 0.38820735 -0.24930881 -0.34013307 -0.23003347 0.3991559 -0.3166112 0.005191812 0.7275263 0.32666016 -0.5246533 0.09639059 -0.15593818 -0.1494818 0.16880919 -0.3934103 -0.32305872 0.10111024 -0.3331229 -0.51831394 -0.51189744 0.6316141 -0.020639509 0.2669813 -0.49184087 -0.091574185 0.19147216 0.18904203 0.0022478297 0.28988454 -0.46277663 0.1737201 0.12439129 0.20855519 -0.3518228 -0.15152986 0.13367435 -0.10503872 0.7366276 -0.06488344 -0.30006614 0.5515651 0.13149826 -0.19685587 -0.25745383 -0.22440366 0.22659773 -0.33894762
81 -0.34823748 -0.46294188 -0.5588838 0.23695315 0.19340296 -0.24130242 0.052331246 0.1217588 0.25713196 0.25381544 0.037988536 0.5951029 0.12729251 -0.73690903 0.6796401 -0.18658228 0.40804386 0.14204891 -0.39311934 0.87116146 -0.5083064 -0.17398755 -0.2156666 0.23051748 0.35293493 -0.14098771 0.08183631 -0.15842196 -0.08961634 -0.5935895 0.14972968 0.118795216 0.14748323 -0.14108814 -0.04252758 -0.22391738 0.006688692 -0.18677016 -0.2941864 -0.62702703 0.06559451 -0.0031216794 -0.09033851 -0.07380191 0.24618986 0.49875888 0.3101967 -0.4739248 -0.18621927 -0.15787031 0.096116506 0.35078004 -0.6452219 -0.18541026 0.45389315 -0.39635438 -0.15422529 -0.516992 0.36581713 0.009946405 0.003277023 -0.16279522 -0.16781713 -0.1470307
46 -0.17018452 0.008103961 0.7614816 -0.25312313 -0.33657503 0.19352943 -0.32278746 0.037989974 0.22118379 0.018831722 -0.4371274 -0.055803236 0.40637764 0.6684936 0.018959895 0.30332205 -0.1458965 0.31769714 0.24024177 -0.34055716 0.30804357 -0.044229884 -0.29854682 0.026693227 0.46495456 0.68727475 -0.37513304 -0.049503002 0.041867904 0.17021017 0.05735105 0.5329792 0.20588075 0.36666766 0.2067275 0.07979937 0.040611725 -0.39536804 -0.17270239 0.4340714 0.52651745 -0.16777591 0.15961644 -0.26314393 0.069478564 0.1864653 -0.018659981 0.14957838 0.20988692 0.010169642 0.17090821 -0.039623372 -0.015403591 0.66133386 0.5725901 -0.36880508 -0.7863616 0.092931226 -0.63486755 -0.0064623356 -0.3641992 0.54801655 -0.021229569 0.26247662
53 0.54361457 -0.12406034 0.42480668 -0.114055865 -0.03942769 0.3775743 -0.20593429 -0.4142195 0.03971961 0.64363253 -0.3831957 0.06547924 0.28818387 -0.08909258 -0.3831297 0.039538108 -0.45537856 0.096623264 0.04303716 0.36565718 -0.2419703 -0.1280513 -0.3638876 0.13927749 0.51002246 -0.12022616 0.51855135 0.38324142 -0.017721662 -0.08098495 0.28666967 0.5765203 0.45702603 0.1702393 -0.19732292 -0.36278468 0.43037218 -0.35673684 0.40161267 -0.5281609 0.1850321 -0.28680953 0.09191444 -0.061406206 0.103809886 0.34411156 0.14511052 0.09845288 0.54705155 -0.4116736 -0.66438186 0.2102911 -0.35711128 0.34264114 0.7339028 0.11137813 0.13611558 0.98158723 0.27893224 0.28970593 -0.015421656 -0.057061285 -0.34285256 0.09319161
69 -0.5978775 -0.3009217 -0.20876168 0.4008422 0.6785296 -0.2505213 -0.6788745 -0.9006884 -0.24987268 -0.13005376 0.5645769 0.12153197 -0.24344496 -0.024036083 -0.32266015 0.78662485 0.21638992 0.31289756 0.19948895 0.0065981583 -0.31091118 -0.22690098 -0.115163594 0.5055791 -0.35290155 0.545051 0.2484249 -0.22065349 0.060891807 -0.4111171 -0.103728436 0.5638414 0.49464285 0.9712165 -0.095245965 0.087779954 0.31161392 0.4201459 0.010881368 -0.057859283 -0.4574827 0.0118314745 0.041156452 -0.059782516 0.06091842 -0.7080581 0.10203806 0.1431177 0.08520066 -0.36111227 -0.48252955 0.21886717 -0.086459935 -0.28236333 0.38778007 -0.48921943 -0.2547586 0.20885074 -0.02406933 -0.16973917 0.293924 0.40637028 0.10839585 0.1932753
9 0.017941127 -0.08345615 -0.2519478 -0.10645222 0.051846895 -0.3758633 -0.07199746 0.06369795 -0.37652278 0.63252723 0.42053977 -0.25682217 0.31368458 -0.22945578 0.30122373 -0.70811456 0.34386897 0.08242849 -0.1580726 0.37070593 0.3353858 0.11555433 -0.6673722 0.09066023 -0.5590824 0.10187126 -0.47156882 -0.110105015 -0.20302467 -0.37169778 0.17329583 0.35820624 0.49509415 0.40431055 -0.2932459 -0.22597347 0.64869684 0.097901456 0.4958799 0.048751608 -0.29224658 -0.3425567 -0.4627763 -0.4308034 -0.65548635 0.36091635 -0.2212112 0.07426021 -0.070992984 -0.61554843 0.38738406 0.18736567 -0.32527217 -0.18597952 0.024785548 -0.21114314 -0.49455714 0.36679345 -0.19017941 0.6103764 -0.3414393 -0.22856738 0.22481959 0.0034577241
99 0.8959531 0.059345093 -0.4359013 0.23168717 0.113613605 -0.13858904 -0.092550874 -0.59946704 -0.23146899 0.24957839 0.39094678 0.45257556 0.7333835 -0.29841113 0.33649364 0.14490359 0.117920235 -0.06788616 -0.17325126 0.4823877 0.4269985 -0.09956494 -0.26604372 0.033236317 -0.68143046 -0.78016317 -0.09186566 0.15201442 -0.16225421 0.33669838 0.18811011 -0.08382725 0.4611805 -0.15422182 -0.30105162 -0.43241203 -0.46034798 0.023115342 0.38298184 -0.4228723 0.3864554 -0.08959328 0.019727739 0.47343966 0.14810905 0.07400342 0.17685853 -0.17066492 -0.08647333 -0.50447625 -0.7280703 0.061346665 -0.018587293 0.102741174 -0.1283356 0.1460189 -0.4129896 0.47366324 0.0443116 0.85135293 -0.2804113 0.05943758 0.219389 -0.4043176
31 0.28494942 -0.16522549 -0.036727346 0.36600047 0.890448 -0.7653371 -0.51490927 -0.5145457 -0.044769153 -0.21442455 0.10120823 0.10492323 -0.10061563 0.15036413 0.049779274 0.4631832 -0.33239874 0.33064494 -0.43641558 -0.7715622 -0.10983494 -0.13374713 -0.066995196 0.05820515 -0.54069245 0.3254967 0.22459579 0.05615352 -0.267534 -0.18677042 0.017193738 0.22363468 0.18251248 0.63478893 -0.30666646 0.25174648 -0.08124484 0.25400543 0.5093924 0.2660842 -0.11820495 0.21825178 -0.14457679 0.051288575 0.21661122 0.23522013 -0.34728807 0.24173422 0.2736593 -0.027865145 0.44525027 0.32074213 -0.54228026 -0.5795965 -0.042210694 0.057236087 -0.18651725 0.1911273 -0.22516051 -0.021309575 -0.1819967 0.27331346 0.10367198 -0.5807501
18 0.49983898 0.16253373 -0.5967293 0.17800395 -0.38269377 0.072310336 -0.13132027 -0.29352206 0.5600542 0.2912227 0.46762145 0.23605771 0.12910101 -0.5116809 0.41984493 -0.10542895 0.1243892 -0.203639 0.30351615 0.26293364 -0.6412065 0.023444207 -0.46658966 -0.24666685 -0.040153075 -0.15238827 0.5893792 0.4942074 -0.11193766 0.14034584 0.3880513 0.2621492 -0.07853176 -0.06330664 0.019239908 -0.2525803 0.36556876 -0.50726104 -0.23211978 -0.029963966 -0.8349637 -0.19613017 -0.48638564 0.069469325 0.14285587 -0.14249416 -0.24197666 0.32913578 0.1656834 -0.14123663 0.17577858 0.23899107 0.6443779 -0.26464903 1.0650264 -0.35927433 0.13645111 -0.10669513 0.24484017 0.26431662 -0.1406688 -0.33558658 -0.4996917 0.062227394
28 0.27821928 -0.34001553 -0.060008533 -0.010394097 -0.16427332 0.14558223 0.26684552 -0.10261465 0.7170476 -0.07418394 -0.20255597 0.026264299 0.23230413 -0.099956244 -0.36618495 0.1902191 -0.041753694 0.89700776 -0.2532524 -0.20288149 0.36023805 -0.09689263 -0.24505031 -0.17735808 -0.16224767 -0.14836717 -0.048106555 0.15655592 -0.4224069 -0.23035297 0.65955883 0.5098697 0.6089281 -0.012997062 -0.40918198 -0.025538353 -0.02219948 0.18437672 0.14515162 -0.47043654 0.3574541 0.31619206 -0.019072292 0.115509346 0.44090828 0.07210412 -0.32683423 0.28799102 0.30376044 0.25143936 -0.46176344 0.1673996 0.056449737 0.1392698 0.3227881 -0.1175519 -0.07833404 0.2798197 0.15218492 0.041225024 0.10601588 0.35747433 0.37992716 -0.58695245
41 0.4252669 -0.5564171 0.1896151 0.054269943 -0.09812093 -0.4475764 0.0800106 0.47032934 -0.62939906 -0.0008715825 0.57942355 0.33661 -0.17921709 0.34359953 0.2200474 -0.38648862 -0.22105664 -0.5321494 0.1655869 0.052449413 -0.31151587 -0.02468819 -0.6269601 0.16832308 0.449676 -0.08279846 0.1863874 0.06007178 -0.48974082 0.08363818 -0.11282287 -0.20897338 -0.40515393 -0.107263826 0.5468123 -0.13394383 -0.117610134 -0.2899117 -0.08054463 -0.2796383 0.5727905 -0.17534503 -0.39137992 0.62264806 0.7360128 0.45634055 0.13846034 -0.28431723 0.53508765 0.39431944 0.47951344 0.5190113 -0.8774709 0.23291244 0.11076675 0.11645327 0.13650763 0.024190221 -0.0024469267 0.18226653 -0.21954492 -0.023264924 -0.38712978 -0.26454222
40 -0.05718991 0.68622726 -0.45564067 -0.34645095 -0.60381925 0.65423054 -0.4023244 0.26696295 0.4539169 0.78279716 -0.21245596 0.36035898 0.53467655 0.4795691 0.100810565 0.056164645 0.06308646 -0.093349785 0.1273848 0.47881877 -0.4607221 0.06578833 -0.5728107 0.14913934 0.30348295 -0.04338904 0.04539163 0.070478246 0.21983708 0.25950027 0.016593553 -0.25808817 0.46284062 -0.4344049 -0.049085382 -0.39366683 0.057813812 -0.74935573 -0.09279213 -0.16729528 0.583296 -0.4753754 -0.3849108 0.07621033 -0.1830707 -0.29839924 0.21612433 0.47672105 0.26257446 -0.39378342 -0.06677591 0.4618697 -0.09743985 0.109340005 0.16546278 -0.7020874 -0.7844727 0.3022372 -0.013733767 0.35717937 0.34962523 0.074625574 -0.25124252 0.24628739
33 0.29843497 -0.40260315 -0.1536474 -0.045416687 0.34044394 -0.123108834 0.079462856 -0.18286575 0.1933096 -0.11622073 0.6936963 0.18375063 0.41368207 -0.38450843 0.58674645 0.35841897 -0.08194137 0.15685926 0.13259892 0.09994382 -0.20960702 0.094445646 0.10965906 0.10293437 -0.87258613 -0.4221046 0.011992609 -0.11031312 -0.04083713 0.30330992 0.04434701 -0.13756779 0.24192421 -0.5334766 0.4394176 -0.08884268 -0.22327816 -0.5419206 -0.21933532 -0.41984186 0.10607972 -0.08088016 -0.47179067 0.5685979 0.9394803 -0.040212467 0.6140313 -0.44366553 -0.0043115434 0.14319949 -0.23255625 -0.31352758 -0.019029094 0.449526 0.62892944 -0.024585053 -0.09263026 0.3613542 -0.032084078 0.32343954 -0.5055641 -0.13457423 0.2319291 -0.3347349
36 0.3297395 0.36193645 0.32105687 -0.21135582 0.13815348 0.32319432 -0.8848928 -0.35741323 0.20840096 0.23381625 -0.13285607 -0.26387477 0.18309863 -0.25418454 -0.35061905 0.3721738 -0.16458221 -0.083735965 0.30037048 -0.25877342 0.034845527 -0.05473475 -0.1691471 -0.21404117 -0.9371527 0.05973619 -0.078583814 0.39608508 -0.22111145 0.27196905 0.14752717 -0.14073884 0.58124524 -0.1386508 0.07628887 0.501806 -0.4179462 0.0679332 0.13900316 0.059501365 0.1028549 0.54361224 -0.33429193 0.25229305 0.46175498 0.13231558 -0.6220458 -0.52378863 0.8963295 -0.16327143 0.33715463 -0.027051052 -0.13563496 -0.57138586 0.046126887 0.025277471 0.30323538 0.6998722 -0.13181104 -0.11213732 -0.117899105 -0.41347963 0.14244473 -0.38528922
13 0.23373659 -0.03256079 -0.253045 0.030897895 -0.36723986 0.37226608 -0.10368644 -0.55950993 0.48990363 0.22963011 0.7702277 -0.12992653 -0.42077327 -0.3997765 -0.8605779 0.3638395 0.23957977 0.25955674 0.36572963 0.09856107 -0.28510326 0.40188187 -0.73754644 0.055344574 0.23441407 -0.20390375 0.010109041 -0.0068937712 -0.13920943 0.55553985 0.005381451 0.46173316 0.015030305 0.010618978 0.017065112 -0.41269782 -0.058162827 0.15397952 0.015050117 -0.1862389 -0.37737536 0.2196321 -0.027410574 0.08438371 0.36374778 0.08210162 -0.39108166 0.38752988 0.26013187 0.43030766 -0.75776654 0.49246722 1.0636308 -0.39858907 0.6591526 -0.13719098 0.5077544 0.51875365 -0.4799472 0.16425967 0.13170893 -0.15067808 0.12135957 0.12226037
16 0.49726728 -0.093172796 -0.08907109 0.24420713 0.19191012 0.14128326 0.25775114 0.34555522 0.09276483 -0.2930905 0.20266718 0.25487784 -0.37010148 -0.30306292 -0.25287473 -0.0035624069 -0.032559894 0.40078738 0.5596018 -0.47061625 -0.13655779 -0.3909879 -0.8537424 0.22896245 0.12155308 0.5064084 0.3308919 0.591236 0.26363114 -0.22383605 -0.32568267 -0.13767195 0.13380453 0.3545932 0.4336953 -0.24612772 0.23657894 -0.2435562 -0.15866727 0.5726685 -0.47089797 -0.484763 -0.24958111 0.5094264 -0.364227 -0.08830414 -0.47772568 0.28606588 -0.26485026 -0.16324693 -0.33636463 -0.66519624 0.074193984 0.19660363 0.37251812 0.049174808 -0.31089815 0.65338254 0.25068372 0.23478591 0.022790072 0.09768288 -0.19260426 0.028975945
27 -0.26113254 0.1517139 0.10021256 -0.6930308 0.09378472 -0.18461218 -0.57325226 0.42377076 0.5924501 0.16608065 -0.020615289 0.17078678 0.57858706 0.10711174 -0.34404898 0.7055061 -0.43169245 0.37710187 -0.16968466 -0.41862854 0.1256915 -0.37062663 0.067837514 -0.48963127 0.17072453 0.19609971 -0.5956993 0.1072329 -0.016774114 0.13542917 0.6253752 -0.19126655 -0.13494414 0.10948186 0.22098322 -0.12407718 -0.9161649 -0.027963763 -0.3675884 0.12981944 0.1932727 0.28250825 -0.5101779 0.12907533 -0.64186263 -0.22307028 0.320215 0.14215095 0.21411453 -0.07738268 0.30483836 -0.20175812 -0.18002716 0.41163093 0.57010704 0.1756679 -0.64179236 0.20203692 -0.2564643 0.19853339 -0.17954636 0.34564015 0.25565216 0.27436405
63 0.8168273 -0.07033773 -0.4078139 0.26830852 0.59366715 -0.17339516 -0.12784661 -0.17060429 -0.07281215 0.124490686 0.10246717 0.15482955 0.4461075 -0.37157685 0.52182883 0.29937688 0.14454933 0.027102118 0.14428271 -0.58120304 -0.20494208 0.10112191 0.048777986 -0.17221208 -0.68638307 -0.1277975 0.16206414 0.2266715 -0.30337116 0.3850493 0.46968022 -0.24232203 0.6944949 -0.1572517 0.42912772 -0.43461296 -0.65577376 0.021283772 -0.089477055 0.19647893 -0.64539933 0.26125756 -0.13000031 0.22389688 0.1340989 0.28325564 0.022823635 -0.09792647 0.36802694 -0.51472497 0.47843167 -0.14585094 -0.16998191 -0.21584664 -0.070437744 0.33739996 0.17483544 -0.17286807 0.08149291 0.84754145 0.08755293 0.43144163 -0.51059973 -0.3589371
47 -0.14754555 -0.44702834 0.3534416 0.2626385 0.47046885 -0.7565597 0.15444337 -0.14355116 -0.20555976 0.563665 -0.1403296 0.38342693 0.7291954 -0.1479796 -0.34652942 -0.16972058 0.010580168 0.74279135 -0.31257576 0.100651994 0.021810401 -0.40119198 0.054627083 -0.16896915 0.2446027 -0.2677684 -0.2723075 -0.35413355 -0.11330742 -0.12672286 0.009226816 0.22150345 0.4034926 0.33832556 -0.7122583 -0.6934265 -0.25608665 0.2956573 0.1554478 -0.1251008 -0.2752199 0.6945864 -0.20368402 -0.0025759789 -0.6605898 0.45304382 -0.25462314 -0.22393303 -0.024940599 -0.1443906 -0.41160992 -0.2019141 -0.18284333 0.44054425 -0.23189676 -0.051774517 -0.6774198 0.036398493 0.012425025 0.80491894 -0.6122794 -0.060456526 0.4713232 0.18384701
82 -0.2520311 0.16940427 0.018358963 0.394086 -0.093453325 -0.069468744 0.23744763 -0.28318247 -0.35899583 -0.08303189 0.31306833 0.19367293 0.4470742 0.07823841 -0.24380293 0.10573165 -0.16924465 0.6344183 0.09113979 -0.2955516 -0.4514573 -0.7133914 0.12124814 0.07598096 -0.06152797 -0.16368994 -0.13984792 0.06356605 -0.21558502 0.46639135 0.063243546 -0.27371353 0.4122906 -0.18807244 0.031716272 -0.30236483 0.36352792 0.12437619 -0.6883838 -0.19923425 0.29927412 0.85738796 0.18754135 0.41159344 0.08714628 0.2096343 0.24972467 -0.12551434 0.8214201 0.3783419 -0.026096938 0.18661684 -0.37579745 -0.11399576 0.52750134 -0.372035 0.26379392 -0.35378596 0.27147496 -0.09126715 -0.69428945 -0.13668711 -0.3583219 -0.5502918
34 0.33161315 -0.3918584 -0.36139452 0.29670885 0.27741352 -0.33841726 -0.17274506 0.18050848 -0.2999127 -0.28871834 0.45172817 0.0061143497 0.15394792 0.37520984 0.0017740857 -0.6703373 0.10707318 0.19165367 -0.22637062 -0.3005116 -0.2787688 0.1393813 -0.62228966 -0.18866846 0.753905 0.15935487 -0.5221868 -0.27414513 -0.26208553 -0.1856811 -0.108816564 0.3029972 -0.21030629 0.56025416 -0.017662773 -0.50779307 -0.6900588 -0.35358924 0.120490395 0.026388787 0.46850032 -0.17681555 0.045556583 0.33677977 -0.4185531 0.67272806 0.029021317 0.20014833 0.2364285 -0.072033316 0.55388427 0.24846908 -0.1935331 0.42251912 0.1852649 0.12371507 -0.51198715 0.110022835 0.08698364 0.28771767 -0.3970585 0.5338222 -0.19368845 -0.030200765
92 -0.25711575 -0.24340418 0.31413957 0.008970627 -0.59881 -0.19433807 -0.20594011 0.3036357 -0.09097842 0.34605798 -0.024821712 -0.5834713 -0.4374252 0.14944485 -0.23965341 0.6363966 0.13891907 0.1948612 -0.6367091 -0.46628082 0.09886655 -0.032221954 -0.367661 -0.19527072 0.24838144 0.60355014 0.060999036 0.40897486 0.30114225 0.1167113 0.19096601 0.4421867 0.54448247 0.17113511 -0.30264777 0.5260058 0.3201388 -0.04706943 0.51133233 -0.0558208 -0.34355113 0.016680121 0.13412505 -0.4819774 -0.19631791 0.0940392 -0.530472 -0.024477705 1.021167 -0.014551045 0.20951532 0.15416183 -0.45051754 -0.23457572 -0.16301952 -0.32876506 -0.16011389 0.2271647 -0.2635128 -0.55452126 -0.7090995 -0.16584711 -0.3218541 0.13574196
21 -0.27139392 -0.5998949 -0.3141392 -0.019882107 0.23034598 -0.7840512 -0.59874994 -0.6273287 -0.5997208 -0.11803536 0.1089907 0.074553765 0.6921935 0.07359602 0.25545126 0.52428746 0.04702696 0.26971844 -0.8852596 0.31117448 0.639988 0.23097384 0.2665656 -0.13821559 -0.10708925 0.14680989 -0.09800327 0.5285116 0.020162892 -0.026597606 0.3017136 0.1655732 0.23650236 -0.16745192 0.060504075 0.9273346 0.12029153 -0.24947983 0.13036868 -0.17722003 0.069633946 -0.18313056 0.2702042 -0.037891123 0.40487832 0.08979032 -0.11796293 -0.2271358 0.4307471 -0.4398393 0.8082443 0.6316077 -0.7949207 -0.4258086 -0.18506439 0.0595766 0.20906919 -0.1450645 -0.150161 -0.37836474 -0.5180996 0.10301536 -0.592515 0.35087395
22 0.016635459 -0.05649827 0.38735017 0.20325781 -0.032102462 -0.23278834 0.26121283 0.19846918 0.32172734 0.06348145 0.4549607 0.3124771 0.17415395 0.08793367 -0.18407442 0.59474444 -0.2842975 0.36983246 -0.10442467 0.2341393 0.15611432 -0.5878762 -0.21698287 -0.34463218 -0.4013293 0.14281832 -0.25262967 0.31596145 -0.4135841 0.0602695 0.36165112 0.3004345 0.3662334 0.4084187 0.06610111 0.022122215 -0.06821346 0.2524039 -0.119917266 -0.098750845 -0.6069159 -0.15107574 -0.49788168 -0.34301025 0.30220917 -0.18279241 -0.08812715 -0.34272918 0.031336434 0.61073357 -0.39783967 -0.31814843 0.08107231 0.32192355 0.7562565 -0.06237716 0.042794287 -0.1583202 -0.45256025 0.5105261 0.549454 0.20846786 0.22429155 -0.16177408
6 -0.02568621 -0.47589442 0.2706275 -0.1995757 0.08137833 -0.7853841 -0.1460926 0.3989815 0.42855114 0.58440524 0.34475142 0.418178 0.5110883 0.024935355 0.18176696 0.67541474 -0.16812466 0.31605217 -0.04705918 0.3756429 0.12224882 0.30356967 -0.12092297 -0.18070725 0.48123688 -0.11208773 -0.20801856 0.014658367 -0.12981124 0.36365622 0.43901503 -0.18334602 -0.509681 -0.014277981 -0.16387722 0.27086258 -0.2510553 -0.20560138 -0.37228656 0.10929708 0.16735964 -0.07646704 -0.47141728 -0.356472 -0.7107435 -0.020021066 -0.042400975 -0.10066853 -0.77150816 -0.12845632 -0.3182481 0.67383146 -0.27236184 0.6034781 -0.07307268 0.11559116 -0.28873876 0.50639766 -0.43255597 0.7657526 0.16415584 0.21648657 0.3654085 1.1801631
55 -0.47447917 -0.360549 0.42156205 -0.16770522 0.15225503 -0.013227302 0.12061846 -0.14762622 -0.16871655 0.7032898 -0.15943335 -0.5011078 0.18189318 -0.6179074 0.40454626 0.39975476 0.02811956 -0.013850242 -0.013734846 0.39960903 -0.078549646 -0.0819681 -0.7132242 0.56219053 0.55786103 0.25807956 -0.10706364 -1.1322637 0.31286985 -0.053964913 0.24643263 0.15399644 -0.11926403 0.008420267 0.36857685 0.29319575 0.031954568 -0.18673177 -0.34102073 0.17590187 -0.1825707 0.20334187 0.8920714 0.016807636 -0.08057019 0.34429076 0.19979028 0.22970563 0.5889624 -0.7204483 0.40835822 0.3236827 -0.59292376 -0.3103121 -0.08460665 -0.106745794 0.21919322 0.30382553 -0.6728619 -0.71120924 -0.5926957 -0.18774311 -0.15024328 0.31579474
8 0.15241224 -0.43050578 0.6083859 0.11510331 0.33825764 0.28941917 -0.46076417 -0.050214954 0.36276132 0.345626 -0.13860698 -0.30955207 -0.45875192 0.20347069 -0.10515265 0.03693777 0.09861802 -0.26521796 0.26804182 0.3215194 -0.23353939 0.028321067 -0.8362414 0.089246355 -0.23623396 -0.1593077 -0.25386772 -0.24858776 0.15172698 0.11839551 -0.08697404 1.0011243 -0.0936319 0.6110591 -0.21973896 0.18964288 0.2884919 -0.6055603 0.12957548 0.24271682 -0.22523278 -0.6182497 -0.052726436 -0.17879064 0.31833646 0.5505767 -0.8573297 0.0014011875 0.20598757 -0.15245365 -0.10493868 0.07740465 0.51931334 0.37284467 0.22346812 0.15233716 -0.22831762 0.34900734 -0.9964236 0.52304184 0.1476603 -0.38329762 0.41100022 0.13812646
43 -0.069044046 0.14000565 -0.34172028 -0.29907486 -0.43650317 -0.3281036 0.37921596 -0.21639645 0.56584877 0.13610193 -0.47624293 0.3808263 0.68995214 -0.039284304 0.4713802 -0.39985105 0.026939193 0.5022473 -0.28453395 -0.076778755 -0.02463102 0.3538921 -0.24696729 -0.5153112 0.45743796 -0.081574135 0.21276769 0.056281995 -0.21109529 -0.345768 0.6508179 0.20589803 0.04305317 -0.67575955 -0.08584857 0.16025689 0.53005725 -0.70141035 -0.27431056 0.48480788 -0.5334896 -0.118714616 -0.019224074 -0.55195844 0.031217378 0.56125623 -0.5497568 0.2567417 0.16397357 -0.2506604 0.6262311 0.08326307 -0.028260494 -0.06791784 0.87898934 -0.6658624 0.45632905 0.037721504 0.42060187 0.24880289 -0.40591356 0.009421749 -0.6068795 0.3810878
71 -0.62649506 -0.4392049 0.21971509 0.13342017 0.2631426 0.38999635 -0.095025904 0.6804303 0.5621484 0.39220333 0.025990676 0.4708861 -0.21286373 -0.2963308 0.51369846 -0.2699786 0.3416532 0.044962883 0.7518122 -0.1858199 -0.55403674 -0.06663266 -0.24858432 0.20867583 0.18379928 0.20074075 -0.03730121 -0.26377746 -0.4145203 -0.10457519 0.7684154 0.42726722 -0.104439266 -0.017985582 0.15556929 -0.39664868 0.46353912 -0.23314506 -1.0629369 -0.049509075 0.54610336 0.6179132 -0.037681364 0.057827953 -0.1509263 0.4468124 -0.42945018 -0.3023898 0.189208 -0.053053938 0.07598882 0.505057 -0.18831529 -0.27979782 0.68422544 0.31471816 0.59262836 -0.32935637 0.16723159 -0.17959128 -0.107779354 -0.31907138 -0.28054965 -0.3282712
44 0.30936792 0.22619504 -0.3124663 0.30287263 -0.06547909 0.023648098 -0.049820628 -0.41163635 -0.06805326 0.14435293 0.42767978 0.4596088 -0.31580526 0.5165586 -0.2183225 -0.299105 -0.17868653 -0.32216963 0.50415313 0.35409236 -0.60200346 -0.33883876 -0.7271318 0.46285668 -0.11812944 -0.25801095 -0.16352442 -0.30394942 -0.25030166 0.36790276 -0.51760167 -0.55783737 -0.15789892 0.043392852 -0.14193927 -0.7230584 0.26966012 -0.017960595 -0.08858698 0.04057708 -0.018346883 -0.37631574 -0.23794945 0.39646393 0.8826178 -0.075300716 0.15078732 0.46753734 0.637082 0.37782988 -0.21630587 0.08903396 -0.07872037 -0.029935531 0.28732005 -0.8077606 -0.5240781 -0.18883535 -0.44217744 0.46073443 -0.09483858 -0.3093994 0.3394971 -0.5137979
52 -0.27636576 -0.18772493 -0.30087447 -0.057394985 -0.68572927 0.29988116 0.014660513 0.24520285 -0.60563564 0.5082662 0.67282504 0.19811665 0.24203154 0.19284557 0.28564006 0.23513784 0.46475384 -0.075959094 0.32431698 0.7859836 0.3850082 -0.106694385 -0.33595237 0.039314236 -0.15798065 0.032141898 -0.3246828 0.007827868 0.15249816 0.39564082 0.1858734 0.07734948 0.5982497 -0.24193418 0.5230849 0.08239624 -0.104935475 -0.0816268 0.013634047 -0.29944402 0.26692843 -0.5809427 0.048220545 0.21419385 0.25027648 -0.5166776 0.00886978 -0.22723286 0.44075456 -0.0726341 -0.35329542 -0.053483766 -0.34695426 0.339081 -0.2127594 -0.185086 -0.1473552 0.2708647 -0.4874393 -0.27311632 -0.13429095 -0.04109012 -0.29375482 0.16609927
85 0.02429685 -0.14408009 0.6141529 0.23760138 -0.36672387 -0.49149507 0.073502965 0.15508816 -0.080756314 0.12067819 -0.47183812 0.3816036 -0.60472035 0.45145637 -0.22311725 -0.08343762 0.31368968 -0.06445933 0.18004678 -0.84971327 0.13916826 0.2690905 -0.4765474 -0.2576238 0.5619834 0.14551833 -0.073648736 0.26019615 -0.031340778 0.27064964 0.09357149 -0.41177246 -0.20183544 -0.23765513 -0.20902134 -0.039680257 0.3854615 0.12975152 -0.44744724 0.68426627 -0.4038395 0.41866454 -0.08546832 0.019010203 0.2288085 0.29174894 -1.2159739 -0.047739405 0.5004243 0.18467215 -0.40092888 0.14290461 -0.052205194 0.4388232 -0.65778637 -0.39383215 0.0020968737 0.3607238 -0.15721834 0.57909554 -0.75893366 -0.5424793 -0.22022103 0.1375019
10 0.56087875 0.53027266 -0.26588508 0.26733774 -0.48742104 0.18354854 0.12335463 -0.49883106 -0.267065 0.08600675 0.51450104 -0.09489389 -0.044324797 -0.28866538 -0.5885413 -0.12500201 -0.24671155 0.31387612 0.14403966 0.17227554 -0.23777507 -0.23836236 -0.2647027 -0.048106026 -0.07057479 -0.37525785 0.36501116 0.29522523 -0.46665034 0.46202207 -0.29849106 -0.6127751 0.1118383 0.29335406 0.12738393 -0.309553 0.423603 0.20216982 0.277515 -0.20033588 -0.5663599 0.023958255 -0.49320078 0.47956887 0.3191104 0.068398304 -0.27738786 0.17778052 0.33587763 0.14916003 -0.12748148 0.123707846 0.12837513 -0.6260739 0.47394046 -0.89338064 -0.13542348 0.26987293 -0.06332767 0.36129448 -0.49164897 -0.07999301 0.17667614 -0.26648757
89 -0.14612752 -0.01330177 -0.23843426 -0.30267984 0.08624948 0.38057244 0.38679966 0.44861934 0.033128623 0.2082812 -0.060596395 0.3428095 0.08404855 -0.0314523 0.4251984 -0.19021557 0.1370274 -0.14167988 -0.126683 -0.28679466 -0.02805095 0.0039066933 -0.5864283 0.20479186 0.24555685 0.599834 -0.47254694 -0.6450873 0.11971531 -0.04494302 0.39487198 0.46718484 0.28007862 0.3377742 0.17037371 -0.4124463 -0.16368063 9.7420576e-05 0.07822166 0.3142029 -0.0003117578 -0.7136394 0.58694035 -0.124580756 -0.18141392 0.29381308 -0.24361813 0.60701853 0.483866 -0.36106315 0.1189307 -0.17091513 -0.16635631 -0.18060555 0.8240092 0.30653384 -0.19684124 0.38132614 -0.23546214 -0.5408788 0.17355137 0.20950893 -0.10014762 -0.3202794
15 0.28883183 -0.28882024 0.30242094 0.8409648 0.28266096 0.006904638 -0.07060943 -0.38637272 -0.43979135 0.13692886 0.025621902 -0.26995045 -0.31102082 -0.5919103 -0.070590146 -0.24513121 0.309839 0.37705842 0.27102274 -0.27572986 -0.05871542 0.09235634 -0.43290994 -0.0728724 0.2603505 -0.45814338 -0.21913613 -0.4400773 -0.51934457 -0.0123657985 -0.35635898 -0.06319911 0.2654676 0.093996026 0.22881751 -0.080778226 -0.37289885 -0.11043931 0.14677754 -0.07082685 0.14970541 0.66773504 0.08968753 0.5591731 0.39317286 0.74857605 -0.65147305 -0.4977532 0.047785718 -0.4682494 -0.2241594 -0.08765048 0.17550954 -0.8080587 -0.193553 -0.05260678 0.08598256 0.24271505 0.08963264 0.13382591 -0.28074166 0.14210892 0.41093215 -0.35400164
79 -0.6089717 0.266028 -0.3595177 -0.28632277 0.03212464 0.3111581 0.27999 -0.13990662 -0.36161506 -0.36111113 0.26868907 0.66099006 0.1749378 -0.27774096 -0.36625347 0.8051232 -0.22374669 0.38795957 -0.032311182 0.29241586 -0.3270921 -0.18877256 -0.43011016 0.6738955 0.13055597 0.35701054 -0.34757057 -0.15579781 0.41870612 0.06467072 -0.24719478 0.33513138 0.07143535 -0.09046966 0.6836709 -0.048978094 0.19113559 0.4483549 -0.3686443 0.0023265798 -0.2758825 -0.43857586 0.37820438 0.32751217 0.087085664 -0.17553061 0.40060022 0.018242601 0.22785096 -0.25778183 0.05025363 0.06713071 -0.34093067 0.0215863 0.62767524 0.07232909 0.14007209 0.17639995 0.22446093 -0.11889831 0.057799302 0.38962668 -0.18097107 0.42202014
88 -0.14256871 -0.13127463 -0.274994 0.04962871 -0.23315538 -0.4295613 0.31867677 0.14214836 0.22763701 0.7023345 0.14573318 0.0139358705 0.041562133 -0.015296684 0.46143934 0.7049551 0.50094134 -0.38558608 -0.5169543 -0.021838957 -0.48111433 0.12589695 -0.33856335 -0.28822166 0.23715451 0.027968846 0.21021675 -0.28705445 0.08477081 0.46681613 -0.03898336 -0.7326165 0.4984472 0.1252029 -0.32339174 0.022245208 -0.71913296 -0.36231375 0.16814817 0.047613498 -0.6666389 -0.045725044 0.05935295 -0.27577528 -0.19490753 -0.1512222 -0.120237954 0.39535207 0.24572411 -0.17995246 -0.45316687 0.21000674 -0.2551092 -0.3409218 -0.5311706 -0.70769554 -0.50398743 -0.054506253 -0.4294816 0.21329707 0.032842975 -0.004242593 0.3017948 0.25039193
96 0.20579714 -0.19974633 -0.64452773 0.33187827 0.24738705 0.16376507 0.27105746 -0.3645313 -0.24227811 -0.43976814 -0.10856531 0.08843386 -0.019015854 0.09906399 0.54043376 0.39916444 0.2803216 0.24082343 -0.5086724 -0.8296815 0.39045978 -0.18241057 -0.029880509 0.26588178 0.22114615 0.017636932 -0.20673846 0.053599667 0.024922403 -0.12620868 0.1544385 0.27975968 0.06437744 0.23994283 0.67845875 -0.24344456 -0.6766579 -0.36633703 0.075452805 0.25720537 0.470292 -0.41271254 0.73649013 0.35842028 0.5146519 1.0376678 -0.03670151 -0.0048111524 -0.12073365 -0.43495858 0.11549757 -0.03493208 -0.28364098 -0.4037784 0.29957548 0.68690485 0.10186028 0.043103423 -0.14812462 -0.15078194 -0.007795546 0.8191563 0.22122271 -0.17479053
12 0.100662254 -0.5237106 -1.1644258 0.14403602 -0.32474947 -0.54023194 0.48098114 -0.28690547 -0.8468138 0.3278372 0.5614152 0.3087843 0.48018557 0.6729808 0.026833517 0.15235892 0.514819 0.06978795 -0.10163639 -0.5449357 0.37090978 0.069642305 0.27461013 0.39069822 -0.4178872 0.14190204 -0.25196016 0.2145209 -0.2997071 0.12507485 -0.22276942 -0.62789255 0.7039228 -0.40191397 0.20703967 -0.1020192 0.14585969 -0.01508719 0.035272624 0.17962301 0.64477324 -0.22240081 -0.13408735 0.32645905 0.45420253 -0.12751327 -0.13597395 0.24356487 0.14429858 -0.2933055 -0.01591425 0.5895638 -0.22379355 -0.47200456 -0.54901433 0.13211544 0.20700997 0.31251168 -0.020771129 -0.16318989 0.23825233 0.31835443 0.48541418 0.18022338
19 -0.07542992 0.10744375 0.3022116 0.8938121 0.20388646 -0.0026493305 -0.5884358 -0.15586066 0.075058356 0.245933 -0.4653132 -0.043124497 -0.33486032 0.5225196 -0.096661605 1.2350458 0.13358629 0.44508797 -0.68569154 -0.56762207 0.11114555 -0.2373953 -0.087984964 -0.4726397 0.24097751 0.028752081 0.08644158 -0.07846862 -0.21619546 0.1916287 0.14446858 -0.222284 0.5117051 0.18278128 -0.10574482 0.66060483 -1.1933788 -0.40431514 0.26873088 0.055473585 -0.18500601 0.2188287 0.15688425 0.07606203 0.08783259 0.10100435 -0.5395573 0.019131636 0.496391 0.034011707 0.07556303 0.056819703 -0.373714 -0.4360722 -0.7337477 -0.41159737 -0.21748671 -0.5461331 -0.54317415 0.36407113 0.69934815 0.70566785 -0.22410107 0.35964394
76 -0.30835313 -0.7805928 -0.4611147 -0.34181258 -0.042746097 -0.022519475 0.40001163 -0.052033845 -0.13406126 0.21213865 -0.27268803 0.18958902 0.40534317 -0.09114095 0.36812192 0.096814856 0.37003595 0.2585576 -0.60688114 -0.008980326 0.21541588 0.23079279 0.04318719 -0.014973518 0.07419012 0.24464953 0.4532901 0.19252841 0.011716242 0.07573736 0.6753493 -0.27975526 0.35393858 -0.32817405 -0.403276 0.32525283 0.42551807 -0.61280584 -0.37075236 -0.4393653 0.5253509 0.19182344 -0.25811493 -0.1086297 0.5352759 0.22620752 0.15919286 -0.41187254 0.2555535 0.021687197 -0.48671475 0.81505173 -0.263841 -0.06931137 -0.16558225 -0.2378282 0.09435364 0.02668467 0.11398805 0.36681375 -0.1948689 0.14699176 -0.39001817 0.033937857
7 0.06470876 0.18167213 -0.19034827 0.25912762 -0.018985558 0.14198716 0.24252509 -0.048533406 0.14275052 0.056313183 -0.302365 -0.19305065 -0.052460697 0.07087867 -0.15389064 0.7043172 -0.35938558 0.47028455 -0.4827251 -0.24338031 -0.96095 -0.52438295 -0.12415525 -0.04351182 0.30446047 -0.35013375 0.32492605 -0.06046424 -0.06661922 -0.29473072 -0.20996985 -0.12025175 0.43461955 0.50801337 0.54270506 -0.17312458 -0.39452514 -0.39498883 0.03941113 -0.047632486 -0.8371912 -0.18428625 -0.061716594 0.028042665 0.3462595 0.09405083 0.35445845 0.010383917 0.19416817 -0.41516793 0.09857153 -0.30024925 -0.2861401 0.06304797 0.42460346 -0.43435293 -0.32251742 0.11420477 0.01233084 0.29498053 0.5672607 0.7023232 0.293019 0.13543287
20 0.32087338 0.22135918 -0.40541726 0.28747487 0.07021528 0.18931687 -0.030657265 -0.24264024 0.028785145 0.45039076 -0.045841426 0.32421368 0.74475384 -0.39478365 0.28294525 0.15055111 -0.014773882 0.41822916 -0.031308625 -0.2104071 0.35599133 -0.123002715 -0.7509455 0.007676081 0.034187607 0.014918722 -0.26758042 -0.39993 0.40667483 0.36077476 0.19625749 0.06563561 0.60407406 -0.52166444 -0.7718027 -0.039935596 -0.20954114 -0.25096032 0.17991455 0.07855274 -0.023812277 -0.07119425 0.5817466 0.40291166 -0.92094463 -0.2305485 -0.069828376 0.56645566 0.3611787 -0.6820337 -0.33246636 -0.5583442 0.33417916 0.4554815 -0.24618481 -0.20783421 -0.55019784 0.61113936 -0.35394132 0.07471771 -0.57443273 -0.6170431 -0.84554374 0.3904689
77 0.31172147 0.59747386 0.3917247 0.4018738 0.5727499 0.23797904 0.44435394 -0.033516534 -0.023153447 -0.17883871 -0.3584672 0.015374565 -0.074019365 -0.6083747 0.09112781 0.4696828 -0.6353087 0.27775863 -0.47616675 -0.22201292 -0.08652116 -0.97605556 -0.9980872 0.59768474 -0.60128015 -0.06900584 0.48451933 0.15260883 -0.1349164 -0.2955628 -0.5821995 -0.23185644 0.013778018 0.13177197 0.25819224 0.548012 0.64914 -0.33494172 0.05523159 -0.008857421 -0.15046915 -0.08999206 -0.07826971 0.49227315 -0.015820349 0.7420356 0.30130085 -0.17098041 -0.348274 -0.36135775 0.26091293 -0.41037062 -0.80848217 -0.27755642 0.35025734 -0.19266613 -0.23872212 0.14152949 -0.29832253 0.44463727 -0.25699762 -0.4111237 -0.031845197 -0.28540966
66 -0.00590654 0.3401758 0.6314234 -0.56776565 0.29515502 -0.06750012 0.41449794 0.25828215 0.22666916 0.06291817 -0.1243164 0.1024661 -0.29154107 -0.34035096 -0.5235716 -0.31168535 -0.5969426 0.22751117 -0.17045045 0.061666753 -0.30873716 -0.22717606 -1.1192055 0.50786006 -0.17983672 0.26544023 -0.48354867 -0.36995158 0.039153293 -0.3196954 -0.38279215 -0.11051314 -0.12853055 -0.011171533 -0.1388059 -0.10097879 0.56945926 0.08199337 -0.19598183 0.37674087 -0.36523065 -0.14873922 -0.09947294 -0.10902106 0.32369024 0.4768033 0.13445947 0.10247127 0.60149527 0.18750814 -0.15000312 -0.28718618 -0.33903223 -0.01941629 0.81151503 -0.1720824 -0.070766136 0.8742318 -0.07395101 -0.027535975 -0.36298722 -0.4687318 0.34787592 -0.5491966
74 -0.12763731 -0.13369471 0.18021725 -0.89439535 0.242366 0.34356263 -0.04667622 0.4337811 0.14263816 0.013555354 -0.5873899 0.12503463 0.12686732 -0.0530203 -0.40255103 0.32283384 -0.20024382 -0.33253056 -0.8063857 0.6075505 -0.33195603 0.23034376 -0.6031109 0.11194764 -0.19153649 -0.10793085 0.0710813 0.5534411 0.21026611 0.050379667 0.29092926 0.14178813 0.40695792 -0.035868037 0.1796674 0.32562515 0.18178484 -0.06632426 -0.113098286 -0.44017136 -0.33769387 -0.52438265 0.05404185 -0.38850403 0.4348204 0.6610505 0.022237938 -0.5450504 0.6062906 -0.107456826 -0.1251854 0.50329196 -0.99474376 0.41093472 0.01306842 0.08676443 0.06665648 0.5596602 -0.07562693 0.6729931 0.3902297 -0.29415083 -0.42402104 0.00021596748
68 0.06821483 -0.009897178 0.3253871 -0.34953254 -0.8745321 -0.17476216 0.18515818 0.3689627 -0.12140845 -0.15686692 -0.1998243 0.3112509 0.522468 0.20159838 -0.036077604 -0.12645932 -0.11526595 0.2554941 0.35313126 -0.2661472 0.6810593 -0.39344764 -0.28735375 0.021890683 -0.3611289 0.35045928 -0.2873179 0.7535308 -0.11904704 -0.37373057 0.035634838 0.12217233 0.26715106 -0.41546473 0.59520185 0.41785136 0.82447857 -0.0645463 -0.4906563 0.635832 0.26487646 -0.20609227 -0.13098127 0.38524464 0.313919 5.465703e-05 -0.5505881 -0.19867739 0.31523848 -0.25119543 0.7449443 -0.49035826 -0.2325651 0.2231494 0.52603674 -0.09546997 -0.067206345 -0.084956974 -0.04319202 -0.5377435 -0.6195322 -0.3091734 -0.26493615 -0.094135776
5 0.19770893 -0.54262537 -0.5323079 -0.30505705 0.5478553 -0.481707 -0.13328108 0.14495043 0.42487445 -0.66846466 0.010560977 0.682581 0.6907713 -0.10707151 -0.5089873 0.2550679 -0.14185983 0.16219115 -0.8972792 0.10074988 -0.90488595 0.4601433 0.10853006 -0.1387188 0.46668747 -0.4281689 -0.47397244 0.56795025 0.037985224 0.43372977 -0.87993294 0.093750544 -0.23803133 -0.06907899 -0.09061365 0.23541892 -0.77631307 -0.50937754 -0.050674558 -0.11923778 0.27838475 -0.48384655 -0.033568732 0.1876542 0.22779045 1.0617149 -0.24787095 -0.5367165 0.04586238 0.22708206 0.5255217 0.31392464 0.0047031986 0.50107807 0.6250195 0.41282952 0.083751015 0.15052254 0.061120905 0.0024805155 0.17580315 -0.36467642 0.2987511 0.52188677
48 0.28088358 -0.31616148 0.62643516 0.27019727 -0.14209276 0.032884188 0.2240922 0.31647107 -0.44978213 -0.110600814 -0.15358835 0.23755142 -0.22473432 0.022655897 -0.24890561 -0.03219012 -0.27242273 0.346072 -0.44751114 -0.83509195 0.21168932 -0.25688142 -0.060962662 -0.21633676 -0.4113468 -0.28997532 0.13995637 0.40378428 -0.2152675 -0.1316366 0.13785921 0.5460725 0.6878953 0.11032097 0.39281607 0.27221942 -0.030289082 0.20190148 0.41063014 -0.16940397 -0.6156829 0.07145948 -0.37267265 0.65299875 1.0368824 0.18155132 -0.9249923 -0.6600931 0.7961485 0.020055417 0.41512415 -0.5422161 -0.16371843 -0.11584096 -0.0673653 0.25461742 0.1201793 0.05472182 -0.14786904 -0.3536135 0.13414684 -0.09583977 -0.25508028 -0.6949314
17 0.07353636 0.32449037 0.10881843 0.5595908 0.056037605 -0.24640162 0.2384326 0.10587863 -0.20873329 -0.5262242 0.08980539 0.64568686 -0.77536017 -0.08027271 -0.07706028 0.5759426 -0.116181895 0.32172668 -0.68754214 -0.46123382 0.2442564 -0.46123105 -1.099132 0.50618404 0.15493383 0.34896076 -0.0148704415 0.57081723 0.481174 0.3131887 -0.21390773 -0.1137302 0.32208025 -0.042227358 -0.029623218 0.2283545 0.2634481 0.2449064 -0.1679643 0.14199845 -0.76887715 -0.37851045 0.54161185 0.117947176 0.2232896 0.081461184 -0.040799934 0.09560577 -0.040510938 0.32791284 -0.38417852 -0.18932712 -0.54942477 -0.006312113 0.057045665 -0.15582839 -0.4836163 -0.09240987 -0.36732092 0.20490804 0.60080373 0.056982595 -1.042705 -0.17373413
45 -0.10877871 -0.16413082 -0.2557719 0.10110949 -0.5805287 0.27609047 -0.33889496 0.2525601 -0.12949511 0.12828174 -0.09086816 -0.28071997 -0.26273355 0.14679003 -0.2155776 0.1098313 0.23914589 -0.03741801 0.100028686 -0.18270475 -0.5544654 0.14606273 -0.43277335 0.029344562 1.1516646 0.31097677 0.3233903 -0.013316278 -0.33197537 0.040816333 -0.2831258 -0.47402123 0.6383905 0.2779921 0.47250795 -0.01698956 -0.39380708 -0.33130106 0.05884766 -0.51417834 0.847286 0.15859964 0.23296334 0.2853636 0.02415288 -0.0489125 0.034159366 0.17961054 0.40120262 -0.26349363 -0.20746078 0.42998055 -0.7434358 -0.21305591 0.3066803 -0.62861526 -0.40171927 0.6449904 0.5280782 -0.63659304 0.4289671 0.6165452 -0.06328158 -0.017104965
39 0.19912612 -0.71615666 -0.0006864709 -0.42203265 -0.13432352 0.10910509 0.0012016731 -0.04254335 0.2412468 0.2647732 -0.26973966 -0.65398633 0.3154357 0.330218 -0.0012960619 0.3138669 -0.030296331 -0.56271756 0.6066623 0.2641402 -0.6772923 -0.09379211 -0.09760949 -0.0956938 0.26071462 0.10612533 -0.22937533 -0.29977456 -0.3007054 -0.3843382 0.36857 0.5125219 0.58223206 0.670324 0.5785804 0.07212967 -0.009199356 -0.1357658 -0.11861853 0.2493458 -0.20698328 -0.7254629 0.11468945 -0.6969525 0.45681968 0.030602962 -0.23162942 -0.19558802 0.5559858 -0.67204016 0.15244941 -0.035013903 -0.0067049535 0.5388753 0.7371762 -0.008047581 0.23234431 0.7123305 -0.41671267 -0.0020806626 0.4180528 0.045754936 0.5661661 0.2646388
75 -0.21240953 -0.1722197 -0.013973566 -0.17971852 -0.051950533 -0.23162995 -0.27125356 0.6470056 0.49318984 0.2340455 0.031110995 0.7703218 0.11924874 -0.16931292 0.18603429 0.27128235 0.1837204 -0.6721651 0.2740826 0.4049445 -0.48305672 0.15953611 -0.1477329 -0.21417245 -0.19442862 -0.2529706 -0.72252107 0.007828974 -0.19909436 0.64033365 -0.35666397 -0.34248194 -0.28977928 -0.1135382 0.09252452 0.11800883 -0.3610188 -0.13972205 -0.51121354 0.035824463 0.18219855 -0.14690913 -0.5701692 0.31851637 0.09749006 0.074477695 -0.47206658 -0.5227882 0.05173979 0.07374906 -0.24592419 -0.05455441 0.38211134 0.4232857 0.5438879 0.10983371 -0.4903679 -0.12065567 -0.35877898 0.09691243 0.09772234 -0.6770075 0.593775 -0.010680633
86 0.15438674 0.07287304 -0.7837723 -0.6709544 -0.45036232 0.4077829 0.51236653 0.040659506 -0.22141209 -0.027478136 0.31490645 -0.28881636 0.6774393 -0.05411577 -0.15508439 -0.37107462 -0.048639745 0.37353176 -0.4406125 0.14849128 1.0351565 -0.7010016 -0.24344899 -0.45084384 -0.75021964 0.024966998 -0.6401443 0.7318093 -0.27703583 -0.3165312 0.33425626 -0.1510081 0.119249605 0.49036813 0.15380691 0.1368764 -0.35924536 -0.5352201 -0.08816535 0.099850215 0.28062594 -0.62568396 -0.76145864 0.31430408 -0.071717985 0.37753516 0.25982004 -0.10093251 0.29416683 -0.27197945 0.4771147 -0.28343284 0.12753801 -0.19964135 0.36397946 0.40750822 -0.1377444 0.22742948 -0.29168946 0.10906737 -0.38283914 0.34157863 0.5043248 -0.084112555
83 -0.51109 0.4439302 -0.20393674 0.20515232 0.31665584 0.1244027 -0.1184646 0.18030973 -0.02247219 0.30082163 -0.14880717 0.87899333 0.2531832 0.05410266 0.72712654 0.16452728 -0.1174633 0.3055673 -0.17353263 -0.52590865 0.6260859 0.105337776 -0.14765091 0.096472114 0.030526895 0.30246204 -0.46726608 -0.30644575 -0.12625332 0.03614277 0.13108437 -0.0001879306 0.21418275 -0.036199138 0.26917562 -0.053443287 0.12629817 0.013927323 -0.1764672 0.21840344 -0.46392158 -0.5621004 -0.14251761 0.020261455 -0.30145252 -0.027834542 -0.2908485 0.22632198 -0.49887854 -0.7791208 0.3797485 -0.5599356 -0.18670721 0.03294351 0.36829132 0.007330725 -0.25286847 0.3328134 -0.5374191 0.21213531 0.5382939 0.15930931 -0.23340486 0.5027066
60 0.059940394 0.0070181177 0.0016151912 -0.728127 0.12519592 0.8387057 0.07795352 -0.26445448 0.59542376 0.190477 -0.9778856 -0.06193829 0.21974286 0.0001830005 -0.38554692 0.54727536 -0.27644023 0.22626159 0.1372568 -0.3450141 -0.24745908 0.052927013 0.25677568 0.17058867 0.19334795 0.093019895 -0.044947308 -0.29962236 -0.07145029 -0.07932717 0.48747015 -0.21940885 -0.16597752 0.287133 0.24228483 -0.363688 -0.0058610747 0.021386202 -0.7021603 0.28275195 -0.0451525 -0.0012273209 0.034048527 0.09198584 0.6409901 0.40523684 0.018060893 0.13725924 0.5543972 -0.5112041 -0.37342817 0.2931348 0.12814811 0.23602077 0.20145033 -0.0812078 0.10105436 0.5454294 -0.36598358 0.44510028 -0.31354225 0.2707676 0.5963226 0.04236747
50 -0.27912265 -0.16109982 0.41027653 0.42803183 -0.09094192 -0.31972975 0.46658662 0.05645617 0.16428822 0.20439813 -0.11663969 -0.01415371 0.4781119 -0.577401 0.016019456 -0.11765357 0.12514551 0.9840735 -0.17954884 0.552649 -0.07001865 -0.28514078 -0.5220651 0.046873532 -0.2758179 -0.15061723 -0.24265352 0.00445332 -0.1197164 -0.62710476 -0.08673246 0.5928926 0.86541444 0.1083927 0.07435374 0.4471932 0.42237788 0.077768356 -0.10898627 0.08432006 -0.758296 0.26765803 0.04393381 -0.29159278 -0.37102324 0.3065752 -0.54497254 -0.43968087 -0.31670374 -0.112947136 0.2501445 -0.35248765 -0.26669925 0.086354755 0.40498528 -0.400238 -0.14696194 0.012993557 0.19561301 0.06265429 0.29137108 -0.14920093 0.10708962 0.30922076
90 -0.22912847 0.09481078 0.19321638 -0.047353655 -0.0682328 0.34868708 -0.11437942 0.25565112 -0.14767407 0.25333577 -0.15086837 0.3558412 0.16253053 0.5232659 0.27805907 -0.48915538 -0.04162888 0.050993185 -0.04791481 0.02490538 0.80947995 -0.41444016 -0.36971274 0.07033056 -0.44166934 0.055621423 -0.988607 -0.5845292 -0.35248554 -0.2591509 0.483522 0.21287528 0.33070713 0.13304937 -0.084518835 -0.13602687 -0.32335794 -0.2015107 -0.120566666 0.21505561 0.4326226 -0.4482548 0.07062544 0.50133634 0.37407854 0.028267127 -0.4273555 0.0879454 0.49592313 -0.29329175 0.30297765 -0.448279 -0.039794154 -0.2245239 0.16726471 0.25081748 -0.43129194 0.106762074 -0.49278075 -0.3376941 -0.039259143 0.1677485 0.35013214 -0.5477675
38 -0.24213116 0.047640815 0.09345282 -0.33403584 -0.25811577 0.48127753 0.2400993 -0.13672937 -0.5090459 0.36861017 -0.19889331 0.248312 0.18127818 -0.06357445 0.10283454 -0.37607265 0.0349628 0.57453835 0.6777156 -0.046759184 0.18538854 0.54383904 -0.11784665 0.6249194 0.24158326 0.06144961 -0.26838866 -0.19704556 0.07973733 0.2315426 -0.06689763 -0.34532347 0.023515413 -0.699147 0.5073859 -0.40015808 0.81000704 -0.14024024 -0.7527595 0.12950811 0.597861 0.0947436 0.162102 0.5622765 0.50259626 0.3511956 -0.07668685 -0.117579825 0.56224495 -0.44300383 -0.45927924 0.17434506 -0.46890253 0.3779964 0.11689467 0.10361307 0.5448117 1.1811826 0.52326554 -0.06638658 -0.6499639 0.014281193 0.2268033 0.07851829
49 0.7097553 -0.6415836 0.31531182 0.045042682 -0.6313925 -0.2864759 0.47726917 0.522465 0.19451144 0.25880826 -0.3285074 -0.4712563 -0.8264601 -0.33715832 -0.030012945 0.9251283 -0.07903236 -0.32073858 0.017251877 -0.6005586 -0.13024503 -0.3712905 -0.47640797 0.22435318 -0.09636228 0.4351402 0.63028544 0.21591492 -0.32548782 -0.03766264 0.23786329 -0.5686112 0.47492272 0.28637385 0.008741667 0.31121776 0.05750588 0.4529756 -0.0738261 -0.063777454 -0.09005311 0.5211715 0.14189903 0.023652919 0.62814367 0.030247359 0.086092606 -0.21657275 0.5485814 0.17316715 -0.78654927 0.21562386 -0.7708199 0.2115535 -0.49316496 -0.31343672 -0.43511868 0.33095354 -0.36508474 -0.21606128 -0.15483083 0.029371949 0.15298435 -0.5065029
78 -0.2706425 -0.64250124 -0.9753042 0.20531197 -0.62425786 -0.55285114 0.40739703 -0.14695269 -0.5384535 -0.29281285 0.4435859 0.20478994 -0.2789363 -0.06590263 -0.16442019 0.18540247 0.61655676 0.18118218 -0.41337815 -0.26399544 0.21748154 -0.0067820447 0.041441448 -0.083154 0.0905518 0.29869515 -0.6783809 0.54595584 0.52139324 0.34716016 -0.072982475 -0.16676922 0.3660668 -0.2917456 0.2186415 -0.23826906 0.3852229 0.41345957 -0.066994414 0.04150299 -0.9389708 -0.23626754 0.20261681 0.3711473 0.5148058 -0.08955603 -0.48014703 -0.17645808 0.57835996 0.109350786 0.016483134 -0.35339537 0.4511916 -0.2247023 0.053864967 -0.13897277 -0.2708561 -0.3429317 -0.10881659 -0.34125486 -0.7482288 -0.41948622 -0.10082679 -0.040421885
42 -0.48737586 0.020981004 -0.38126406 0.32045975 0.23849218 0.3050778 -0.46316826 -0.029258536 -0.412478 0.11613694 -0.19194774 0.8936755 0.033632208 -0.17396283 0.690738 -0.16516042 0.5930686 0.044268914 0.38103878 0.22086664 -0.007257116 0.2880325 0.2722847 -0.02799739 -0.68379426 0.099803105 -0.07915081 -0.07809377 -0.081067465 0.20896214 0.16462685 -0.11360486 0.23764023 0.46390408 -0.22011824 -0.11897988 0.15299562 0.30942342 -0.51670074 -0.041566838 0.25385448 0.20110054 -0.6057216 0.28699863 -0.13979545 -0.039401304 -0.51687753 -0.5857219 -0.02306551 -0.4937282 -0.39698145 0.3357886 -0.031182624 0.10629463 -0.3501968 -0.4298203 -0.8510403 -0.3388473 0.14237832 0.65871817 -0.333333 0.17935808 -0.09140194 -0.2376063
87 -0.23999375 -0.00047111764 -0.68631315 -0.23002434 -0.39719078 0.31618935 0.19292717 0.34941104 0.20880456 0.45727152 -0.51917565 0.9501278 0.19468366 0.44089755 0.7137348 -0.008227336 0.48278692 -0.4475267 -0.7918645 0.082939595 0.48730525 -0.48417687 0.093085006 -0.32495686 -0.4832955 -0.09980233 -0.13518018 0.37769377 -0.136376 -0.15277788 0.9519381 -0.13792759 0.51405084 0.041228827 0.04479846 -0.40554252 -0.55250996 -0.10558693 -0.19760847 -0.52185565 0.050728258 -0.16884227 -0.6320003 0.23882693 0.74922127 -0.04026719 0.0948512 -0.25285515 0.15295616 -0.13307656 -0.05991573 0.24107674 -0.21145172 -0.1401727 -0.19298798 0.10283201 -0.71557957 -0.71031094 -0.28721732 0.54669225 0.5323016 0.501062 -0.08382677 -0.71924794
0 -0.1790842 -0.5024753 0.4573633 0.29940054 0.5199581 0.62578183 0.049387664 -0.3938393 0.042703968 0.5507933 -0.5154468 -0.031311423 0.5429965 0.6297701 0.3676564 -0.47087517 0.044404242 0.350875 0.6040982 0.48576415 0.1944384 -0.20622927 -0.6189725 0.3666742 -0.40474775 0.09568611 0.06618083 -0.6710366 -0.1175163 -0.081793875 0.17623048 0.8962522 0.41564417 0.39283863 -0.40087828 -0.148663 0.5525837 -0.7920837 0.10877334 -0.027248478 1.2033807 -0.16673866 -0.016634304 -0.3943365 0.24303208 0.9723238 -0.21664965 -0.1632935 0.26863667 0.16182074 -0.187109 0.2738337 -0.28083998 0.91961616 0.033156376 -0.15343417 -0.059842013 0.18102662 -0.81684434 0.858421 -0.077145696 -0.10186452 0.051325396 -0.072873
54 0.005486593 0.00026985924 0.19941795 0.15924293 0.11735894 -0.82206696 -0.09818139 0.072491154 -0.31041065 -0.018227035 0.57063127 0.50826174 0.16541523 0.06471746 -0.2905645 0.37797457 -0.4645762 0.17795053 0.3655654 -0.6869335 0.39148167 -0.42427024 -0.034932323 0.28442997 -0.35387495 0.35239366 -0.2658673 -0.0921242 -0.42814347 0.00033279153 -0.30320397 -0.7421927 -0.5794688 0.2421036 -0.5385266 0.12832756 0.14599477 0.487688 -0.22928904 0.5400847 0.46406978 0.44383776 -0.73700356 0.6728002 -0.52762693 -0.10502566 -0.26554576 -0.07540786 0.052361235 0.112101115 -0.039599672 0.01328178 -0.17927985 0.14549969 -0.17472786 -0.17703497 -0.55887765 0.049528547 -0.35686427 0.29759312 -1.0364585 -0.3669402 0.5984228 0.3141052
30 -0.23323098 -0.15428129 -0.318628 -0.117978774 0.44642076 -0.17534564 -0.99704105 -0.727546 0.2636914 -0.5796719 0.5847549 -0.2527977 -0.22098406 -0.20011258 0.085266046 0.28106323 -0.10152714 0.09408748 0.299847 0.66318893 -0.131136 0.0071631 -0.090004444 -0.101876125 -0.7825467 0.4102436 -0.19818841 0.04595528 0.078280225 -0.1753869 0.3637267 0.30825904 -0.38370022 0.64537895 0.08619028 0.47909343 0.23803549 0.14763238 -0.15905678 0.08160024 -0.51784354 -0.17063949 -0.34399408 -0.10023814 0.6357967 -0.20547599 -0.21166173 -0.058876324 0.37219828 0.24275638 0.4654634 0.29172152 0.06645493 -0.34684932 0.6462389 -0.74547875 -0.5041861 -0.000208909 -0.28104523 0.056421302 -1.0469904 0.016891241 0.1564837 -0.26530984
62 0.032636248 0.4047779 -0.58045727 -0.15563129 0.36151707 0.091635175 -0.12865466 -0.7620068 -0.34451276 -0.5907665 0.038780507 0.7679747 0.4383368 0.07196938 0.14447531 0.071843624 0.3537152 0.035599623 -0.3997854 0.19067836 0.73131925 0.3271231 -0.03168609 0.27150834 -0.8039853 0.04810781 -0.26681146 0.25218406 0.03902404 -0.26954573 -0.61642665 -0.32480475 -0.111527994 0.33618447 0.10920592 0.6415747 -0.21093774 -0.11153691 -0.046336245 0.718249 -0.06883801 -1.1728712 -0.2506016 0.33742255 0.3655452 0.508545 -0.8336435 -0.3575059 -0.43366352 -0.4412815 0.03981968 -0.08015392 -0.016563142 0.1281848 0.06464317 -0.18921177 0.15698236 0.6236124 -0.19485153 0.5692946 0.43556514 0.17027645 0.6422654 0.5867384
64 0.36641267 0.11405991 -0.20436369 0.049807493 0.3902665 0.11392257 0.27038765 0.026743593 0.23768754 -0.7680692 -0.6023791 0.49063104 0.42813152 -0.3887097 -0.00428646 -0.6201651 0.14696532 0.7919851 -0.4313447 0.12844095 -0.040930383 -0.010098097 -0.33096597 -0.05503983 0.085601725 -0.21603969 -0.3501143 -0.3472331 -0.532739 -0.85763246 -0.011456712 0.2554174 0.3500214 0.23442027 -0.06838411 -0.2022958 -0.38708657 0.5450743 -0.10790133 -0.18093151 0.3107181 0.104096815 -0.1512843 0.07941804 0.2569043 0.9683719 -0.034324076 -0.71530205 -0.24014989 -0.26854047 0.14270078 -0.11760846 -0.42157543 0.09884602 0.3284424 -0.85413444 -0.82829756 -0.2898821 0.5249482 0.7624517 -0.14779341 0.5925194 0.033858743 -0.7595721
